3000 128
<pad> -0.583398 -0.924983 0.392606 -0.131078 -0.974749 -0.098117 -0.591882 -0.493942 -0.425112 0.322227 -0.730910 0.636051 -0.520110 0.288523 0.874545 -0.799996 -0.267103 -0.655796 -0.254492 0.702872 0.122202 -0.345664 0.152211 -0.829254 0.332438 0.707974 -0.561052 -0.731008 -0.772129 -0.847319 -0.597574 0.023366 0.239010 -0.399553 0.112811 -0.319755 -0.940619 -0.734733 -0.877456 0.843180 -0.764925 -0.335367 -0.437328 0.254479 0.377642 0.161959 -0.837314 0.369374 0.297728 -0.203501 0.364244 0.958878 0.868808 -0.467069 0.713120 0.373623 -0.354760 -0.871518 -0.452955 0.476833 0.882209 -0.488761 -0.579974 -0.602618 -0.403218 -0.069897 0.763133 -0.876647 -0.968919 0.926739 0.332503 0.012127 0.040784 -0.288406 -0.944101 -0.665296 0.930293 0.411915 0.596148 -0.848854 0.754253 -0.447479 -0.736614 -0.719297 0.514108 -0.749738 -0.835755 -0.338063 0.111664 0.598076 -0.857229 0.988589 -0.774537 0.597190 0.751841 0.270869 -0.041768 0.081124 -0.349237 -0.156461 -0.113768 0.456515 -0.348303 -0.596616 0.393260 -0.024390 -0.646126 0.334269 0.264858 -0.860528 0.118967 -0.029139 0.013612 -0.664935 0.570358 0.816832 0.433689 0.137763 -0.986465 -0.774627 0.898239 -0.905107 0.429289 0.922054 0.318617 -0.708064 -0.833152 0.944816
<start> 0.262521 0.040592 0.479617 0.512830 0.483888 -0.330624 0.059341 0.403881 0.327304 -0.455911 0.925048 0.614483 -0.490652 0.903444 0.318384 -0.743833 -0.715877 0.872938 -0.912111 -0.157503 -0.106571 -0.616269 0.964130 0.770196 0.610566 -0.206306 -0.841833 -0.825613 -0.593975 0.147701 -0.027630 -0.256082 -0.345402 -0.966297 0.047614 -0.685934 0.116651 0.746234 -0.489205 -0.697641 -0.423011 -0.112903 0.997292 -0.414255 -0.135625 -0.731166 -0.973993 0.048096 0.468831 0.726912 0.888608 0.555145 0.053760 0.284503 -0.307567 -0.798128 -0.675325 0.337246 -0.067135 -0.783238 0.739679 -0.543100 -0.719523 0.024119 -0.435446 -0.913630 0.327987 -0.228168 -0.183275 0.005437 0.088144 -0.274080 -0.293646 0.181571 0.682166 0.473417 -0.403936 0.892246 0.132344 -0.344485 0.115405 -0.025542 -0.395344 0.101265 0.861150 0.866457 -0.959197 -0.628802 0.319761 -0.369783 -0.593299 0.638785 -0.707577 -0.939599 0.029540 -0.270840 -0.563800 0.029038 0.559400 -0.983375 0.335228 -0.593462 0.780544 0.421960 0.857538 0.968361 -0.400343 -0.926732 -0.777014 0.304039 0.393795 0.506917 0.721630 -0.750243 0.917549 -0.521790 -0.388453 -0.407543 0.964670 -0.046095 -0.994168 0.028113 -0.915189 0.989736 -0.769911 -0.457598 0.449237 -0.896837
<end> 0.990042 -0.277974 -0.022615 0.994525 -0.672313 0.674021 -0.208502 0.994491 -0.415212 0.971107 0.245214 -0.128451 -0.199169 0.424263 0.048772 0.659749 -0.346872 -0.405952 0.527435 0.521145 0.862150 0.302061 -0.973273 0.783664 0.099554 -0.749229 -0.453979 -0.367480 -0.126214 -0.931609 0.810759 -0.566333 0.035631 0.365903 -0.409579 -0.054090 0.830503 0.613285 -0.121000 0.501212 -0.327867 0.676898 -0.370715 -0.834464 -0.395678 -0.271197 -0.385188 0.534269 0.486482 -0.174680 -0.553420 0.042478 -0.704985 0.158403 0.716626 0.084508 -0.977412 0.222074 0.565505 -0.826386 -0.603233 -0.526313 -0.070856 0.747592 -0.493895 -0.325472 -0.649270 0.430478 -0.134530 0.926921 0.704219 -0.838119 0.818953 0.063776 -0.453698 -0.153130 -0.766714 -0.948792 -0.890561 0.350623 0.758832 -0.516434 0.486719 -0.346680 -0.906135 -0.467321 -0.783921 -0.881647 -0.763038 0.838997 0.592619 -0.677641 0.458405 0.777073 -0.461481 0.614333 -0.715620 0.852976 0.955156 -0.264461 0.983415 0.427140 0.780968 -0.734485 -0.801779 0.656042 -0.030135 0.628498 0.166909 0.083289 -0.953390 -0.146696 -0.265669 0.841332 0.741070 0.682623 -0.252958 -0.607819 -0.670564 -0.162159 0.501021 -0.014908 -0.238558 0.059170 0.165459 -0.046205 0.855149 -0.939813
<unk> 0.004508 -0.897680 0.310478 0.219655 0.430447 -0.727881 -0.668731 -0.494255 0.457647 -0.264249 0.046939 -0.531414 -0.616351 -0.184266 0.326444 0.454030 -0.630742 0.383252 -0.249814 0.210213 0.456226 -0.232301 0.135134 0.914008 0.657914 -0.537913 0.206929 0.881425 -0.603567 0.745660 -0.539188 0.538977 0.950187 -0.869358 0.553151 -0.909760 0.163798 -0.568795 -0.731767 0.212650 -0.583232 0.044546 0.105431 -0.897921 -0.708064 0.817132 0.592879 0.877173 -0.745331 -0.221604 0.194300 0.200696 -0.000027 -0.416896 -0.374400 -0.480062 -0.194901 0.265750 0.655275 0.573805 0.370716 0.348910 0.554819 0.555177 0.320018 -0.764573 0.333768 -0.853903 0.860156 0.866757 -0.305742 0.205722 -0.189571 -0.123139 0.836263 0.911071 -0.919517 0.629681 -0.492890 -0.325613 0.999608 0.125382 -0.983172 0.111534 0.111847 -0.880724 0.582954 0.144986 0.395630 -0.738921 0.022415 0.866808 0.201229 -0.655622 -0.765900 -0.218995 -0.344825 -0.157404 -0.187917 -0.245567 0.698872 -0.159958 -0.704961 -0.514010 0.553521 0.792626 0.057937 -0.912785 0.353578 -0.614254 0.102875 0.197802 -0.671334 0.354683 0.027487 0.197124 0.769701 -0.543915 0.079655 0.674174 0.609955 -0.082578 -0.620000 -0.387703 -0.122085 -0.711714 0.146229 0.879145
the 0.404603 0.619613 -0.920387 0.844158 0.825050 0.466432 -0.486679 -0.897082 -0.802898 -0.565436 -0.521200 -0.261029 0.761858 -0.828867 -0.094347 0.182811 0.588143 0.489299 0.801332 0.074916 0.815806 0.886436 -0.142862 -0.903928 -0.262940 -0.968084 -0.316459 0.642566 -0.401170 -0.868316 0.247401 0.728343 0.885480 0.185437 0.413408 0.742460 0.785917 -0.999728 -0.451411 -0.125519 0.956169 -0.579794 -0.746240 0.746202 0.808140 -0.703931 0.864392 -0.438802 -0.289044 0.590387 -0.710564 0.616482 0.990015 0.923337 0.294917 0.548844 0.785729 -0.674440 -0.251362 -0.079611 0.668855 0.744222 -0.056047 0.160325 0.825035 -0.148825 -0.213956 0.829165 -0.065076 0.634287 0.417127 -0.419668 -0.423028 0.334174 0.255533 -0.419892 0.237721 0.759671 0.313774 0.494224 0.736010 -0.617411 0.160278 -0.556661 -0.880243 0.867708 -0.124825 -0.039478 0.226704 0.491629 -0.686139 -0.970945 0.592481 -0.830007 -0.420092 -0.683247 -0.415023 -0.181383 0.471177 0.603679 0.471081 0.817489 0.997212 0.195692 -0.912356 0.045356 -0.315483 0.369984 -0.171051 -0.200057 -0.837619 0.634756 -0.001477 -0.847072 -0.579720 0.822110 0.296702 0.530531 -0.487391 -0.664632 -0.193626 0.330264 0.047612 -0.925564 0.369523 -0.421388 -0.070424 -0.630045
and -0.198492 -0.211476 0.866921 0.803538 0.472307 0.770964 -0.204982 0.847737 -0.387378 -0.238455 -0.869013 -0.501721 -0.477825 -0.026601 0.818849 -0.913829 0.303125 0.201806 -0.125839 0.998995 -0.753182 0.590850 0.510033 -0.643485 0.739812 -0.479396 -0.582617 0.018139 0.672783 -0.432513 -0.447171 -0.064755 -0.906082 -0.981707 0.567371 -0.853698 0.131356 -0.392206 -0.251777 0.592053 0.219324 -0.478795 -0.387213 0.105621 0.213140 -0.201804 0.809632 0.674658 -0.336729 -0.545215 0.827904 -0.065783 0.474858 -0.377130 -0.267480 -0.123976 0.350844 0.271946 -0.129089 0.883431 -0.619171 0.830629 0.302712 -0.117450 -0.428523 -0.825857 -0.033506 -0.157772 -0.873215 0.394406 0.567181 0.012462 0.832137 0.382335 -0.253729 0.898858 0.286191 -0.734522 -0.894822 -0.238382 0.853532 0.676383 -0.662264 -0.988020 0.924091 -0.388225 -0.803986 0.671642 0.484277 -0.283740 0.792924 0.463978 -0.194912 -0.989432 0.514312 -0.048876 -0.736843 -0.130108 -0.249401 0.424652 0.782518 -0.971098 0.644230 -0.644769 0.353011 0.878955 -0.390069 0.577524 0.905054 -0.438779 0.540303 0.793438 -0.080584 0.786591 0.429705 0.016911 0.462153 0.304125 0.074712 -0.637911 -0.165981 0.186015 0.501073 -0.716406 0.414595 -0.249883 -0.557496 -0.858739
of 0.205549 -0.537276 -0.454651 0.060565 0.265721 -0.625879 0.668062 -0.822718 -0.296535 0.464385 -0.969220 0.936597 -0.122468 0.103611 -0.267126 -0.136087 0.997319 0.797239 0.018418 0.853366 -0.890445 0.997607 0.410392 0.521665 0.959552 0.397495 0.696498 0.277674 -0.590061 -0.011258 -0.751202 0.639850 -0.182329 0.263496 0.405756 -0.984045 -0.664178 0.212741 -0.162035 -0.584982 -0.173624 0.172582 -0.818280 0.830460 0.033355 -0.836053 0.571202 -0.756669 -0.233379 0.715298 0.428687 0.810095 0.530533 0.060345 -0.160535 -0.226120 -0.595871 -0.272986 -0.649893 -0.587159 0.941334 -0.976107 -0.629458 -0.728295 -0.814498 -0.259097 -0.031514 0.359652 0.435655 0.831100 -0.346911 0.489509 -0.515406 -0.558760 -0.050203 0.425930 -0.976205 0.544442 0.362433 0.554901 -0.044135 0.339652 -0.912673 0.127047 -0.622429 0.560693 0.000586 -0.659989 0.593605 -0.227090 0.304204 -0.436184 -0.074324 0.617600 0.927939 -0.989409 -0.018068 -0.989399 0.921822 -0.161467 0.881862 -0.496679 0.191744 0.598095 -0.832839 0.732382 -0.035925 -0.165942 0.144085 -0.349675 -0.873742 0.749222 0.457641 -0.591898 0.891413 0.885846 0.300722 -0.084474 -0.589632 -0.269750 -0.677293 0.516800 -0.772410 -0.676720 0.358657 0.943366 -0.808461 0.170794
to -0.091364 0.234619 -0.574252 -0.477949 -0.540607 0.036045 0.304849 0.869170 0.066042 -0.823686 -0.339414 -0.969508 -0.871337 0.508718 -0.754058 -0.205322 0.171554 -0.645391 -0.494209 -0.121825 0.573780 -0.243915 -0.517166 -0.698285 -0.838484 -0.923682 -0.681132 -0.180737 0.623028 -0.888547 -0.368877 0.632991 0.234163 0.509755 0.796538 0.096876 0.023149 0.489810 -0.061358 0.823463 0.443811 -0.065567 -0.081070 -0.958952 -0.351008 -0.353838 0.355580 -0.387475 0.411720 -0.432340 -0.951286 -0.037840 -0.241180 0.674783 0.791687 0.384337 0.600157 -0.542842 0.681097 -0.347107 0.661956 0.476631 -0.412518 0.778640 -0.101189 -0.097899 -0.850060 -0.849116 0.480366 -0.532753 -0.107934 -0.376121 0.230745 0.608962 0.818892 -0.116761 -0.730135 0.534567 -0.365389 -0.125168 0.918143 -0.593107 -0.812253 -0.744269 -0.303892 -0.216122 -0.664282 -0.438472 -0.985420 0.522077 -0.551706 0.768602 -0.303911 0.580869 0.742660 0.350940 -0.033183 -0.933363 -0.936791 0.838679 0.402792 -0.883065 -0.722648 -0.741145 0.435943 -0.257190 0.069736 -0.320090 -0.145406 0.384186 0.796236 0.106055 0.534913 0.835207 0.696882 0.789216 -0.151487 -0.902048 0.645243 -0.748820 0.897861 -0.398750 0.134343 0.860203 -0.775626 -0.349997 0.055564 0.489507
a 0.971359 -0.224699 -0.283198 0.208401 -0.654080 0.148436 -0.834125 -0.440544 0.139133 -0.369434 0.283353 -0.708486 0.312086 0.456912 -0.967692 -0.833161 -0.869600 0.378826 -0.201615 -0.461119 -0.548672 0.785757 0.166620 0.522789 0.169026 -0.998299 0.300417 -0.342263 -0.029870 0.682212 -0.411160 0.910984 -0.676209 -0.109549 -0.282564 -0.211660 -0.766725 0.866555 0.963807 -0.182969 0.963151 0.761394 -0.696873 0.680113 -0.661646 -0.390359 -0.328147 0.050317 -0.402527 0.292088 0.146528 -0.103313 -0.980865 -0.843911 -0.466888 0.763343 0.284973 0.837972 -0.393574 0.179016 0.328244 0.473677 0.763073 -0.671351 -0.865530 -0.593195 0.892640 -0.325047 0.362687 0.849207 0.936636 -0.694636 -0.451174 0.405338 -0.592974 -0.701056 0.161684 -0.994616 -0.018258 0.829465 0.423765 -0.336917 0.940206 0.244915 0.863949 -0.405280 -0.638432 0.955052 -0.440048 -0.065815 0.673259 0.453640 0.231314 0.829543 -0.999434 -0.296077 -0.653333 0.886511 0.256908 0.805947 0.732666 -0.377145 -0.846050 -0.138896 0.912519 -0.478055 -0.157724 -0.484467 -0.619790 -0.017684 -0.739103 0.039885 -0.018194 -0.037129 -0.970037 0.518418 0.381507 0.285519 0.049182 0.766613 -0.385813 0.485399 -0.268255 -0.353931 0.621313 -0.474514 0.101889 -0.455165
in 0.295155 -0.982841 -0.458752 -0.888818 0.782905 0.877205 0.273135 -0.061369 -0.316770 0.806599 0.369788 -0.525522 -0.266035 -0.775781 -0.772969 0.303000 0.179586 -0.774086 0.270179 -0.531833 -0.236557 -0.418610 0.048541 0.698428 -0.859631 -0.538241 -0.099193 -0.958569 -0.503427 -0.701829 0.621047 0.980871 -0.725502 -0.875443 0.729417 -0.433280 0.499908 -0.287455 -0.422313 0.334081 0.689171 0.113820 -0.699967 0.117254 0.827050 -0.017011 -0.805789 0.447627 0.662783 0.378963 -0.775566 0.815916 0.447137 0.617281 -0.065743 -0.296213 -0.909939 0.765373 -0.556858 -0.508719 -0.792385 0.961455 -0.843337 0.408839 -0.021103 -0.292860 -0.015631 0.150577 0.183623 -0.039051 -0.709602 0.549429 0.100260 0.102437 0.079073 0.273064 -0.681147 0.503679 -0.603304 -0.402688 -0.635425 0.283710 0.598056 0.676113 -0.868449 -0.231180 -0.203180 -0.526092 0.563802 -0.361325 0.510852 -0.270438 0.580365 -0.700244 0.689561 -0.129450 -0.343799 0.958562 0.810786 -0.542790 0.761345 0.741081 0.329303 0.072795 0.297620 0.422452 0.154201 -0.112958 -0.743081 0.475255 0.182475 0.857097 -0.536489 -0.860838 -0.418431 0.362282 -0.051058 -0.189621 -0.839004 -0.179867 -0.061041 0.570389 0.871809 -0.568765 -0.808701 0.522400 0.723847 0.702805
i 0.592870 -0.445902 -0.301938 0.638404 -0.489337 -0.120676 -0.869431 -0.207131 0.297467 0.243695 0.418826 0.844782 0.526958 -0.116769 0.899325 -0.164137 -0.957813 0.966164 0.876093 0.820252 0.137071 -0.816244 0.421361 -0.350407 0.888260 0.220481 0.916586 0.150957 0.630823 0.221198 -0.787057 0.333708 -0.703484 -0.801451 0.058374 0.854614 0.413935 -0.646505 0.592409 0.943972 -0.206620 0.866751 0.780293 0.974782 -0.068529 -0.454550 0.168054 0.833255 0.265158 0.685611 0.848639 -0.188317 0.315701 0.443630 0.368042 -0.504351 -0.708481 -0.526945 0.320082 0.823707 -0.977481 0.336299 0.021936 0.769355 0.490282 0.511136 0.600487 0.561009 -0.417802 -0.384654 -0.242575 -0.105851 -0.959546 0.594459 0.400217 0.853849 0.095990 0.288942 0.539695 0.066392 0.774058 -0.896772 -0.614469 0.636569 -0.484675 -0.229114 0.940335 -0.064285 -0.813251 -0.251155 0.901340 -0.187663 0.022518 0.850812 0.763015 -0.238850 0.701117 0.264455 -0.278367 0.554861 0.527835 -0.102271 -0.659814 -0.289162 0.851969 0.319810 -0.238784 0.189551 -0.920167 -0.369034 -0.146575 0.667330 0.521077 0.477096 0.983372 -0.580521 -0.716959 0.567711 -0.762284 -0.989714 0.355122 0.368819 0.814816 0.135868 -0.097378 0.780413 -0.713454 0.612270
he -0.189865 -0.859300 0.572225 -0.409499 -0.525356 0.479782 0.164129 0.501461 -0.128095 -0.770154 -0.948748 0.559261 -0.649116 0.412325 0.163363 -0.175748 -0.569783 -0.780759 -0.500710 0.911214 -0.693724 -0.858425 -0.235645 0.218420 -0.446573 0.833062 -0.474538 -0.074792 -0.402023 -0.017977 -0.670801 -0.096785 -0.405446 0.201831 0.958171 -0.325430 -0.889737 -0.697880 0.046316 0.187888 -0.411864 -0.144207 -0.369399 0.486176 0.847845 -0.315705 0.923944 -0.452173 -0.777516 -0.704023 0.432441 -0.220181 -0.964020 -0.511296 -0.520756 0.671342 -0.533119 0.104516 -0.439825 0.369442 -0.584237 -0.780035 0.808998 -0.238431 -0.186746 0.974423 0.051029 -0.122997 0.806104 -0.799413 0.805501 -0.493783 0.152331 0.474896 0.666231 0.097911 0.367815 -0.233685 -0.220709 -0.364466 0.854726 0.609622 0.655561 -0.095613 -0.969687 -0.163509 -0.346235 -0.056865 -0.232368 -0.003997 -0.820258 -0.941095 0.521421 0.141165 0.565047 -0.336481 0.943051 0.710990 -0.505081 -0.711813 -0.307037 -0.402221 0.303837 -0.084480 -0.614669 0.430524 0.157223 -0.553164 0.742038 0.898675 -0.461655 -0.993690 -0.549100 -0.624615 0.345619 -0.275111 -0.148175 -0.119290 0.530474 -0.114498 -0.654956 -0.018638 0.844539 -0.343175 -0.442560 0.509035 0.139099 -0.423826
that 0.766001 -0.261653 -0.954816 -0.319236 -0.262952 -0.531611 0.393334 -0.623799 -0.361015 0.561991 -0.912847 -0.228001 -0.376713 -0.241928 -0.117197 0.886091 -0.391303 0.794545 -0.109596 -0.543256 -0.352783 -0.852145 0.812593 0.382781 -0.358261 0.247941 -0.064259 0.113648 0.088595 -0.933957 0.514137 -0.878569 0.745977 0.721713 -0.761959 -0.107239 -0.379320 -0.293769 0.725890 0.505919 -0.031621 -0.766337 0.789917 0.431483 0.927401 0.137016 0.337176 -0.523253 0.239175 0.075546 -0.325683 0.274812 0.050352 0.677012 -0.315032 -0.651205 0.486713 -0.003966 -0.513822 -0.133547 0.742425 -0.978768 -0.922871 0.002892 0.339814 0.518530 -0.061358 -0.472069 -0.781926 -0.704380 0.897460 -0.719303 -0.745115 -0.140845 -0.611867 0.140335 -0.421758 -0.649537 -0.666724 -0.010675 0.943589 0.444898 -0.835834 0.574015 -0.913927 0.491500 -0.568092 0.137842 -0.414748 -0.052748 0.989581 -0.281341 0.847933 0.709663 -0.052604 0.161165 0.675971 -0.138793 -0.131134 -0.304437 0.362491 0.514637 0.903113 0.489395 -0.435578 -0.228464 0.298827 0.394533 0.904843 0.232650 -0.382938 0.915977 -0.278573 0.156638 -0.445217 0.535489 -0.830556 0.969413 0.175809 -0.041795 -0.251623 0.593920 0.179128 0.761651 -0.762831 -0.512671 0.787484 0.959467
his 0.091583 0.842896 0.790301 0.369869 -0.238037 0.640423 0.533193 -0.711530 -0.497143 -0.305021 0.903228 -0.717932 -0.371609 -0.129555 0.587725 -0.549090 0.544166 0.119557 -0.091374 0.887019 0.287663 0.573538 -0.709889 0.166932 0.567298 -0.217423 -0.949372 -0.749856 -0.191370 0.232458 0.867884 0.777639 -0.324203 0.066537 -0.032974 -0.204705 -0.934420 0.758090 -0.549658 0.753503 -0.819808 -0.684618 0.875902 -0.182497 -0.690169 0.094972 -0.598537 0.742623 -0.231939 -0.880223 -0.189894 0.185070 -0.514944 0.452151 0.235678 0.509097 0.803905 -0.062919 0.685215 -0.578151 0.810387 -0.856053 -0.469328 0.734383 0.112878 -0.912451 -0.214540 -0.413451 -0.496998 -0.810731 -0.533292 0.709679 0.119448 0.614423 0.280092 -0.994320 0.638609 -0.380184 -0.996881 0.712783 -0.068187 -0.002777 -0.699644 0.102435 -0.545438 0.797085 0.049798 0.462421 -0.741383 0.278493 -0.480129 0.268691 0.309228 0.228258 -0.199309 -0.974969 -0.852957 0.192910 0.361786 0.908229 0.100368 -0.976037 0.374285 0.363398 -0.955684 0.568961 0.622489 -0.985201 -0.421426 0.110265 -0.744694 -0.047547 0.541297 -0.219485 -0.715175 0.674737 -0.498895 -0.685311 -0.428509 0.492140 -0.321959 0.090469 -0.035699 -0.687004 -0.262182 0.657043 -0.854993 0.947172
was 0.102615 0.713334 0.480195 0.996912 0.793134 0.856845 0.447583 -0.388503 0.400602 0.129753 -0.805909 0.521386 0.382561 0.541337 -0.218650 0.378458 -0.744971 0.746297 -0.415349 -0.333310 -0.742994 -0.695124 0.773744 0.495629 0.392990 -0.896843 0.935516 0.912314 -0.422776 0.632831 -0.847350 -0.591261 0.017066 0.803487 -0.673184 0.336227 0.252939 0.859272 -0.292728 -0.465921 -0.308624 0.791275 0.787791 0.581603 -0.045110 -0.736508 0.436593 -0.828839 -0.617717 0.325355 0.349873 -0.378748 -0.503209 0.597176 -0.615962 -0.574059 0.133576 -0.568548 -0.298900 -0.610392 -0.923114 0.005939 -0.857101 0.525653 0.704565 -0.759315 -0.747110 0.312098 0.452404 -0.612155 0.657338 -0.155876 -0.184072 0.961666 0.338658 0.865150 0.207975 -0.745399 0.602008 0.846700 -0.275245 0.966509 0.951606 -0.090820 -0.436898 -0.414165 0.158562 -0.936051 0.646580 0.780152 0.650503 0.860373 0.589505 -0.136478 0.168136 -0.366929 -0.684070 -0.204106 -0.497738 -0.684867 -0.215724 -0.280560 -0.417409 -0.202801 0.873584 0.451436 0.792369 0.396355 -0.263562 0.264312 0.877911 -0.467419 0.733138 -0.249307 -0.293466 -0.716949 -0.486349 0.429340 -0.962183 0.496360 -0.110023 -0.784880 0.001448 0.103901 0.938641 -0.331852 -0.616574 0.286659
it 0.378629 -0.011359 -0.583236 -0.689379 -0.484681 0.610147 0.406896 0.997602 -0.833411 -0.226244 -0.715183 0.862943 -0.715001 0.906142 -0.153061 0.613308 -0.915471 -0.573073 0.581975 0.554397 -0.848218 -0.981303 -0.511980 0.102236 0.462687 -0.869466 -0.886028 0.443406 -0.615582 -0.672855 -0.886310 0.134122 -0.134839 -0.323891 -0.702314 -0.224405 0.045632 0.094912 -0.252854 -0.676029 -0.410270 0.719800 0.768008 0.821535 0.234842 0.904420 0.585711 0.155310 0.130978 0.685957 0.918008 -0.309350 -0.027232 0.115105 0.046604 -0.079927 0.383767 -0.455466 -0.432501 0.130331 0.254667 0.178067 -0.490785 0.547867 -0.455214 -0.403178 -0.263518 -0.653516 -0.966433 0.381874 0.273146 -0.036993 0.155319 -0.257615 -0.758861 0.630426 -0.487664 0.648329 0.396429 -0.010874 -0.136051 -0.586014 0.371002 0.982929 -0.810994 0.463397 -0.793342 0.374746 0.694506 0.510353 -0.787569 -0.815191 0.182993 -0.015149 -0.635782 -0.163192 -0.018790 -0.100823 -0.403589 -0.216429 0.285846 0.905132 -0.193603 0.687647 0.631811 0.140130 0.589186 0.503939 -0.795157 -0.806198 -0.642035 0.893867 0.462255 0.321150 0.762990 0.892298 -0.632106 0.334683 -0.157277 -0.922298 0.706459 -0.026521 -0.865625 -0.442637 -0.373534 -0.028130 0.936809 0.879436
you -0.240230 -0.642667 -0.877795 0.542417 -0.196835 -0.530176 -0.950136 0.635632 0.516635 -0.336655 -0.897550 -0.671386 -0.187912 0.873815 -0.544367 0.701921 -0.973289 0.513741 0.318156 0.555984 0.805407 0.193962 -0.238472 -0.004574 0.910921 -0.408764 0.720428 0.168066 0.746201 -0.627872 -0.719944 0.619429 0.397305 -0.516078 0.262427 -0.771210 0.384258 0.433232 -0.939277 0.917011 -0.632519 0.500680 0.852041 -0.304345 -0.641725 -0.933124 0.140420 -0.399326 0.840835 0.777059 0.927353 0.419738 -0.776419 -0.512478 -0.638008 -0.125167 0.786116 0.729077 0.108922 0.387094 -0.826870 0.018253 0.083013 -0.665895 -0.804968 0.877050 0.710043 -0.569220 0.137446 0.236380 0.511109 -0.552210 0.974029 -0.100423 -0.925492 -0.173208 0.671404 0.323285 0.530794 -0.159742 0.227312 0.886418 -0.681246 0.267402 -0.434511 0.268131 0.042650 0.553524 -0.265472 -0.556045 0.657070 0.998191 -0.255470 -0.310774 0.155310 0.619401 -0.340384 0.916281 -0.851339 -0.964367 -0.009753 0.372642 0.705662 0.768476 -0.703537 0.760591 -0.313350 -0.891006 0.383420 -0.070158 -0.318106 0.841300 -0.053417 0.576050 -0.973896 -0.066386 0.840642 -0.124405 -0.244167 -0.572691 0.579478 0.688890 0.793193 0.752728 0.249270 -0.252576 -0.152657 -0.637953
with -0.566108 0.334415 -0.122663 -0.469235 0.481811 0.933884 -0.342031 0.452309 0.864731 0.845121 0.050373 -0.783486 0.700549 0.614860 0.844876 0.712181 -0.696914 0.882785 0.251345 -0.019346 -0.418062 0.654836 -0.781905 0.643484 0.768138 0.276489 -0.113369 0.865278 -0.190645 -0.731210 -0.702825 0.261568 -0.636090 -0.445088 0.882874 0.324860 -0.465695 -0.529638 -0.969001 -0.340934 -0.733194 0.345396 0.418018 0.170816 -0.599560 -0.584855 -0.725824 -0.490668 0.885390 0.505092 0.968657 0.584519 0.571938 -0.478835 -0.200935 0.101892 -0.009070 0.554185 -0.447784 0.976974 -0.462621 0.057187 0.033456 -0.172895 -0.768244 -0.297541 -0.293350 0.907354 0.817120 0.863602 -0.115067 -0.891985 0.508266 0.472813 0.194080 -0.724037 -0.948535 0.990758 0.084855 0.373879 -0.790134 0.348409 -0.458275 0.081722 -0.332250 -0.089562 -0.902380 -0.385619 -0.053416 0.483066 -0.939572 -0.946253 0.504913 0.705595 -0.170260 -0.665659 0.143613 0.761694 0.236772 -0.785895 0.244426 0.257101 0.846549 -0.068447 -0.141019 0.229733 -0.366652 0.396361 0.058049 -0.749644 -0.915287 -0.923333 -0.397831 0.811552 -0.934805 -0.327982 0.031990 -0.643521 0.419145 -0.388071 0.726072 -0.272236 0.603358 0.950837 -0.591485 0.818076 0.981740 0.283206
is -0.955431 -0.708147 0.314109 0.743317 0.247483 0.021875 -0.679069 0.020814 -0.700877 -0.209568 -0.599183 -0.486368 0.860323 -0.589709 0.824091 0.970553 -0.648720 0.542724 -0.074683 -0.923103 0.597134 0.499254 0.126954 0.381166 -0.777042 0.068974 0.570436 0.840538 -0.786683 -0.554879 -0.522398 -0.373536 -0.298439 0.528882 0.623094 -0.503948 -0.653138 0.174885 -0.402842 0.401596 -0.020460 -0.193448 0.897940 -0.488283 0.979826 -0.581435 0.511895 -0.719618 0.939770 -0.993600 -0.273552 0.216750 -0.309010 -0.392909 -0.554524 0.049776 -0.760600 -0.129539 -0.773873 -0.793515 0.346638 -0.765837 -0.401640 0.459515 0.917848 -0.350472 0.188107 -0.324316 -0.515739 -0.108817 0.777140 -0.760094 0.021550 0.586431 0.119919 -0.320207 0.027949 0.166834 0.752527 -0.689130 -0.367816 0.677590 -0.825241 0.109293 0.951387 -0.888510 0.627924 0.922491 0.710832 -0.210319 -0.670728 -0.255064 -0.155555 -0.069461 0.705420 -0.527842 0.497328 -0.214689 -0.404443 -0.386040 0.745203 -0.205860 -0.888948 -0.354279 -0.619774 0.089102 -0.433196 -0.313643 -0.360883 0.375016 -0.676644 -0.288638 0.979050 0.693823 0.309776 0.168871 0.522741 0.597905 -0.910834 -0.210231 0.768118 0.922622 0.576694 0.575035 0.276331 -0.960256 -0.076849 0.526631
as 0.542264 -0.873601 0.924017 -0.860189 0.956109 -0.939938 -0.743892 0.981410 -0.431762 0.392591 -0.736994 -0.518903 0.000764 -0.332378 0.356398 0.541638 0.287887 0.352912 -0.729821 -0.309612 0.668593 -0.015471 -0.181495 0.746093 0.025132 0.210241 0.615604 0.110052 0.116050 -0.861842 -0.827056 -0.711064 0.633836 -0.163284 -0.928164 0.861240 -0.139479 -0.228961 0.945482 0.213830 -0.880035 -0.182987 0.595442 0.401139 0.395119 0.717481 0.174235 0.684292 -0.335383 -0.628730 -0.499647 0.271395 -0.539332 -0.384918 0.956133 0.365804 -0.090862 0.395352 0.728251 -0.887063 0.689332 0.349925 0.713884 -0.619131 0.087150 -0.462909 -0.998816 -0.193907 -0.538692 -0.298112 -0.886579 -0.549174 0.646445 -0.093714 -0.669969 0.742861 0.779404 0.626989 -0.801767 -0.800957 -0.340799 -0.448171 0.877286 0.399894 -0.896002 -0.987116 -0.842224 0.109460 0.321239 -0.527658 -0.472091 0.004333 -0.265598 -0.163050 0.871523 -0.737690 0.255532 -0.417794 0.952519 -0.699454 0.088433 -0.905879 -0.623071 -0.641828 -0.772582 0.631635 0.048191 0.228801 -0.564188 0.705239 -0.390962 -0.090948 -0.987090 -0.147635 -0.602086 -0.577477 0.030599 0.104436 0.895414 -0.743344 0.853553 -0.119401 0.278179 -0.932931 -0.530496 -0.339815 0.388599 0.006824
not -0.647539 -0.931082 -0.848997 -0.118165 -0.950556 0.686099 -0.257773 0.510372 0.866452 -0.029693 0.381569 0.434641 0.663589 0.064045 -0.475662 0.430610 0.804493 -0.706516 -0.247658 0.028563 -0.498768 -0.953601 -0.609323 0.280784 0.896020 -0.698303 -0.933845 0.854449 0.665042 0.735495 -0.579123 0.318273 -0.827698 0.055751 0.989918 0.961541 0.247473 -0.056917 -0.888642 0.171424 0.839677 -0.914961 0.216318 0.947346 0.946582 0.997431 0.365318 -0.943702 0.342932 -0.724782 -0.651403 0.353473 0.378633 0.482885 -0.640612 -0.185405 -0.507746 -0.758336 0.293391 0.695801 -0.157384 -0.118396 0.935469 -0.592806 -0.365493 -0.247119 -0.176397 0.035738 -0.027070 -0.833430 -0.805071 0.392021 -0.198595 0.116291 -0.953992 0.288127 -0.337406 0.435803 0.692984 -0.239554 0.872886 -0.205471 -0.185241 -0.129978 -0.209351 0.424222 -0.182514 0.096580 0.665973 0.311926 -0.182066 -0.031085 -0.582972 -0.833376 0.494047 0.543373 -0.587297 0.665049 -0.387960 -0.204016 0.264220 0.616781 0.973123 -0.903930 -0.425130 0.780266 -0.187519 -0.188662 0.810555 -0.358082 -0.588084 -0.326744 0.474120 0.385801 -0.210055 -0.552088 -0.426907 0.558897 -0.436216 0.331161 -0.065973 -0.011576 0.581591 0.230963 -0.035193 -0.458199 0.139717 -0.407956
for 0.077269 0.228693 0.925191 0.417933 -0.147894 -0.579498 -0.339617 0.882068 0.341079 0.154318 0.353507 0.891246 -0.799208 -0.272705 -0.339630 0.837506 0.210388 0.563552 -0.939008 -0.214316 -0.023709 0.005173 -0.309933 0.366351 -0.334494 0.238030 0.530708 0.580153 0.606098 -0.463116 0.242992 0.260248 0.793791 -0.149142 -0.091886 -0.965413 -0.658295 0.117930 0.310768 0.207238 0.065342 0.786681 -0.166471 0.141543 -0.678701 -0.251174 -0.075237 -0.251839 0.541603 -0.252140 0.784045 -0.069158 0.502789 0.474593 0.507379 0.589491 -0.684319 0.501677 -0.986793 0.594783 0.032157 -0.771531 -0.228889 -0.747170 0.385788 -0.516402 -0.550063 -0.214580 0.790719 0.829171 -0.368401 0.134248 -0.786411 0.378482 -0.876283 -0.052595 0.689575 0.768062 0.133758 -0.437760 -0.236530 0.389716 -0.513334 -0.650068 0.855788 0.626683 0.786940 -0.076325 -0.557404 -0.170180 0.449818 0.345462 -0.757576 0.986457 -0.907501 -0.491495 -0.220195 0.314735 -0.562358 0.266943 0.369359 -0.525353 0.339918 -0.966892 0.170277 -0.885311 -0.441987 -0.352959 0.443901 0.866736 0.592289 -0.744393 0.510507 -0.708610 0.997329 -0.487489 -0.510572 -0.329460 0.464857 -0.124179 -0.976602 -0.378588 -0.530863 -0.389481 0.398858 0.526903 -0.447964 -0.477787
had -0.394145 -0.091822 -0.596864 0.059298 0.891327 -0.502656 -0.349720 -0.108517 0.152902 0.221362 -0.330358 0.190960 -0.851498 -0.123354 0.772544 0.525309 0.541736 0.105484 -0.510869 -0.352639 0.523496 0.177639 0.396932 -0.268491 -0.544865 -0.406059 -0.071087 -0.346020 -0.588920 0.035431 0.081051 -0.830078 -0.522777 0.980207 -0.952000 -0.449865 0.775153 0.864252 -0.844123 0.835028 -0.849111 -0.926272 -0.607580 -0.872821 -0.902059 0.718162 -0.699697 0.242307 -0.316525 0.984212 -0.553319 0.462682 0.464298 0.842947 -0.620681 0.674315 -0.656983 0.832953 0.086209 0.281158 0.752205 -0.470001 -0.484725 0.401740 -0.345786 0.280640 0.281431 -0.965847 0.641267 -0.071448 0.655606 -0.850436 -0.472046 -0.159028 -0.489486 -0.728287 0.964468 -0.335951 -0.710788 0.718645 0.522724 -0.436193 -0.395009 0.653283 -0.353781 -0.037937 0.166967 0.471936 -0.142480 0.770507 -0.285726 0.815455 -0.676251 0.892400 -0.646714 0.238600 0.677604 0.664773 -0.687741 0.723217 -0.747273 0.601443 -0.126405 -0.304248 0.155619 0.077620 0.347829 0.859320 -0.631714 0.550991 0.659722 0.822873 0.208281 0.433992 0.029166 0.756119 0.046576 -0.512254 -0.421747 -0.511329 -0.090608 0.892990 0.890538 0.343595 0.313831 0.900590 0.962134 0.065467
but -0.822784 -0.868000 -0.557508 0.272779 0.851376 0.292035 -0.318036 -0.597642 0.424851 0.913505 0.865801 -0.749641 -0.712290 0.403431 -0.887519 0.056781 -0.070409 0.751092 0.286976 0.928241 -0.584061 0.378076 0.757780 -0.344441 0.339918 0.433358 0.554265 -0.706298 0.046625 -0.985571 -0.773013 0.749000 0.771023 0.536159 0.006508 -0.192950 -0.943083 0.953193 0.906888 0.293977 -0.903517 -0.414852 -0.383747 0.395577 -0.460765 0.021493 0.977004 0.833818 0.807320 0.297374 0.935079 0.417639 0.893927 0.116619 0.596209 0.335376 -0.509746 -0.907470 0.697647 0.440007 0.453107 -0.390918 -0.657042 0.622208 -0.610467 -0.296133 -0.961649 0.591995 0.503823 0.405560 -0.218085 -0.558750 -0.664542 -0.242929 -0.075887 -0.116681 -0.110624 -0.980995 -0.227036 -0.706367 -0.321932 0.841024 -0.845408 -0.837508 0.238133 -0.414555 0.063534 0.180390 -0.100202 0.424033 0.265945 -0.456274 -0.060864 -0.807884 0.307277 0.134657 0.257181 0.154246 0.225024 -0.651165 -0.744557 -0.790054 -0.078011 -0.901694 -0.569575 0.257267 -0.625784 -0.739767 -0.680704 0.241713 -0.026495 0.420707 -0.194583 -0.397619 -0.669023 -0.105465 -0.638928 -0.643073 0.478518 -0.884530 -0.450779 0.036136 -0.027880 0.964503 -0.867289 -0.327171 0.109761 -0.602877
at -0.709303 0.744078 0.651297 0.570457 0.820772 0.823819 -0.242968 0.832802 0.768977 -0.396921 -0.812336 -0.330303 0.959720 0.996423 0.673755 -0.482458 0.412670 -0.325052 -0.932756 -0.731849 -0.265230 0.700434 0.211158 -0.521393 0.192919 -0.360414 0.017502 0.466918 -0.011395 -0.882638 0.490067 0.266527 0.728813 0.258102 -0.562367 0.269401 -0.618124 -0.321558 -0.168825 -0.575217 -0.108331 0.985510 0.071041 0.647411 0.153885 0.817775 0.172378 0.325087 0.521285 0.096444 0.689773 0.508332 0.535266 0.860045 -0.352746 -0.721164 -0.921588 0.223176 0.956489 -0.059877 0.140263 -0.620885 -0.684760 0.178007 0.918656 -0.323856 -0.668994 0.648685 0.693052 -0.933024 0.397926 0.952513 0.731667 0.613930 0.019437 -0.782018 -0.601119 0.934765 0.857808 0.103744 -0.041025 0.996731 -0.205459 0.656391 -0.617390 -0.363460 0.458648 -0.725441 0.550801 0.864254 0.500351 0.396709 -0.606795 -0.807842 -0.877141 -0.597484 -0.263379 -0.004647 0.983880 0.754092 0.478134 0.453314 0.065102 -0.850536 -0.299266 0.144068 0.261986 0.130362 0.813967 -0.440812 0.490624 0.277610 -0.690843 -0.683528 -0.428014 -0.113414 0.432175 -0.506869 0.671358 -0.603977 0.353994 -0.173928 -0.959899 0.004557 -0.317053 -0.611525 -0.136203 0.015659
be -0.933933 -0.227177 0.681505 -0.433514 -0.657085 0.010100 -0.319209 -0.918447 0.649614 -0.099565 -0.178611 0.499690 0.456097 -0.548286 0.823066 0.355821 0.421940 -0.264859 0.677784 -0.714312 0.859011 0.216597 0.913992 0.597554 -0.442640 -0.714658 0.911336 0.116784 0.790673 0.900366 0.909988 -0.551261 -0.463631 0.521453 0.859058 -0.878383 -0.897584 0.144849 -0.835212 0.999031 0.653281 0.337853 0.515846 -0.762665 -0.929673 0.629719 0.788072 0.422445 0.245462 0.918906 0.881503 0.932548 0.765723 -0.686534 -0.682567 -0.744383 -0.240470 0.375848 -0.473796 -0.332930 -0.044562 -0.048910 0.035257 -0.064803 0.714166 0.352389 0.844218 0.098315 0.570859 -0.191316 -0.879622 -0.883470 -0.705681 0.020171 -0.265453 0.475997 0.193664 0.589800 -0.124945 -0.106386 0.488198 0.997630 -0.508622 0.602666 0.295113 0.311800 0.941263 -0.730977 -0.310966 -0.937150 -0.502926 0.236612 0.022078 -0.943543 0.054097 0.841991 0.037163 0.754639 -0.988749 -0.201279 -0.410275 0.765677 -0.190387 0.680446 -0.290964 0.507087 -0.665790 -0.951204 -0.878797 -0.613538 -0.700715 0.133563 0.183321 -0.858373 0.402837 0.551226 0.364549 -0.691599 0.942796 -0.247668 -0.117692 -0.211025 -0.596847 -0.636855 -0.563242 -0.561632 0.778105 -0.006888
on 0.735371 -0.657081 0.292468 -0.660653 0.725580 0.617877 0.345707 -0.913536 -0.238088 0.312540 -0.358183 -0.891018 -0.081763 -0.946035 -0.894667 -0.792529 0.536360 -0.602728 0.856801 -0.436617 -0.157906 0.909314 0.201303 -0.317555 -0.175788 0.799028 0.595573 0.646456 -0.078494 0.984128 0.228446 0.231997 0.837232 -0.274743 -0.713615 0.372212 -0.949703 0.515954 0.191309 -0.264308 -0.708788 -0.436363 -0.850414 0.859685 0.168725 -0.863691 0.976592 -0.554033 -0.042847 -0.961989 0.989209 -0.181119 -0.632615 0.839546 0.750902 0.941574 -0.462996 0.582109 0.248266 0.892796 -0.473775 0.019312 -0.009364 0.598060 0.044245 -0.942329 0.278750 -0.275984 0.370327 0.837601 -0.608493 0.451418 -0.546024 0.531157 -0.396439 -0.958642 -0.369923 -0.009344 0.144480 -0.135107 -0.240159 -0.774232 -0.899776 0.887470 0.486033 0.542397 -0.749320 0.655406 -0.273032 -0.927416 0.665012 0.073995 0.827460 0.439005 0.683410 -0.956668 0.942563 -0.089567 0.610854 0.900449 0.062251 -0.516223 -0.706896 -0.661146 0.764036 -0.902902 0.895889 -0.005619 0.555214 0.528107 0.025423 0.074474 -0.410412 -0.087955 -0.311309 0.983784 -0.116877 0.524193 0.738594 0.283953 0.549846 -0.854772 0.491421 0.944539 0.709387 0.836864 -0.370635 0.734371
her 0.809892 -0.381260 -0.507855 -0.975083 0.857854 -0.225534 0.024815 0.441829 0.909252 -0.073096 -0.672632 -0.020012 0.140017 -0.746655 -0.171640 -0.399644 0.426887 -0.728230 0.667956 0.579563 -0.289766 0.571640 0.545959 -0.509273 -0.086476 -0.829928 0.519546 0.285866 -0.247663 0.701233 0.507443 -0.196404 0.018672 0.730305 0.427746 0.819920 -0.979363 0.765585 0.651829 0.558022 0.679886 0.781791 -0.559611 0.572073 0.747068 -0.950326 -0.982007 -0.395627 0.280670 -0.451615 0.130433 0.934599 0.470311 0.230518 0.439951 -0.816138 -0.571808 -0.276534 -0.271107 -0.779203 -0.530801 -0.966609 0.478527 0.874998 0.571733 0.413792 0.693096 0.411918 -0.523998 0.597889 0.891550 -0.247767 0.329166 0.045871 0.098841 0.643356 -0.643134 0.440606 0.887392 0.002688 -0.036055 0.228843 -0.553300 -0.599137 0.906543 0.137648 -0.554847 -0.089084 0.774673 -0.190848 0.940726 0.895219 -0.163083 0.253496 0.989064 -0.151742 -0.558174 0.824659 -0.252105 -0.203070 0.621059 0.267747 -0.521285 0.871482 0.509069 -0.646423 0.898550 -0.369135 0.801621 -0.062421 -0.126298 -0.624426 -0.528742 -0.042595 -0.332271 -0.981968 0.078221 0.764264 0.913660 -0.020843 -0.419803 -0.362679 0.086732 0.440170 0.470689 0.705299 0.353857 -0.189981
my -0.617340 -0.181100 -0.828522 -0.883138 -0.610539 0.835239 -0.272549 -0.523369 0.979172 0.352274 0.386465 0.906362 0.804463 0.973115 -0.424559 -0.716073 0.831646 0.322673 -0.098035 0.751094 0.548526 -0.148398 -0.349839 0.358553 0.748722 0.896194 0.895039 0.475506 0.048406 0.107225 -0.152347 -0.774540 0.370478 -0.994387 0.741695 0.554311 -0.784402 -0.323247 -0.197463 0.570605 -0.411185 0.850253 0.418413 -0.912721 0.648705 -0.180197 0.856082 0.221826 -0.396296 0.574092 -0.315668 -0.897651 -0.175125 0.173389 0.802522 0.642157 -0.527518 0.921859 -0.997107 0.857450 0.817219 0.494417 0.304696 -0.875590 0.269881 0.002402 0.184776 -0.135771 -0.976756 -0.563022 -0.158132 0.110712 -0.493336 -0.861717 -0.949037 -0.730924 0.913454 -0.888862 0.145998 0.968027 -0.419141 0.043782 0.305322 0.993482 0.404811 -0.875733 -0.379421 -0.005174 0.698204 -0.117018 0.647755 0.971627 -0.931373 -0.013431 -0.569885 -0.202434 -0.018043 0.918707 -0.209441 -0.526712 -0.754355 -0.852467 0.164183 -0.938148 -0.917312 -0.129034 -0.659889 0.039624 -0.769945 0.953466 -0.180403 -0.726216 0.747020 0.245209 -0.566265 0.290423 0.982950 0.781608 -0.751137 0.680461 -0.394512 -0.632179 0.615768 -0.616461 -0.645310 0.784925 0.790007 0.698021
him -0.530692 0.937382 0.956161 -0.243586 -0.351598 0.899906 -0.614424 0.986155 0.314242 -0.606467 -0.375967 -0.821162 0.413294 0.569625 0.857441 0.026539 -0.039082 0.564728 -0.827450 0.258629 -0.549326 -0.622760 -0.496852 -0.364165 -0.347599 -0.404442 0.266227 0.874665 0.093374 -0.519085 0.296204 -0.408112 -0.926068 0.426591 0.073683 0.519696 0.645020 -0.971389 0.192422 0.487392 -0.014662 0.829853 0.999040 0.402416 0.277604 -0.083488 0.163308 0.351562 -0.770299 -0.609223 -0.055551 -0.236831 0.679422 -0.343966 0.233607 -0.016529 -0.976571 -0.151237 -0.538063 0.326150 -0.829943 -0.696148 0.162928 0.665028 -0.004049 0.516567 -0.132688 -0.767475 0.744559 0.064508 0.148069 -0.803335 -0.294774 0.923201 0.681848 -0.178680 0.713754 0.872580 -0.068671 0.525475 -0.499990 -0.484851 -0.920348 -0.536480 0.529422 -0.048158 -0.108727 -0.640233 0.704982 0.279358 -0.812569 0.360738 -0.401474 0.942717 0.440765 0.089962 0.069384 -0.910029 0.301841 0.261702 0.791676 -0.800330 0.361399 -0.786609 0.066794 0.903705 -0.495308 0.406556 0.116063 0.201098 -0.354073 -0.888409 -0.680723 -0.688625 0.506646 -0.210727 0.453057 0.351059 0.990294 0.338962 0.584860 0.262040 -0.637877 -0.900208 -0.222006 0.618116 0.079665 -0.724836
have 0.505591 0.579003 -0.798316 -0.805040 -0.698058 0.448482 -0.911671 -0.541841 0.326962 0.306959 -0.513283 -0.160707 -0.416599 0.232993 0.223273 -0.894692 0.743268 -0.004148 -0.495041 0.662067 -0.729197 -0.371094 -0.445230 0.580915 -0.107697 -0.279680 0.834782 0.713402 0.299188 0.494168 -0.322041 -0.979259 -0.777219 -0.580199 -0.846288 0.532704 0.684754 -0.361779 0.307154 -0.803229 0.002334 -0.943330 0.004025 -0.319188 0.858257 0.722570 -0.342668 -0.564472 0.724374 -0.848943 0.182255 0.754255 -0.842394 0.243771 -0.697268 0.398929 0.873446 0.489336 -0.104768 -0.600768 -0.285397 0.307585 -0.575568 0.211999 0.987559 0.306423 0.981007 -0.960772 -0.831373 0.808006 0.096156 -0.022438 -0.843660 0.809533 -0.926782 -0.781518 -0.429721 0.822377 0.880108 0.247712 -0.861042 -0.987625 -0.599692 -0.044573 0.042073 -0.596814 -0.731342 0.139299 0.844444 0.598292 -0.931720 0.895940 0.503572 -0.843614 0.310976 -0.737416 0.962620 0.485093 -0.674207 -0.500637 -0.354867 -0.330734 0.132076 0.662799 0.039449 0.914149 -0.030527 0.137119 -0.551782 -0.031587 -0.778864 0.706682 0.213081 -0.919335 -0.578975 0.280009 0.239842 -0.873958 0.878677 0.677675 0.522445 -0.561269 0.822651 0.861336 0.632549 0.203531 -0.403250 0.853134
by -0.081277 0.166110 0.433694 0.534816 -0.964793 0.640476 0.060771 -0.952520 -0.747659 -0.769164 0.717737 0.863152 -0.609653 -0.402047 -0.442827 -0.279734 -0.249888 -0.868361 -0.945828 0.679619 0.119653 0.876990 0.971345 -0.992320 0.675703 -0.692523 -0.391968 -0.667566 -0.389768 0.624945 -0.563885 0.273176 -0.517017 -0.237831 -0.805333 0.676581 0.787541 -0.702527 -0.120494 -0.177314 0.677034 0.280442 -0.788523 -0.692092 0.656620 -0.738578 0.387542 0.508300 0.659011 0.279629 -0.163501 -0.756501 -0.828876 -0.097856 0.828915 -0.042374 0.355739 0.202175 -0.406054 0.449171 0.692118 -0.069168 0.552621 -0.803078 0.744229 -0.117000 -0.124283 0.968346 -0.165810 0.087332 0.176972 -0.810683 -0.708695 -0.517418 -0.707455 0.516320 -0.147123 -0.550852 0.664867 -0.439436 -0.952253 -0.669662 -0.949369 -0.536222 0.622646 -0.019228 0.575006 -0.109644 0.238479 -0.995335 0.433394 -0.985483 -0.528352 -0.986344 0.394389 0.439858 0.161650 0.703608 -0.385866 0.594235 0.755548 -0.969043 -0.911543 -0.982903 0.765977 0.482634 0.880681 -0.559921 0.456092 0.265664 0.794782 0.694921 -0.150745 -0.170346 -0.281980 0.748537 -0.851966 0.502894 0.686040 -0.608587 0.301692 -0.477710 -0.125245 -0.043965 -0.039075 0.309430 -0.131299 -0.648869
this -0.936384 0.576398 0.178246 0.565834 -0.972619 0.045372 0.348652 -0.821701 -0.669001 -0.653817 0.793663 -0.050925 0.453895 -0.371685 0.270957 -0.761986 0.578859 -0.755260 -0.239641 0.773124 -0.806094 0.263860 -0.149164 -0.356771 -0.792651 -0.765263 0.206588 -0.488151 -0.613470 -0.018944 0.092804 0.189291 -0.181229 0.699758 -0.338279 0.206197 0.489594 -0.548385 0.010466 -0.231310 0.326921 0.021177 0.416775 0.466263 0.705998 0.753895 0.138767 0.499587 -0.380520 -0.278979 -0.495063 -0.713333 0.655009 0.564387 -0.332973 -0.413214 0.803909 -0.857271 0.097586 0.458911 0.805573 -0.339271 0.899261 0.791535 0.723163 -0.164846 0.932381 0.428757 0.837530 0.527107 0.631843 0.872105 -0.043740 0.580776 0.041951 -0.923705 -0.161337 0.237212 -0.919645 0.597245 0.943007 0.533080 -0.791175 0.064188 0.934676 -0.036001 -0.868294 -0.733745 0.940728 -0.367754 0.960198 0.849542 0.576812 0.989647 0.410334 0.274856 0.432644 0.206884 -0.532132 -0.416565 -0.584708 0.972357 -0.602837 -0.073268 -0.598034 0.478581 -0.034264 0.194280 -0.111202 0.195320 0.304902 0.522651 0.027407 -0.970282 -0.519918 -0.804007 0.946870 -0.551521 -0.459616 -0.471464 0.551497 0.093812 0.232127 0.475394 0.442043 -0.773434 -0.501289 -0.112220
which -0.918038 -0.583060 -0.652925 0.956601 0.906726 0.164033 0.730182 0.859455 0.507664 -0.376059 -0.291353 -0.847856 -0.214947 0.064148 0.558039 -0.399591 -0.386012 0.081573 0.715053 0.572995 -0.263270 -0.933844 0.202856 0.414768 -0.216290 -0.569042 0.976417 -0.453210 -0.042308 0.449628 0.273896 0.809934 0.870539 0.719404 -0.482649 -0.711258 0.085376 0.602446 0.803392 0.265805 0.194828 0.020352 -0.799343 -0.655523 -0.146168 -0.245960 0.398621 -0.901353 0.029665 0.715859 0.356699 0.694679 0.049087 -0.853663 -0.604174 0.204779 0.468477 -0.816730 -0.106460 0.165229 0.863328 -0.766938 0.416838 0.937974 -0.308893 0.969802 0.407605 0.240908 0.875836 -0.767802 -0.487451 -0.157485 0.513509 -0.745880 0.197756 0.701929 0.393479 0.458542 0.382334 0.531653 -0.085869 -0.564717 -0.805397 0.802785 0.706443 0.385298 -0.276558 -0.009957 -0.701731 0.598007 -0.147849 -0.622531 -0.385040 0.339371 -0.738840 -0.512532 -0.394421 0.892050 0.922260 0.904186 0.173699 -0.507599 0.066506 -0.253896 -0.727632 -0.405823 -0.594311 0.299057 -0.598547 0.558331 -0.937852 -0.612769 -0.154142 0.100752 -0.724860 0.788674 0.903872 -0.930670 0.739636 0.825562 -0.242760 -0.410507 -0.883552 0.641049 -0.046825 -0.693757 -0.494636 -0.729317
me 0.315184 0.361269 0.185086 0.598302 0.542105 -0.504647 -0.893187 0.248010 -0.408852 -0.773341 0.353862 -0.355298 0.068062 -0.261660 -0.078793 0.202368 -0.787833 0.060763 -0.254951 0.464503 -0.839589 -0.982014 0.563947 0.204590 -0.324700 -0.578536 -0.034634 -0.549925 -0.413377 -0.763260 0.346880 -0.580102 0.154505 -0.173961 0.416396 -0.651477 0.167796 -0.374486 0.992612 0.745166 -0.135260 0.323489 -0.526584 -0.418316 -0.101316 -0.695785 -0.708137 -0.296412 -0.150305 -0.623892 0.861461 0.993328 0.296273 0.595726 -0.509377 -0.852739 -0.614740 0.085564 0.083637 0.929829 0.381782 0.819683 -0.690287 -0.905342 -0.936816 -0.049862 0.744961 0.605866 -0.543805 -0.237436 0.952685 0.711289 0.009551 0.232317 0.555553 0.162620 0.679129 -0.734806 -0.704725 0.764165 -0.948076 -0.874675 -0.093564 -0.596781 -0.994223 0.340401 -0.206825 0.838097 0.950192 0.512264 -0.318554 0.033459 -0.121980 -0.162580 -0.404878 0.431334 0.967282 0.004892 0.950194 0.553278 0.672128 -0.940596 0.645633 -0.616389 -0.222562 0.481966 0.217160 0.973748 0.403600 -0.097261 0.481406 -0.594951 0.356471 -0.387730 0.941562 0.161494 -0.575238 -0.554038 -0.552164 0.394989 -0.861679 0.896189 0.567894 -0.846878 0.945984 0.625704 -0.058453 0.461943
all -0.780172 0.223605 0.624421 0.531259 0.110087 -0.710300 0.176910 -0.652485 0.072164 0.627955 0.173378 -0.941564 0.028976 0.908557 -0.076096 0.324512 -0.627231 -0.202926 0.719826 0.238635 0.265900 -0.893321 0.665661 0.669172 0.985008 0.106860 -0.700155 -0.300572 0.798499 0.508657 0.303764 -0.348521 0.952051 0.583007 -0.483275 0.743342 0.057518 0.157254 -0.624773 0.737500 -0.166257 0.957150 -0.788437 0.291983 0.208444 0.000185 0.939000 0.737346 -0.445716 0.321567 0.052461 -0.252916 -0.728811 0.270360 -0.328728 0.118439 -0.889926 0.950020 0.468244 -0.071233 -0.592829 -0.990759 -0.814926 -0.579029 -0.220792 -0.505849 0.337601 0.735017 -0.076978 -0.997016 -0.233020 -0.261158 0.725327 0.727046 -0.889739 -0.357106 -0.401733 0.967233 0.587244 0.076917 0.067942 -0.977826 -0.378430 0.538169 -0.489481 0.702055 -0.688204 -0.616012 0.106874 0.780064 0.144314 -0.179117 -0.453192 -0.577142 -0.625482 0.206552 -0.976616 0.968412 0.415534 0.120762 -0.737665 -0.307939 0.490762 -0.157705 -0.680527 -0.803495 0.188690 0.986783 -0.022075 -0.308965 0.506556 0.926548 -0.917037 0.599836 0.657485 -0.986697 -0.736605 -0.031062 0.491699 0.175535 -0.008768 -0.233754 -0.108340 -0.251651 0.269635 0.048090 -0.506030 -0.373869
said -0.245474 0.542410 0.828031 0.192982 0.650342 0.577230 -0.048593 0.421423 0.610464 0.703507 0.339064 -0.036184 -0.667617 0.811163 -0.912710 -0.685994 -0.180612 -0.373211 -0.655536 -0.104200 -0.091989 0.406302 -0.806147 0.762716 -0.236490 -0.049016 0.179320 -0.854985 0.499068 -0.567893 0.251111 0.708794 0.810700 -0.674037 -0.828654 0.967055 0.131305 -0.186655 -0.340788 0.740822 -0.573305 -0.519502 -0.003774 0.806192 -0.608733 -0.346018 -0.482307 0.457612 0.887894 0.414481 0.709917 -0.642921 0.290951 0.602200 0.657539 0.119498 -0.550523 -0.413253 0.596339 0.142423 0.855385 0.546933 -0.356842 -0.086510 -0.987579 -0.653982 0.185726 -0.728432 0.608577 -0.440234 -0.575541 0.119875 0.033358 0.636392 -0.168427 -0.283595 -0.149672 0.088306 0.010551 -0.226850 -0.497642 0.845375 -0.379945 0.721585 -0.986076 -0.079649 -0.109868 -0.839018 0.145970 -0.931113 -0.300856 -0.295829 0.522501 0.805767 -0.554264 -0.628029 0.247127 -0.559277 0.932999 0.162828 0.010904 -0.878307 0.155755 0.219680 -0.740068 -0.884271 -0.283908 0.476997 -0.458241 0.791958 0.559677 -0.339718 -0.375482 -0.739125 0.350643 0.328356 0.475132 0.438251 -0.961306 -0.648952 -0.037132 0.654911 0.137214 0.544073 0.227375 -0.515631 0.041874 -0.156848
she -0.464443 -0.058363 -0.712196 -0.223712 -0.096195 -0.803396 -0.190598 -0.760113 -0.218021 0.250176 -0.658383 -0.743191 0.709257 0.343968 -0.293753 -0.675867 0.887775 -0.503187 -0.918952 0.565802 -0.162868 0.433537 -0.578742 0.576895 -0.837706 0.022183 0.005868 0.227402 -0.920388 -0.771108 0.957915 0.075239 0.739298 0.393090 0.162661 0.608243 0.718432 -0.204886 -0.325169 0.271175 0.856985 0.014767 -0.869129 0.144216 0.967979 0.809945 0.546654 -0.974350 -0.293865 -0.589559 -0.656086 -0.186214 0.166078 -0.857784 -0.195149 0.489390 -0.396521 0.378348 0.767761 -0.495113 -0.086886 0.287433 -0.476334 -0.847057 0.918009 -0.608261 0.136735 -0.588928 -0.211465 0.231897 -0.070008 -0.599634 -0.848254 0.623132 0.361788 -0.349429 -0.545184 -0.096611 0.842220 0.248221 0.194385 -0.515700 0.273268 0.686580 0.652411 -0.152293 0.594298 0.673878 -0.783541 0.060867 0.288322 0.726993 -0.247322 -0.085095 -0.225173 0.209938 -0.052500 0.487276 0.643790 0.320412 0.555687 -0.543658 -0.018702 0.535113 -0.299676 -0.684617 -0.900437 0.279461 -0.466196 -0.594390 -0.874454 -0.679948 0.662248 -0.248812 -0.418280 -0.957251 -0.346402 0.246028 0.345623 0.601227 -0.433513 0.686438 0.460621 -0.103219 -0.689098 0.797081 -0.885672 -0.920237
from -0.065810 -0.179121 0.982797 0.555529 -0.580900 0.942020 0.124251 -0.619154 0.376823 -0.953912 -0.484350 0.929134 -0.472339 0.606284 -0.604048 0.425926 -0.925472 -0.605944 0.558882 -0.615356 0.792348 0.518624 -0.507748 0.657842 0.922483 -0.297259 -0.021128 -0.211433 0.738992 -0.632981 -0.644099 -0.027295 -0.511501 -0.913059 0.421354 -0.501472 -0.667953 0.761336 -0.330622 -0.653855 -0.592135 0.047370 -0.456748 -0.792510 0.034014 0.015366 0.659778 -0.009546 -0.710336 -0.435095 0.278880 0.852335 0.522953 0.634904 -0.260176 -0.292353 0.006160 0.023360 -0.597471 -0.032695 -0.795269 -0.202742 0.752797 -0.828776 0.993770 0.803886 -0.665485 -0.424289 -0.536865 0.212714 0.628484 -0.358827 0.494861 -0.271835 0.685443 -0.185581 -0.552616 -0.415636 -0.076001 0.026426 0.180896 -0.224558 -0.668947 0.860746 0.078891 -0.304512 -0.018308 -0.468060 -0.963156 -0.652518 0.168936 0.829099 -0.039241 0.512692 -0.693678 -0.560689 0.802061 0.151736 0.910715 -0.075701 -0.392119 0.080526 0.781344 -0.829243 -0.328093 -0.056297 -0.972468 0.242630 -0.003335 0.048246 -0.633876 -0.736828 -0.190371 -0.229515 0.253855 0.921797 -0.333433 0.679400 -0.828477 0.128775 0.243020 0.882447 0.346555 0.881733 -0.476885 -0.043608 -0.213863 0.150769
or -0.058440 -0.668584 -0.626525 0.771497 -0.091607 -0.374156 -0.953060 -0.513692 -0.354155 0.254745 0.960992 0.043146 0.478852 -0.622274 -0.562561 -0.603756 -0.735493 0.025828 0.504747 -0.551659 -0.804035 -0.043551 -0.296872 0.604441 -0.022970 0.446676 -0.790794 -0.893207 -0.248317 0.368783 0.675311 -0.896758 -0.860481 -0.595469 0.715148 0.423520 0.518601 -0.313260 0.876485 0.171728 -0.244562 0.871545 -0.337711 -0.547017 -0.751207 -0.080471 0.686190 -0.471615 -0.267014 0.920017 -0.568187 0.521339 0.406633 -0.808192 0.371026 -0.867595 -0.140142 -0.711551 0.564599 0.854118 0.362463 0.267248 0.416191 -0.604017 0.466457 -0.688764 0.360781 0.331772 0.863462 -0.679612 0.630827 0.614495 -0.277127 -0.009185 0.975790 0.514664 0.017587 0.718764 -0.042856 -0.136507 0.067458 -0.359276 0.700301 0.595385 -0.190854 0.704895 0.453178 0.064120 -0.778308 0.995361 -0.446591 -0.261396 0.381646 0.812740 -0.099612 -0.945172 0.732212 0.603933 0.028417 0.351955 -0.878527 0.776146 -0.626140 -0.823441 0.451282 0.647557 -0.332620 -0.448989 -0.537802 -0.353578 0.971548 0.645006 -0.262347 -0.388231 -0.541623 -0.498050 -0.565953 -0.744485 -0.628195 -0.554132 0.652887 0.296919 0.054569 -0.772810 0.596041 -0.455330 0.317965 0.571605
they 0.556920 -0.561951 0.297918 0.121496 0.079739 0.349658 0.001278 -0.841454 0.029809 0.904866 -0.255176 -0.407615 -0.987951 -0.722332 -0.190939 -0.519079 -0.337734 0.002870 0.723652 0.968185 0.895646 0.588426 -0.411747 -0.158416 -0.713837 -0.967140 0.646020 -0.673508 0.683338 -0.605176 0.832633 0.768561 0.109136 -0.172795 0.536302 -0.641761 -0.073098 0.561134 0.786544 -0.699850 -0.780048 0.313267 -0.293138 -0.307675 -0.926419 0.120131 0.141282 -0.118093 0.751567 0.693126 0.537015 0.356682 0.760896 -0.199957 0.761939 0.614986 0.144055 -0.042254 -0.327013 0.914936 -0.246813 0.225354 -0.040878 0.228447 0.002059 0.682170 -0.187716 -0.573263 0.300584 0.773336 0.058662 -0.835932 -0.455343 -0.622670 -0.642419 -0.489325 0.161891 0.040005 0.105765 0.723021 -0.259966 0.544322 -0.384207 0.953470 -0.131184 -0.282686 0.250157 -0.521429 0.202945 -0.698308 -0.864767 -0.266254 -0.742177 -0.067200 -0.321807 0.712368 0.404114 -0.972781 0.763610 0.150318 0.273010 0.525244 -0.017708 0.317404 0.927479 0.989760 -0.996220 -0.228946 -0.605982 0.788511 -0.676258 -0.455854 0.480306 -0.731106 -0.772818 0.555590 0.381073 -0.380314 -0.161906 0.686280 -0.713484 0.117683 0.759219 -0.376591 -0.394976 0.199991 -0.497658 0.776691
so 0.493900 -0.857340 0.622896 -0.060093 -0.311131 0.194215 -0.994753 -0.147288 0.551219 0.550081 0.841584 -0.669679 -0.215592 -0.732562 -0.790937 -0.696467 0.062942 -0.405905 -0.765803 0.967433 0.462179 -0.821181 -0.163451 0.239384 -0.401862 0.197084 0.509815 0.022306 0.198465 -0.625005 0.351384 0.179947 0.061865 -0.670797 0.520880 0.901909 -0.673524 0.717453 -0.057749 -0.714985 -0.112012 -0.759196 -0.646700 0.274188 0.320041 0.244448 0.645891 -0.667627 -0.239338 0.945309 0.921618 -0.843966 0.358329 -0.174222 -0.072539 -0.718448 0.969996 -0.605324 0.519966 -0.181829 0.073332 0.703650 0.900545 0.002803 0.647862 0.211285 0.131350 -0.144724 0.110324 0.759575 -0.182170 -0.376532 0.779559 -0.699540 0.642804 -0.544749 0.936434 -0.065873 0.049360 0.541699 -0.673609 0.777791 0.117871 0.631388 0.818994 -0.373268 0.741049 -0.218673 -0.663692 -0.470994 -0.967590 -0.011345 -0.006955 -0.451115 0.830843 0.986961 -0.133469 -0.708592 0.246265 0.944453 -0.695982 -0.174941 -0.442307 -0.406516 -0.726744 -0.346548 0.614171 0.321660 -0.815503 0.547694 -0.686128 0.977752 -0.262282 0.698244 0.453487 -0.225643 0.264953 -0.658073 -0.517544 -0.447563 0.143895 -0.425592 -0.885770 0.295920 -0.105618 -0.095955 0.724238 -0.161379
are 0.500455 0.686202 0.647693 -0.228719 0.240640 0.818987 0.412427 -0.303942 -0.063243 0.706594 0.611685 0.908622 0.325160 -0.897874 0.627347 0.231517 -0.771988 -0.406626 0.963867 0.935574 0.479833 0.630568 -0.336996 -0.308332 -0.070431 -0.914213 -0.313878 0.114771 -0.629627 -0.416091 -0.615354 0.121992 -0.362836 -0.363911 0.979789 0.155162 -0.618970 -0.152476 0.607965 -0.375285 0.955431 -0.953125 -0.176369 -0.084230 0.929919 0.440959 -0.131360 0.084164 0.609222 0.138604 -0.186562 0.385840 0.633221 0.130550 -0.908184 0.856332 -0.706750 0.336673 0.441488 -0.402329 0.729171 0.148175 -0.694035 0.185089 -0.513810 0.325251 0.095590 -0.670261 -0.877869 0.377819 -0.500029 0.805887 0.911306 0.318017 0.541516 -0.729015 -0.492597 0.136002 0.610508 0.103364 -0.549590 -0.796602 -0.502685 0.956853 -0.769836 0.287752 0.236320 0.638157 -0.738004 -0.837430 0.284865 -0.076002 -0.435376 -0.105827 -0.940983 -0.864535 -0.268803 0.661119 0.604221 -0.749430 0.477373 0.974490 0.314556 0.322360 -0.683641 -0.094479 -0.593169 0.629251 0.138981 -0.622620 0.904200 0.770419 -0.055670 0.008599 -0.623960 -0.042265 -0.849195 0.145982 0.461781 -0.886726 -0.606397 -0.647871 0.498490 -0.233507 -0.126003 -0.062504 0.791796 0.181976
one -0.906898 -0.856909 -0.167839 -0.419045 0.306413 0.047031 0.780666 -0.740087 -0.774549 0.762260 -0.111650 -0.402429 0.553960 0.459046 -0.991484 -0.250349 -0.226518 0.730181 0.674665 -0.292102 -0.435376 0.885064 0.782511 0.794093 -0.068818 -0.653426 -0.774978 0.636245 0.470281 -0.333459 0.044090 -0.565125 0.982693 -0.676533 -0.646326 0.741464 -0.063039 0.271711 0.740804 0.986742 -0.333257 -0.842733 0.735886 -0.417648 -0.308369 -0.487541 0.658357 -0.366873 0.188962 0.876668 0.213833 -0.415950 0.754237 -0.174846 -0.640168 0.868746 -0.154775 0.737900 -0.676537 -0.656577 -0.581591 -0.434400 -0.486089 0.922377 0.709340 0.598737 -0.389604 0.649641 -0.339452 -0.942289 0.200564 0.437490 -0.089739 -0.342567 0.424156 -0.622846 0.219337 -0.339856 0.105961 -0.464969 0.885133 0.827559 0.689611 0.918039 0.433317 0.828707 -0.496947 0.877320 0.525372 -0.432763 -0.515868 0.429859 0.342273 0.120446 -0.641156 0.373835 0.087151 0.332781 -0.566869 -0.222272 0.484239 -0.957154 -0.539187 0.395544 -0.998787 -0.452739 -0.556021 -0.192620 0.471360 -0.977377 -0.783707 -0.705729 0.713008 0.385490 -0.846795 0.207871 -0.864907 0.948985 -0.419050 -0.043982 -0.203980 -0.205478 0.643188 -0.180131 -0.829403 -0.253382 -0.994912 0.616803
were -0.472338 0.332624 0.831495 0.015637 -0.307539 -0.990789 -0.090064 0.613541 -0.997598 -0.940998 -0.305121 0.845103 0.231345 0.946614 -0.481523 0.425002 0.387991 -0.973917 0.753322 -0.365734 -0.830443 -0.657940 0.321843 0.210644 0.191889 0.569688 -0.581288 0.085916 -0.386906 -0.626417 -0.984281 -0.365418 -0.909326 0.274070 0.594440 0.711551 -0.418712 -0.991671 0.554291 -0.530975 -0.370581 -0.944931 -0.469040 0.004379 -0.357912 -0.098557 0.827762 -0.231718 0.935424 0.128015 -0.976982 -0.511443 0.642211 0.530045 -0.317032 0.426022 0.709812 0.341999 -0.344637 0.400431 0.790100 0.899446 -0.236160 0.453237 -0.801944 -0.739272 0.610541 -0.829181 -0.245918 0.458405 0.832884 -0.144291 0.166685 -0.668123 -0.081166 0.737340 0.145434 0.630252 -0.414916 0.055478 0.077598 -0.209301 0.268455 -0.949021 -0.716904 -0.431463 -0.850895 0.968148 0.747191 0.590290 0.933860 0.561104 0.098509 -0.379113 -0.402652 0.940008 -0.895393 -0.090871 -0.396243 0.997749 0.860503 0.608689 -0.559502 -0.714377 0.331477 -0.575122 0.097088 -0.672168 -0.296555 0.409907 0.790504 -0.999334 -0.972373 -0.045097 0.730055 0.567819 -0.407620 0.386809 0.948704 0.663174 0.605826 0.052632 -0.136245 0.775261 -0.558561 0.541713 0.982096 -0.240565
what 0.142065 -0.753493 0.275840 -0.395069 -0.823811 0.222197 -0.763994 0.299198 -0.041756 -0.112626 -0.364480 -0.363736 -0.768102 -0.769360 -0.091951 -0.919540 -0.334882 0.036031 -0.705250 0.529681 -0.456651 0.747558 0.436537 -0.914989 -0.905192 0.014360 -0.977735 -0.885184 -0.582918 -0.024240 -0.662000 -0.426745 0.469799 0.440552 0.998804 -0.888621 -0.573410 -0.876979 0.291937 -0.390869 0.159510 -0.645656 -0.316295 0.619162 -0.561867 -0.951305 -0.352737 -0.774140 0.295815 0.001342 0.353934 0.872729 0.246044 0.946385 -0.297709 0.037292 0.328057 0.234805 -0.878485 0.103128 0.255805 -0.077517 -0.186571 -0.248138 0.892251 0.584284 0.925710 0.687200 -0.272564 0.709164 -0.015890 -0.068555 -0.774983 -0.920030 -0.451834 -0.934254 -0.647681 0.537907 -0.070970 -0.712017 0.663992 0.703988 0.419945 -0.862112 -0.736798 -0.495406 0.502324 0.195167 -0.547480 -0.402586 0.840704 -0.824145 0.659894 -0.027487 0.792821 -0.361811 -0.702058 -0.886797 0.167911 -0.516828 -0.908347 -0.226024 0.079360 -0.288690 0.972926 -0.940381 0.381255 -0.557503 -0.355358 0.820411 -0.127208 -0.866636 -0.707967 0.199250 -0.121451 0.439625 -0.708110 0.780557 0.306390 0.921181 0.027159 -0.244704 -0.792051 0.590369 -0.367552 -0.064701 0.710553 0.327096
when 0.070766 0.660548 0.135531 -0.048816 -0.670499 -0.929994 -0.923965 -0.000529 0.367800 -0.140971 -0.210012 0.943966 -0.509712 -0.699698 -0.244278 -0.301775 0.437178 -0.514900 -0.116756 0.530957 -0.497544 0.390390 0.675142 0.824675 -0.024773 0.721570 -0.932390 -0.871302 -0.391231 -0.862540 0.625342 0.312854 0.876475 0.270354 -0.894908 -0.791422 -0.783598 0.002366 -0.127540 -0.757809 -0.897289 0.938919 0.757698 0.756975 -0.368997 -0.598881 0.875332 -0.614896 0.620151 0.099937 -0.154793 -0.761752 -0.095989 0.036744 0.173964 0.901860 -0.434856 -0.806152 0.190606 0.640293 0.312655 0.296819 0.803688 -0.405761 0.019913 -0.208671 0.386591 0.898256 -0.967564 -0.712922 0.950692 -0.235321 0.755225 -0.277177 0.693181 -0.342724 0.617979 -0.613468 -0.781678 0.924411 0.026972 -0.177119 0.647915 0.968129 0.957955 -0.301390 0.431996 0.353349 -0.004299 0.189104 -0.127685 -0.310322 -0.793935 -0.322649 -0.456578 -0.523230 -0.881331 -0.573840 -0.855282 -0.621773 0.312553 -0.931687 -0.568892 0.680449 -0.487908 -0.738061 0.152783 -0.646992 -0.882205 -0.737513 -0.242445 -0.840139 -0.157428 0.460017 0.747056 0.543621 0.392268 -0.625548 -0.739877 0.871734 0.857046 -0.460506 -0.298960 0.225238 -0.823380 0.365995 0.113663 0.688209
no 0.610078 0.158677 0.266619 -0.585889 -0.939575 -0.903812 -0.471973 0.990164 -0.393131 -0.991201 -0.756922 -0.784412 -0.674091 0.686127 -0.380841 0.656603 -0.636260 -0.869545 0.604428 -0.487317 0.482987 0.365234 0.553307 -0.961686 0.712325 -0.081907 -0.300911 -0.418878 -0.727988 0.649258 0.136572 -0.020003 0.634680 0.172976 0.997207 0.310216 -0.189704 0.864113 0.457757 -0.505884 0.184979 -0.597353 0.650752 -0.035975 0.669892 0.750533 -0.859943 -0.207978 -0.424729 -0.965494 -0.316612 0.699944 0.150077 -0.177092 0.900501 -0.861471 -0.929182 -0.177654 0.689367 0.782426 0.835272 0.271562 0.262826 0.395706 -0.484637 -0.692292 0.567852 -0.397163 0.314196 -0.549009 0.882159 -0.406072 -0.333255 0.430656 0.323654 0.289456 0.717286 0.510584 -0.848801 -0.408734 0.346396 0.142330 0.008904 0.515001 0.435496 0.766340 -0.727608 -0.586434 0.704365 -0.182180 0.220232 0.580677 0.267876 -0.598342 -0.656499 -0.462877 -0.549303 0.963383 -0.941890 0.528715 -0.831171 0.187216 -0.785518 -0.701707 -0.903413 -0.230554 -0.761332 -0.468040 0.373490 -0.132053 -0.801079 0.544015 0.892385 0.471479 -0.261614 0.041245 0.134733 -0.824197 -0.345752 -0.286756 0.929331 0.338938 -0.550431 -0.096944 -0.022579 -0.437023 -0.591448 0.974528
if 0.008317 0.237280 -0.673807 0.275756 0.882077 -0.373256 0.358726 -0.815340 0.917552 -0.863102 0.446140 0.705031 0.362310 0.246712 0.693319 -0.881827 -0.993560 0.076066 -0.285183 0.430640 -0.522166 -0.583489 -0.569152 0.647565 0.945227 -0.006391 0.653702 0.905225 -0.490319 -0.208190 -0.135844 0.639634 0.298188 -0.989156 -0.013770 0.175029 -0.243790 0.024395 0.439376 -0.984001 -0.605761 0.043400 -0.215217 -0.634164 -0.445360 0.545698 -0.720049 -0.841543 -0.704967 -0.501544 0.591160 -0.183036 -0.900296 0.910351 -0.711017 -0.586246 -0.277553 -0.021625 -0.018288 0.117231 0.778707 -0.878099 0.485328 0.962515 0.189340 -0.322125 0.197678 0.286429 0.547710 0.505941 0.694184 0.063436 -0.383866 -0.741635 0.909963 0.139013 0.029375 -0.622768 0.315885 0.222879 0.751541 0.362284 -0.578278 -0.436570 0.778262 0.112180 0.784764 -0.601104 -0.748961 -0.080928 0.871003 0.113517 -0.771753 0.885327 -0.083950 -0.635733 -0.253439 0.112242 -0.009113 0.299985 0.898229 0.678735 -0.318272 0.027200 0.039963 -0.469966 -0.185947 0.724647 -0.769928 0.943567 0.193484 -0.182578 -0.806722 0.200155 -0.890332 -0.029016 -0.183407 0.224692 0.369358 -0.342662 0.430956 0.864117 0.493345 -0.827346 -0.345421 -0.955976 0.175337 -0.625201
there 0.214360 -0.536453 0.971033 -0.630640 0.825386 0.439596 0.785469 0.973754 0.615458 0.583662 -0.222864 0.494973 0.927639 -0.556315 0.335069 -0.283605 0.260381 -0.497176 -0.799861 0.058174 -0.124848 -0.652007 0.007903 0.718941 0.953818 0.909535 -0.274935 0.489506 0.559518 0.579813 0.547278 0.253262 0.255574 -0.757249 0.537598 0.672982 -0.896023 -0.863834 -0.219445 0.852296 -0.532841 -0.744920 -0.486095 0.465964 0.209447 0.399677 -0.982642 0.164912 0.300000 -0.659500 0.938171 -0.439906 0.408983 -0.507173 0.338819 0.451906 0.655570 -0.023449 -0.072571 0.840388 -0.909359 0.307203 -0.773311 0.908317 -0.507076 0.894365 -0.118897 0.913926 -0.547981 0.694321 -0.179413 0.518857 0.273698 -0.165662 -0.380427 0.363245 -0.661660 0.168932 -0.673745 0.925890 -0.949230 -0.531892 -0.353722 -0.094705 -0.260087 0.331729 0.602286 0.927367 -0.198464 0.477697 0.337383 -0.600169 -0.659912 0.141416 -0.480716 -0.099180 0.311343 -0.700462 -0.142503 0.126010 0.737033 -0.322905 0.694943 0.817552 -0.135371 0.070679 -0.976917 0.932475 0.391268 -0.711489 0.329586 -0.169905 -0.563919 -0.131880 0.080755 0.082291 -0.484475 -0.814819 0.298953 -0.243290 0.203731 0.686783 -0.025141 0.809935 -0.858767 -0.369035 -0.357852 0.007498
who 0.959735 -0.343876 0.936953 0.723126 0.088210 -0.800121 0.927020 -0.427575 -0.932882 0.484793 0.341296 -0.690281 -0.841610 0.186255 0.404645 0.283940 -0.931696 -0.872712 0.176180 0.328466 0.926175 0.030154 0.133439 0.026727 -0.696325 -0.386600 -0.928755 0.520671 0.494789 -0.507075 -0.029571 0.643938 -0.229082 -0.587366 0.053818 0.510168 0.202645 -0.613157 -0.364549 -0.762723 -0.567401 -0.634163 0.371393 0.111632 0.825339 0.665264 0.641918 -0.517049 -0.061891 0.520956 -0.434213 0.776045 -0.932687 0.626168 0.281918 -0.370005 -0.333247 0.141997 0.976711 -0.302682 -0.790726 -0.039688 0.679279 0.389086 -0.024870 0.859511 0.788120 0.134179 0.060932 -0.630994 -0.300489 0.542319 -0.549596 0.319519 0.391642 -0.113411 0.759229 -0.232534 0.392974 -0.315265 0.029520 0.228576 -0.865972 0.902617 0.577230 -0.137941 -0.777741 0.565198 0.413496 -0.206404 -0.698364 -0.892362 -0.551203 -0.490421 0.514071 -0.449410 0.122199 -0.813622 0.129508 -0.409339 0.402002 -0.435852 0.832440 0.773856 -0.890398 -0.893224 0.313202 0.773119 0.591298 -0.322010 0.895016 0.234436 -0.805260 0.284335 0.795687 0.078419 -0.790854 0.265222 -0.087932 0.084370 0.242675 -0.465625 0.418802 -0.398993 -0.146511 0.582584 0.511422 0.480850
we 0.909221 -0.817006 0.191263 0.718714 -0.942371 0.113385 0.055591 -0.349483 0.259239 -0.909042 0.324497 0.885012 -0.877344 -0.318523 0.845849 -0.122859 0.896482 0.234472 0.078311 -0.154526 0.717307 -0.200195 -0.964932 0.305973 -0.765302 0.521519 -0.200410 -0.334863 -0.343109 -0.615394 -0.136796 -0.457604 -0.411124 0.290115 0.191046 -0.742330 -0.204935 0.813861 0.289549 0.832106 0.729442 -0.843732 -0.941209 -0.946481 0.714121 -0.724003 -0.301105 -0.660735 -0.419870 -0.775950 -0.215263 0.651654 -0.168787 -0.351005 0.370494 0.740187 -0.584702 -0.694697 0.589225 0.991091 0.315405 -0.693741 0.983483 -0.966855 0.931110 -0.462780 0.866712 0.141850 0.561759 -0.486132 -0.436870 0.273802 0.248757 -0.428481 -0.753702 -0.864224 0.321874 0.598782 -0.725356 0.354251 0.715766 -0.213753 0.402480 -0.254478 0.917761 -0.300441 -0.566301 0.385566 -0.662356 0.913460 0.761557 0.900850 -0.462183 -0.201418 -0.165234 -0.076240 -0.506970 0.798881 0.236550 -0.579676 0.619121 -0.687944 0.973061 -0.054572 0.460492 -0.483665 0.322715 0.650907 0.555529 -0.712207 0.824669 -0.673660 -0.010719 -0.684846 -0.815753 0.331139 0.587594 0.076698 0.032647 -0.286345 -0.523245 0.524905 -0.299076 -0.190590 0.304296 0.714411 -0.350658 0.503731
will -0.988792 0.929229 0.487085 0.270652 0.507022 0.210344 0.442038 0.194046 -0.275430 -0.831655 0.096891 0.693651 0.972711 -0.046718 0.616793 0.635428 -0.579870 0.113488 -0.312842 0.019421 0.569136 -0.994679 -0.610619 -0.399978 0.132908 -0.760934 0.302679 0.202367 0.141291 0.100968 0.733424 0.465863 -0.863690 -0.390690 0.809985 -0.824164 0.837805 0.145586 0.660513 -0.852007 0.269398 0.264098 0.362923 0.099833 -0.353705 -0.491526 0.283231 -0.963179 0.440335 -0.651497 -0.665688 -0.879776 0.606371 -0.850016 -0.418262 0.210071 -0.240855 0.500973 0.959807 0.368483 -0.657310 -0.938459 -0.714835 0.152266 0.463315 -0.376257 0.235473 -0.802614 -0.401118 -0.196083 -0.814448 0.086207 0.388680 -0.864677 0.665489 0.227531 -0.208809 -0.451918 -0.231880 -0.915759 0.807800 0.584722 -0.897556 0.852536 0.754178 -0.303115 -0.191419 -0.001378 0.174511 0.337183 -0.015939 0.945181 0.668907 -0.937644 -0.436388 0.621175 0.007450 0.642085 0.145732 0.344774 -0.151328 0.490291 -0.376636 -0.742200 0.646530 0.197305 0.466201 0.951364 0.506006 0.844279 0.353316 0.826571 -0.940835 0.328480 0.811123 -0.386590 0.626530 -0.290366 0.040416 -0.036093 0.583193 -0.331388 -0.996264 0.947834 0.272728 -0.904758 0.156118 0.040717
an 0.223293 0.341187 0.256371 0.052438 0.277873 -0.165037 0.937879 0.701324 0.250803 -0.207964 -0.480236 -0.565753 0.691812 -0.976297 -0.501975 -0.183977 -0.823296 0.723839 -0.485736 -0.359563 0.684976 0.111815 0.105088 -0.663767 -0.730008 0.774373 -0.191169 -0.968227 -0.041784 0.281619 -0.900103 0.846622 -0.243195 0.052628 -0.047834 -0.666980 -0.870015 -0.367119 -0.226415 0.884231 0.876788 -0.785742 -0.854189 -0.330555 -0.619223 0.016021 -0.938637 -0.006637 0.670541 0.947415 0.811740 -0.283396 0.654351 -0.333927 0.372977 0.901591 0.673480 0.817274 0.155363 0.968936 0.051538 -0.004537 -0.443613 0.581489 -0.307386 -0.154484 0.747035 -0.461954 0.127865 0.757860 -0.076619 0.424378 -0.697510 -0.789877 -0.080695 -0.151916 -0.315043 0.513387 -0.805700 -0.386528 -0.315697 0.664733 -0.397463 0.175678 -0.994643 -0.484571 -0.202830 -0.181226 0.702445 0.020823 0.210021 0.443178 0.725083 -0.034476 0.804456 -0.636268 0.684389 -0.061691 0.845120 0.510641 -0.003253 0.366260 -0.876730 0.095351 -0.971136 0.119400 -0.192013 0.665377 0.865520 -0.546374 0.092445 -0.696081 -0.259586 0.995287 -0.372054 0.687418 -0.557869 -0.679163 0.985815 -0.189721 -0.829249 -0.877116 0.496684 -0.326958 -0.638425 0.994276 -0.967524 0.895388
then 0.645357 -0.564768 -0.153211 -0.703620 0.480092 -0.223534 0.185522 0.816637 0.438513 0.850811 -0.953810 0.365882 0.300905 -0.832876 0.536576 0.364200 -0.318011 -0.624864 0.764818 -0.275378 -0.140126 0.952964 0.075866 0.040223 -0.032263 -0.358810 0.296921 0.526751 0.750533 -0.638027 -0.563486 -0.425656 0.442100 -0.821692 -0.062910 -0.602240 -0.392124 -0.283389 -0.157732 0.759673 -0.437726 -0.969207 -0.246547 -0.964093 -0.031956 -0.332528 0.764306 0.577310 -0.787534 0.203512 -0.088008 0.893045 -0.907115 -0.585206 0.571243 -0.224164 -0.307206 -0.269675 -0.467801 -0.484280 0.818675 -0.842822 0.155101 -0.718120 0.014013 0.795915 -0.136459 0.046693 0.995779 0.485177 0.068172 0.509255 0.481238 -0.178404 -0.558794 0.220221 -0.944747 -0.090537 -0.757409 0.317002 -0.083088 0.698280 0.577196 0.306412 -0.382703 0.983606 0.366990 -0.946857 0.073401 -0.802371 0.824466 0.904374 0.248412 0.688283 -0.577161 -0.689933 -0.581573 -0.861807 0.602570 0.914431 0.596962 0.552465 0.178067 0.643285 -0.466134 -0.820490 0.704757 0.892403 -0.972261 -0.308780 0.670723 -0.494655 0.390398 0.341101 0.561299 -0.494757 0.965928 -0.645267 0.550484 0.298774 -0.834552 0.913160 0.456839 -0.786103 -0.428740 -0.520399 -0.852446 -0.614060
their -0.117165 -0.807858 0.489295 -0.767435 0.192185 0.069444 0.003602 0.667848 -0.455503 0.462696 0.864100 0.849504 0.851540 -0.795365 -0.356901 0.473145 -0.209337 0.193031 -0.394423 -0.935609 -0.251620 0.719870 0.569721 -0.391051 0.944662 0.157631 0.949447 0.217856 -0.488993 -0.796947 -0.810105 -0.856785 -0.175012 0.998090 -0.449358 0.101895 0.738364 -0.758380 -0.996754 0.386652 0.952498 0.758434 -0.345147 0.578515 0.511315 0.830193 -0.776572 0.826191 0.820375 0.846530 -0.956665 -0.946290 0.920036 0.630036 0.366969 -0.750038 -0.054250 -0.628211 0.197607 0.403063 0.670655 0.536534 -0.992525 -0.305196 0.238020 0.336641 0.266217 0.737194 0.088376 0.780482 0.291111 0.845660 -0.927593 -0.478170 0.220111 0.440837 0.800246 -0.947552 -0.729789 0.311193 -0.301627 0.702684 -0.620488 -0.829641 0.370896 0.636138 0.781930 -0.373050 -0.599591 -0.205143 -0.062083 0.743556 0.938083 0.067225 -0.981293 0.102229 0.293203 -0.597413 0.377720 -0.179478 0.888801 -0.423857 -0.675772 0.684366 0.449295 0.174292 0.344900 -0.084364 -0.787727 0.660761 -0.782301 0.502672 0.923708 -0.566878 0.488319 -0.891902 0.944373 -0.681692 0.088694 -0.011335 -0.683192 0.587010 -0.830086 -0.814606 -0.973766 0.229143 0.522679 0.137777
would 0.500301 0.017806 -0.434227 0.709287 -0.381978 0.110853 -0.676363 0.373881 -0.813592 0.593089 0.646001 0.419120 -0.625633 0.093409 0.653845 -0.448999 0.065562 -0.406139 0.579042 0.047889 0.344870 -0.661442 0.520940 0.994279 -0.239931 -0.026538 -0.520310 0.860417 -0.555485 0.991238 -0.330544 0.295050 0.509988 -0.892503 0.722575 0.461764 -0.510568 -0.870524 0.612158 -0.495572 0.516045 -0.798772 0.021776 0.365709 -0.982585 -0.220295 -0.273810 0.375741 0.394411 0.094580 0.361786 0.518567 -0.690633 0.841099 -0.340179 -0.730061 -0.763501 0.734563 -0.696982 -0.738927 0.377633 -0.141499 0.018150 -0.873509 0.924309 -0.905686 -0.467656 0.511779 0.622297 -0.952548 -0.370855 -0.577015 -0.362646 -0.533081 0.801509 -0.675221 0.354318 0.915728 -0.532373 -0.961534 0.188716 -0.765147 0.376950 -0.528411 -0.958171 0.578795 -0.998086 0.176400 -0.891234 -0.998720 -0.460913 0.091754 -0.164019 0.707095 0.628205 -0.137535 0.618598 -0.813475 0.610541 0.158519 0.871294 0.483588 -0.354385 -0.345890 -0.253145 -0.836317 -0.542784 0.113814 0.489184 -0.928716 -0.483775 0.100717 0.913999 -0.950840 -0.955051 0.129975 0.685890 -0.026657 0.077631 0.836704 0.979688 0.579118 0.979064 0.469788 -0.702743 0.608990 0.913925 -0.677710
them 0.794599 0.626542 -0.237370 -0.790331 0.824362 -0.153709 0.728124 -0.549628 0.559434 0.352152 0.830287 -0.426485 -0.870403 0.727793 -0.480651 -0.836578 0.608465 0.281682 -0.159922 0.777319 0.455379 -0.984999 -0.582313 0.162983 0.125044 0.847963 0.990442 0.834963 0.243485 -0.628843 0.735536 0.591161 0.375210 0.298207 0.829359 0.726803 0.942782 -0.309107 0.857189 0.194401 -0.419079 -0.367172 -0.140084 -0.392557 -0.455807 -0.093549 0.776944 -0.878727 -0.215840 -0.388940 -0.146796 -0.572856 -0.948084 -0.671311 0.069522 -0.617746 -0.930167 -0.528647 -0.492358 -0.083562 -0.711522 0.601659 0.928882 0.737624 -0.681014 -0.051145 -0.977481 -0.541139 0.159044 0.071653 -0.942684 0.975757 0.687494 -0.530932 0.292602 0.348246 0.037953 0.769425 -0.337159 0.978790 -0.871407 -0.674570 -0.256713 -0.258906 0.221195 -0.308971 -0.855060 -0.849823 -0.945070 0.861937 -0.194528 0.687964 -0.960935 0.263215 -0.303327 -0.053242 -0.438940 -0.995351 0.442795 0.369921 0.939677 0.725685 -0.141703 -0.109486 0.113417 0.928654 -0.969527 -0.170738 -0.374453 0.929509 -0.229598 0.433867 0.423606 -0.271373 -0.211271 -0.044178 -0.290314 0.491297 -0.262146 -0.745483 -0.666491 0.006663 0.654892 0.697574 -0.242783 -0.013467 0.352586 0.108368
been -0.052132 0.938249 -0.262504 0.088974 -0.124694 0.781919 0.352637 0.039984 0.512550 0.960646 0.597470 0.722519 0.912501 0.213373 -0.068647 -0.429046 0.957891 0.193770 0.943992 -0.369299 0.661650 -0.805251 -0.830455 0.713928 0.924915 -0.001297 0.045551 0.917057 0.170803 0.537018 -0.047442 0.196520 -0.270303 -0.608345 -0.693488 -0.042409 -0.850946 0.336472 -0.280251 -0.512491 -0.083639 -0.316792 0.957530 -0.192837 0.847369 -0.582078 -0.161758 -0.614112 -0.056953 0.279062 -0.831768 0.475703 0.241096 0.563033 0.691551 0.171944 -0.619110 -0.269507 0.759184 0.961652 0.705094 -0.886948 -0.255473 -0.117965 0.053323 0.073121 -0.629516 0.012361 0.102157 -0.295959 -0.384586 -0.892606 0.942688 -0.468342 0.393980 -0.695575 -0.791231 -0.401363 0.137557 0.449928 0.873388 -0.331042 -0.859417 0.374528 -0.764446 0.104651 -0.888738 -0.208625 0.763295 0.071958 -0.859602 0.465018 0.534534 0.044983 -0.828585 -0.458786 -0.496214 -0.536932 0.918253 -0.165190 0.757587 -0.728331 -0.751115 -0.266934 -0.263983 -0.547601 -0.798761 -0.483946 -0.095286 0.704834 -0.220175 0.646697 -0.110917 0.262282 0.091925 -0.418497 -0.078767 -0.397758 -0.994978 0.106459 -0.804579 -0.765520 0.045168 -0.332242 -0.294748 0.056113 0.432025 -0.505555
do -0.103333 -0.118720 0.406590 -0.218995 -0.778281 -0.556119 -0.313278 0.753156 -0.254844 0.198635 0.332000 -0.000283 0.951456 0.184907 -0.365508 0.823485 0.218626 -0.512621 0.115033 -0.689785 -0.232246 -0.756615 0.344819 -0.577465 -0.432906 -0.878434 0.035398 -0.949760 0.936021 -0.951271 -0.996209 -0.397564 0.310180 0.772316 -0.211852 -0.841737 -0.046072 -0.066563 -0.419295 -0.428187 -0.797462 -0.632589 0.436274 -0.977740 -0.325600 -0.256681 -0.501205 0.517425 0.393429 0.775062 0.393796 0.700913 0.195934 -0.300467 -0.321144 0.160639 -0.407685 0.765282 0.036297 -0.561761 -0.561073 -0.141291 -0.566967 -0.680790 0.847542 0.495320 0.809250 -0.222954 0.500884 -0.168600 -0.924194 -0.924470 -0.287505 0.752818 -0.368727 0.665442 0.258188 -0.488330 0.449331 0.835189 0.508912 0.795287 -0.131669 0.367425 0.105727 0.741177 -0.404835 -0.708763 -0.354745 -0.975490 -0.003810 0.968652 -0.173516 0.166287 -0.011870 -0.397099 0.670384 -0.576591 0.289959 -0.219146 0.684103 0.247060 0.755038 0.610469 -0.088595 0.022979 0.008980 0.828270 -0.802905 0.229105 0.602328 -0.841260 -0.086577 -0.687650 0.046852 -0.482144 -0.975167 0.089619 0.492210 0.375641 -0.990783 -0.781443 -0.116625 -0.825541 -0.899043 -0.042856 0.490154 -0.117902
your -0.341773 0.386465 0.293512 0.294207 0.668725 -0.096900 0.221900 0.445816 -0.196782 -0.470332 -0.788898 0.421189 0.792302 0.236339 -0.247206 -0.993067 0.724995 0.992385 -0.444059 -0.435661 0.464582 -0.201340 -0.623649 0.043310 0.807746 0.125367 0.807547 -0.129090 0.489198 0.797050 0.736542 0.472455 0.678246 -0.829858 0.419114 -0.925031 0.633642 -0.126114 -0.216367 -0.104221 0.358126 0.278997 -0.853670 0.245589 0.233267 -0.595646 -0.568990 -0.662822 -0.173058 0.298465 -0.007821 0.881542 -0.222189 0.258993 -0.639468 -0.941264 0.334887 -0.326724 0.541572 0.717679 -0.442457 0.960321 -0.995384 0.295392 0.782514 -0.758131 0.753963 -0.440289 -0.629715 -0.941823 0.510008 -0.547049 0.161416 0.579924 -0.232734 0.615698 0.565365 -0.003482 -0.473905 -0.217073 -0.875032 -0.306889 -0.666440 -0.435755 0.656628 -0.800999 -0.748169 -0.868990 0.486693 0.164629 0.612828 0.483157 0.695058 0.763097 0.648404 0.764945 0.436030 0.663773 0.907580 -0.298850 -0.064769 0.404882 -0.680559 0.009792 -0.254199 0.126747 -0.306145 -0.988430 0.494178 -0.984697 0.083430 0.710454 0.603308 0.989006 -0.286317 0.138164 0.089744 -0.761696 -0.220008 -0.544737 -0.122017 0.518554 0.806775 0.506939 0.205503 -0.424724 -0.487784 -0.184399
now 0.077025 0.885074 0.916024 -0.045226 -0.890884 0.770253 -0.088238 0.712519 0.555517 -0.422456 0.024630 -0.717391 0.512128 -0.477136 0.682364 0.326865 -0.010532 -0.305712 0.429024 -0.046798 -0.453887 -0.743206 -0.841042 -0.859644 0.760092 -0.685601 0.589337 -0.720173 -0.230713 0.399640 0.042710 0.035937 -0.525575 -0.302184 0.350934 -0.280604 0.861478 0.658254 0.944646 0.308941 0.586950 0.592420 -0.048823 -0.439008 0.378084 0.403466 -0.308827 -0.055857 0.439134 -0.361585 -0.426802 -0.053820 -0.188205 0.381390 -0.130684 0.576061 -0.634729 0.218527 0.623153 -0.541437 -0.032755 -0.895820 -0.163853 -0.832490 -0.359008 -0.931576 -0.724892 -0.487576 -0.976097 -0.543755 -0.222849 -0.186165 0.969242 -0.862128 0.956651 -0.669611 -0.670046 -0.403319 -0.344103 0.061722 -0.797103 0.212978 -0.484171 0.888009 0.445007 -0.794648 -0.770153 0.431389 -0.593716 0.469791 -0.925964 0.093004 0.751376 0.853968 0.225234 0.210426 -0.114325 -0.800229 0.561922 0.976950 -0.608437 -0.140655 0.650436 0.208577 0.851711 0.913184 -0.191833 0.455323 0.454754 0.487799 -0.706412 0.842041 -0.802802 -0.539523 0.050861 0.396314 0.252050 -0.777189 -0.678068 0.948088 -0.125044 0.073822 0.931450 0.128514 0.175223 0.739196 0.100485 0.229936
out 0.747326 -0.161602 -0.212323 0.627325 -0.153849 0.183309 -0.584604 -0.736956 0.902853 0.168501 0.066058 0.428087 -0.481335 -0.562993 -0.178295 0.497945 -0.242513 -0.555055 -0.895930 0.806800 -0.585685 -0.304390 -0.912053 0.412309 0.419461 -0.069236 0.693363 0.839577 -0.169740 -0.567443 0.164067 -0.163628 -0.621803 0.807625 0.546181 0.633670 -0.441090 -0.440020 0.792301 0.065525 -0.329147 -0.222590 0.101299 -0.882726 -0.466115 0.226976 0.960296 0.039297 -0.502827 -0.188419 0.959472 0.624441 0.316635 -0.095122 0.703834 0.721141 0.327172 0.483327 -0.300094 -0.971150 0.400708 0.200697 -0.179986 0.690172 0.972281 -0.427382 -0.476912 -0.461179 0.028103 0.763044 0.636533 -0.668391 -0.260699 0.038374 -0.804395 0.604570 0.601403 -0.359068 -0.179690 -0.004496 0.856884 0.546604 -0.533205 -0.202196 -0.819474 -0.353973 0.413776 -0.716134 0.612592 0.381920 0.028359 -0.086376 0.397250 -0.008708 0.389018 0.033120 0.331198 -0.160557 0.120631 -0.993012 0.642097 0.640887 0.036097 -0.619977 0.274847 0.606831 -0.552032 0.923930 0.110519 0.113724 0.969500 0.870314 0.334311 -0.941691 -0.202031 0.012701 -0.464575 -0.218099 0.002173 0.756941 0.802480 -0.049548 -0.289990 0.760651 0.791851 -0.485198 0.453287 -0.961604
more -0.912054 0.499615 -0.607931 0.650204 0.097102 -0.943977 0.922113 -0.693733 0.034043 -0.932333 -0.121552 0.453564 0.811943 0.955668 -0.282154 0.883351 0.201463 -0.902652 -0.536719 -0.189173 -0.754999 -0.556803 -0.465437 -0.949719 0.822753 -0.981474 0.424866 -0.658740 0.221567 -0.618113 0.366606 -0.432569 0.393873 0.397938 0.452192 -0.106915 -0.747166 0.142892 -0.867984 -0.124509 0.799703 -0.276654 0.859607 0.220185 -0.665113 0.093609 0.596763 0.794020 0.487943 0.664941 -0.034916 -0.247460 0.523959 0.473316 -0.276538 -0.885160 -0.839220 -0.615619 0.971411 0.264818 -0.028028 -0.899973 0.913107 -0.528364 0.550119 -0.397829 -0.277698 -0.917616 -0.560117 -0.482432 0.593485 0.426192 -0.100674 0.662169 0.947254 -0.852524 -0.054074 0.261079 0.976429 -0.767510 -0.388137 0.327608 -0.033678 0.010996 0.824329 0.569389 -0.202279 0.550797 -0.345958 0.493756 0.381123 0.510617 -0.845378 -0.785440 0.688032 0.461170 0.240385 0.459709 -0.522019 0.492540 -0.664646 -0.444674 0.653690 0.793561 0.187689 0.211198 0.349922 -0.662708 0.642930 -0.748398 0.897695 0.671452 -0.299530 -0.516995 0.472081 0.428234 0.854226 -0.276034 0.168286 -0.622051 0.909472 -0.641771 0.696368 0.560078 -0.037556 0.382160 -0.865003 -0.379866
up 0.555428 -0.527137 0.379495 0.602236 -0.863997 -0.234730 0.300733 0.578431 -0.298793 0.134983 0.894171 0.296665 0.576702 -0.909909 0.231562 0.969024 -0.480200 -0.563274 0.169919 0.884046 0.210925 0.317434 -0.910131 -0.781988 0.233031 0.711244 -0.409887 0.316220 -0.233646 -0.577973 0.460557 0.823775 0.600673 -0.942656 -0.672488 -0.776532 0.116773 -0.529257 -0.566568 0.318772 -0.270175 0.454896 0.062889 -0.468096 -0.006709 0.325842 0.053643 0.935078 0.572236 0.152608 0.692661 -0.184206 0.750396 -0.831969 0.752072 -0.125175 -0.222512 0.832649 -0.724568 0.229603 -0.091075 0.842810 0.219929 -0.590576 0.020537 0.028226 -0.039740 0.369947 0.614242 0.440940 0.099636 -0.149365 -0.194633 0.557789 -0.633158 -0.151979 0.673951 0.839128 -0.804043 0.308164 -0.740719 -0.177289 -0.603720 0.440912 -0.452753 -0.175622 -0.365163 0.584157 -0.064187 0.515536 0.445578 0.441241 0.377472 0.243648 0.174349 -0.376991 -0.174535 0.619052 0.526620 -0.289036 -0.508021 0.195386 0.497063 -0.073043 0.647944 -0.584433 -0.602578 -0.447619 0.216810 0.100878 -0.663471 -0.199219 -0.621235 -0.831355 0.204142 -0.442150 0.154401 0.162898 0.810855 0.182219 0.210628 0.361403 0.187533 0.437261 0.126834 0.525714 0.756085 -0.105529
man -0.157598 0.576642 0.880292 0.006025 -0.110035 -0.084055 -0.386111 -0.683091 0.872885 0.544144 0.651807 0.635782 0.018022 -0.074557 0.475388 -0.724048 -0.193005 0.997365 -0.110896 -0.187699 0.591426 0.960919 0.257833 0.807179 0.292785 -0.868273 -0.235018 0.938711 -0.075850 -0.504151 0.567561 -0.423308 0.869527 0.540532 -0.574524 -0.307647 0.963755 0.635237 -0.775190 -0.060350 0.980293 0.160673 0.844182 0.845343 0.331729 0.407412 -0.981481 0.271921 0.201548 -0.896255 0.016381 -0.027801 0.379828 0.308737 0.328715 -0.806970 0.753711 -0.910282 -0.638130 0.515221 -0.447673 -0.418339 0.356107 0.913300 0.327796 -0.929594 -0.442415 -0.802415 -0.207026 0.084911 0.817239 0.397764 0.209747 -0.868763 -0.029206 0.266799 0.199116 0.611701 0.653541 -0.357872 -0.332366 -0.405042 -0.575597 -0.046978 0.697325 0.048044 -0.303558 0.474847 0.481690 0.912135 -0.874999 -0.815783 -0.964541 0.940222 0.574147 0.626297 0.146727 0.911899 -0.048265 0.696984 -0.651171 0.985078 0.353047 0.485532 -0.530628 0.237115 0.398227 0.099382 -0.347217 -0.330251 0.486034 -0.752138 0.801464 -0.811228 -0.530632 0.479670 0.665863 -0.052785 -0.475591 -0.577317 0.180275 -0.090769 0.298787 -0.739973 -0.997805 0.873842 -0.674602 0.964821
into 0.353493 0.853515 -0.525997 0.081457 -0.985978 0.043068 0.278042 0.292120 0.771283 -0.614343 -0.402878 -0.627662 0.792104 -0.532535 -0.711722 0.596855 0.750898 0.960670 0.383045 -0.600736 0.651881 -0.429924 -0.744057 -0.762987 0.254992 -0.505157 0.679990 -0.969558 -0.186490 0.004131 0.560295 0.071629 -0.489243 -0.318914 -0.491922 0.905245 0.782584 0.410255 0.941337 -0.668764 0.460009 0.627745 0.063212 -0.072617 -0.166755 -0.711753 0.704486 0.275481 -0.331668 0.769030 0.080095 0.264134 -0.269279 -0.148811 -0.702377 0.132630 0.073939 0.122386 -0.946362 0.138922 0.091538 -0.383043 -0.409051 -0.141895 0.201207 0.897905 0.997960 0.415523 0.021048 -0.288316 -0.453012 0.295035 -0.802818 -0.571810 -0.206410 0.117522 -0.318229 -0.742410 -0.334440 -0.033633 0.442123 -0.734293 0.807437 0.832585 0.726775 -0.846465 0.135295 -0.199310 0.475813 0.355714 0.643817 0.423983 -0.014579 -0.906092 0.720423 0.053999 0.362529 -0.516929 0.538434 -0.476971 0.815179 -0.498812 -0.890401 0.658484 0.798112 0.668978 -0.477459 -0.076258 -0.034079 -0.929071 0.363475 0.790007 0.842606 -0.884337 -0.954360 -0.344624 0.528912 -0.592364 0.032953 0.402542 0.513265 -0.816182 0.084035 0.583547 0.732531 0.613680 0.179870 -0.880419
some 0.388234 0.596978 -0.184520 0.171825 -0.536172 -0.186041 0.318162 0.959807 -0.320969 0.987837 0.762182 -0.004306 -0.958411 -0.293433 -0.382333 0.026900 0.995826 -0.164060 0.563652 -0.933076 0.978460 0.137728 0.892799 -0.227409 -0.231053 -0.072080 0.245559 0.885940 0.255255 0.253883 -0.781511 -0.494308 0.223582 -0.946607 -0.025122 -0.934394 -0.998328 -0.026064 -0.876574 0.363774 -0.902493 0.537786 -0.403420 -0.847787 0.548395 0.421740 0.504542 -0.028176 -0.429181 0.690780 0.787425 0.650365 0.049859 -0.390562 0.711653 0.776062 -0.473880 -0.155161 0.702405 -0.392826 -0.943930 -0.385878 -0.739187 0.906307 -0.737474 -0.036031 -0.376792 -0.082506 -0.214179 0.786763 0.235093 -0.438991 0.450921 -0.001499 0.744475 0.908488 -0.859876 0.333535 0.226257 0.045961 0.364811 -0.203631 0.364252 0.396749 -0.687467 0.681478 0.670232 -0.563964 -0.659651 0.604242 0.743186 0.019088 0.573412 -0.636449 0.195906 -0.742163 -0.433029 -0.409631 -0.002517 0.373292 0.557459 -0.424470 -0.708266 0.432379 0.335712 0.769540 -0.968352 -0.759798 0.149889 -0.639693 0.528025 -0.471912 0.644785 -0.056669 -0.708192 -0.859198 0.297045 0.422699 -0.778879 -0.875916 0.519141 -0.415480 -0.456190 -0.934015 0.997327 -0.643221 0.870586 -0.775066
could 0.239866 0.945825 0.330038 -0.840614 0.472087 0.136327 0.848739 0.282002 -0.113727 0.250781 0.177525 0.686218 0.293642 0.948769 -0.606749 -0.134490 -0.841305 0.882860 -0.507514 0.085895 -0.581085 -0.574885 0.577665 -0.158626 -0.353735 -0.197738 -0.644192 0.614640 -0.106345 0.415687 0.790678 0.741321 0.350966 -0.651288 0.963452 0.955276 0.757545 0.186013 -0.917171 -0.661929 0.030277 0.506168 0.314343 -0.354560 -0.281795 0.698341 -0.948614 0.496220 0.199383 -0.148296 0.997376 0.777904 -0.906313 0.931409 0.725102 -0.609518 -0.265218 0.955687 0.663085 0.240540 0.886814 0.486820 -0.162737 -0.277643 -0.759378 -0.608600 -0.187223 -0.806488 0.639979 0.324032 0.702329 0.613311 0.857258 -0.380279 0.792030 0.037159 0.339999 0.519338 0.542081 0.025611 0.874921 0.860831 -0.879953 0.160249 0.478037 -0.131075 -0.091111 -0.254006 0.532392 -0.501014 -0.986183 0.625968 0.705258 0.525840 0.132739 0.162624 0.495751 -0.392934 0.423446 0.537534 0.771028 -0.958071 0.309983 -0.676066 -0.870988 0.855895 0.021208 0.823386 -0.219327 -0.034278 0.168872 -0.591112 -0.167883 0.473219 0.668799 0.668806 -0.235017 -0.898797 -0.154840 0.430895 -0.935110 0.336935 -0.274485 -0.894552 -0.882995 -0.015859 -0.550433 0.225485
has 0.199226 0.133669 0.175407 0.839679 -0.455336 0.800332 0.501594 -0.180207 0.289628 -0.857957 0.352842 0.631359 0.800685 -0.120158 0.913163 0.873179 -0.780945 -0.785929 0.846236 -0.435827 -0.217656 -0.250898 0.474442 -0.791651 0.531264 -0.937523 -0.835042 -0.705490 0.781884 0.033098 -0.132132 -0.149886 -0.853956 -0.352069 -0.459704 -0.932827 0.163801 -0.131499 -0.376253 0.225218 0.937930 0.710894 -0.668069 -0.948698 0.776558 0.689047 0.811546 -0.947285 0.377778 0.335985 0.768052 -0.167406 0.885408 -0.620402 0.438332 0.399390 -0.755287 0.299978 -0.351302 -0.913114 -0.269525 0.877490 0.218657 -0.220213 0.560773 0.662874 0.900525 -0.673243 -0.640730 -0.720098 0.842848 0.231573 0.808694 0.651412 -0.915244 -0.620864 -0.958722 -0.080764 0.871671 0.165133 0.772549 0.305086 -0.187252 0.302360 0.262621 0.316724 0.319400 -0.879919 -0.412946 0.738896 0.691428 -0.932864 0.835617 -0.553341 0.759765 0.448323 0.152462 -0.572336 0.060304 0.569926 -0.704633 0.202386 -0.230364 0.399630 -0.545475 0.763961 0.911547 -0.602028 0.415581 0.354794 0.854399 -0.920391 0.782296 0.494443 -0.602784 -0.010250 -0.242209 -0.554910 0.369659 0.880910 0.326460 0.423124 -0.309498 0.279698 -0.547111 0.584727 -0.449636 0.543959
only 0.587292 -0.719786 0.132788 0.018780 -0.246746 -0.728508 0.678960 0.902429 -0.543314 0.674337 -0.059045 0.390987 -0.214230 -0.234773 0.730786 0.224944 0.258316 0.219784 -0.187383 0.200336 0.184093 0.689807 0.939413 -0.351926 -0.487055 0.178283 -0.042052 -0.959000 0.832696 0.720760 -0.212586 -0.976733 -0.951325 -0.394248 -0.449748 0.674179 -0.371652 -0.723484 -0.722637 0.221976 -0.196971 -0.711946 -0.573480 -0.779641 0.350416 -0.629268 -0.028319 -0.170898 -0.691263 0.139363 -0.930374 -0.357857 -0.264103 -0.388881 -0.376996 -0.550180 -0.362442 0.586075 -0.364882 -0.155494 -0.897430 -0.483305 -0.926091 0.864835 -0.851584 -0.315452 -0.208089 0.937892 0.082780 -0.687321 -0.971068 0.868738 -0.507766 0.650199 -0.406795 0.567972 -0.867359 0.599384 0.088548 0.355759 -0.566898 -0.386074 -0.821540 0.290070 -0.863452 -0.392246 -0.326405 -0.650838 -0.280301 -0.198063 -0.723417 0.811946 -0.458011 0.605212 0.964536 0.300222 -0.798320 0.866542 -0.958806 -0.413596 -0.684584 0.066332 0.407290 0.645186 0.619914 0.910598 -0.148316 -0.632395 0.828352 0.333442 0.503104 -0.074454 0.381202 0.388008 -0.280507 0.577652 0.344665 0.321184 0.065915 -0.099972 0.873546 -0.464025 -0.658973 -0.528349 -0.116843 0.041458 -0.439471 -0.908056
any -0.481797 0.074701 0.286220 0.205940 -0.456666 -0.774207 0.517767 -0.444905 -0.922548 0.599490 -0.148261 -0.291192 -0.052390 -0.996475 -0.508913 -0.556286 -0.558016 -0.227654 0.778522 0.316377 0.707441 -0.512944 -0.014366 -0.758621 0.694369 0.996956 -0.661357 -0.327541 0.853237 0.730414 -0.536057 -0.257923 -0.383827 0.203428 0.523998 0.057888 0.212146 0.668636 -0.318084 0.265068 -0.580685 -0.544880 -0.377021 -0.140973 -0.484458 -0.117384 -0.519618 -0.969198 -0.871551 0.352259 -0.959182 0.810327 0.575642 -0.828693 -0.356424 0.009631 -0.075012 -0.150223 0.287851 -0.482049 0.056038 0.607967 -0.438330 -0.734727 -0.512874 -0.423736 -0.911949 -0.145031 0.333091 0.113544 -0.982033 0.923967 0.404822 0.387452 0.048687 -0.873111 0.913693 0.302764 -0.203358 0.244135 0.632297 -0.921523 -0.363955 -0.379976 -0.475280 -0.817693 0.731160 -0.588901 0.329748 -0.814671 0.037324 -0.628080 -0.661000 -0.898896 -0.849653 0.170116 -0.446542 0.315564 -0.716853 0.488600 -0.566799 0.885635 -0.992643 -0.589341 -0.370902 0.441844 0.090484 -0.990214 0.704423 -0.310749 -0.093762 0.707176 -0.708102 0.746597 0.877116 0.609926 -0.771223 0.862419 0.937379 -0.939741 0.862424 -0.830836 -0.946077 0.321795 -0.152186 0.132280 0.091490 -0.852354
very -0.407631 0.401040 0.629164 -0.365613 0.365873 -0.626921 -0.641587 0.651321 -0.402318 -0.371782 0.037494 0.207381 -0.463322 -0.277487 -0.177979 0.866848 -0.810424 0.896795 0.855450 0.009582 -0.888151 -0.178047 -0.764991 0.243637 -0.026986 0.118131 0.789722 0.333914 -0.801585 0.418297 -0.247166 -0.006440 0.726665 -0.384741 -0.990770 -0.342449 -0.144147 0.778712 0.666457 0.980169 0.134661 0.599742 0.455629 -0.579219 0.663717 -0.020690 -0.049356 -0.014344 -0.312107 -0.422102 -0.908178 -0.399582 -0.540190 -0.057817 -0.156887 0.266935 -0.414782 -0.917228 -0.258080 -0.583621 -0.527754 -0.648834 -0.821389 -0.831521 0.415400 0.493825 -0.422211 0.076105 0.350189 0.878963 0.478343 0.420707 -0.763969 0.104921 0.510004 0.400549 -0.027223 0.080572 -0.865945 0.152149 0.995913 0.183439 0.432984 -0.441258 -0.965599 0.935824 -0.340829 0.452053 0.539369 0.266744 0.907152 -0.070457 -0.022436 -0.185790 -0.341822 0.231916 -0.190321 -0.599622 0.124515 -0.450437 -0.494129 -0.623141 0.367408 0.850849 0.674067 0.638625 -0.959992 -0.563412 -0.349628 0.513498 0.980371 0.593781 0.506101 -0.267417 -0.876792 -0.379360 0.060510 0.436070 0.963451 -0.832823 -0.725143 0.513573 0.006519 0.325416 0.117489 -0.232984 0.736199 -0.518161
like -0.239256 0.329981 0.891860 -0.224367 0.928693 0.814128 -0.525477 -0.451576 -0.272731 0.386336 -0.085906 0.957519 0.348287 0.103155 0.944493 0.631558 -0.403171 -0.562808 -0.889648 -0.164763 -0.143964 -0.619781 -0.670180 -0.201251 -0.112932 -0.085861 0.370143 0.524173 0.060706 -0.409474 -0.856875 -0.859996 -0.335739 0.451874 0.290954 0.584997 -0.023208 0.616758 -0.932607 -0.746648 -0.985958 0.304169 0.661609 0.595380 0.917077 0.680360 0.509946 -0.185051 -0.669219 -0.280716 0.690338 0.998972 0.260658 0.638626 -0.984089 -0.085161 -0.275737 -0.138271 -0.884021 -0.777536 0.057598 0.519179 0.650288 -0.478651 0.840600 0.619630 -0.551562 0.069357 0.137548 0.353359 -0.380107 -0.184933 -0.205506 0.514868 -0.893274 -0.368278 -0.814413 0.448845 -0.577138 0.411484 0.528189 0.519186 -0.285943 -0.656701 0.804448 -0.664873 0.093945 -0.835290 0.816502 0.015830 -0.079178 -0.872193 0.666358 -0.294106 0.166409 0.679273 -0.513351 -0.503873 0.823324 -0.086390 0.365577 -0.662539 0.623183 -0.063848 0.737366 0.333181 0.829437 -0.540689 -0.285269 -0.874339 0.326842 -0.896613 -0.218830 -0.227822 0.570615 -0.273801 -0.160844 -0.771454 0.325520 -0.440180 -0.656543 0.862751 0.204913 -0.385813 -0.051363 -0.525048 0.917128 0.161848
did -0.045657 -0.761974 -0.760685 0.487239 -0.739749 0.951988 -0.421064 -0.170962 -0.063432 0.056576 -0.338927 0.029170 0.964597 -0.799788 -0.382840 0.881876 0.685233 -0.280250 0.943531 0.708278 0.545664 0.839980 -0.311822 -0.252113 0.510566 -0.120869 -0.754254 -0.209977 0.025747 -0.739105 -0.098703 -0.692288 0.817047 0.779987 0.674533 0.805540 -0.596921 0.964002 0.478788 0.182303 -0.245896 -0.791512 0.157618 -0.532254 0.414300 0.527797 -0.726881 0.315077 -0.549147 -0.163649 0.740795 -0.355577 -0.881133 -0.645808 0.737956 -0.959555 0.700775 0.456952 -0.041169 -0.382349 -0.161556 -0.168704 -0.663133 0.863700 -0.003366 -0.931190 -0.755931 -0.472230 0.159032 0.642547 -0.667508 -0.244738 0.769221 0.651120 0.646306 -0.381312 -0.636413 -0.668507 -0.191036 0.537834 -0.214244 -0.463107 0.760490 -0.672513 -0.636368 -0.407471 -0.784461 0.325900 0.308572 -0.372848 -0.020413 0.879879 -0.382366 -0.915149 -0.777651 -0.019419 0.330716 -0.328675 -0.483341 0.556859 -0.151231 -0.125754 -0.265421 0.424036 0.752803 -0.210634 0.712304 0.835839 0.859503 -0.667100 0.972670 -0.843157 -0.638175 0.929394 0.327293 0.688080 -0.638093 -0.277089 -0.534098 -0.364590 0.917948 -0.798455 0.399120 0.667513 0.480179 0.734167 0.776802 -0.958812
time -0.122692 0.451833 -0.980698 -0.944384 -0.466180 -0.586148 -0.554945 -0.340332 0.347185 0.254454 -0.838787 0.512583 0.120837 0.929755 -0.243932 0.454453 -0.551092 -0.842185 -0.175593 -0.714683 0.790735 0.738691 0.859130 0.781167 0.100057 -0.040210 -0.046120 -0.811813 0.827944 0.421368 -0.888219 0.137845 0.909669 0.216327 0.013525 0.091828 -0.052403 0.563835 -0.814856 0.660757 -0.998938 -0.367777 0.274052 -0.008542 -0.875441 -0.332747 0.666905 0.962161 -0.025990 0.098036 0.945269 0.251631 0.509074 0.869140 -0.277089 0.766662 0.410727 -0.984171 0.845025 0.784330 0.307172 -0.686482 0.713709 -0.060592 -0.324758 -0.593722 -0.971633 -0.997160 0.446188 -0.600907 -0.517065 -0.729524 0.528000 -0.532092 0.941846 0.245804 0.202029 0.220375 -0.764451 -0.307022 0.467770 0.150539 -0.850795 -0.970773 -0.443405 0.702098 0.248132 -0.570481 -0.318075 0.506276 0.717129 0.002465 -0.254220 -0.440531 0.784058 -0.630137 0.382603 0.357688 0.293763 0.811750 0.282655 -0.262902 -0.304334 -0.102265 0.742332 0.247285 0.597455 0.058965 -0.897648 0.747123 0.621808 0.982516 0.805393 -0.055338 -0.160554 0.341407 -0.070587 0.030956 0.372922 -0.782383 -0.676518 0.394708 0.433013 -0.574909 -0.333802 0.719866 0.919754 -0.646627
its 0.439042 -0.942932 -0.809410 0.283072 0.806297 0.208867 0.265656 -0.223099 -0.050225 -0.902935 -0.608902 -0.534042 -0.519747 0.117152 0.422246 0.835929 -0.886465 -0.106207 -0.150112 0.023862 0.411558 0.608639 0.916484 0.224285 0.113453 0.838576 0.577289 0.230264 0.721442 0.618634 0.763615 -0.294103 -0.867987 0.870431 0.641819 0.188133 0.399069 0.565857 0.555173 -0.001009 0.063062 0.210903 0.057409 0.156952 -0.606609 0.230430 -0.470495 0.976851 -0.658155 0.312811 -0.612562 0.009902 0.750800 -0.921060 -0.961734 -0.662623 0.921669 0.791732 0.708701 0.795274 -0.007202 -0.848546 0.703953 0.119634 0.410852 0.494558 -0.837515 0.036485 0.098535 0.138305 -0.631797 -0.165349 0.308928 0.271074 -0.891420 0.416364 -0.664079 0.255056 0.263291 -0.799066 0.810594 0.399157 -0.887478 0.678791 -0.452574 -0.197207 0.566739 -0.991010 -0.071178 -0.546848 -0.282880 0.745625 -0.893208 0.494488 -0.433595 -0.899779 0.490512 -0.249716 -0.014717 -0.176881 0.943065 -0.183886 0.767569 0.672309 0.234452 0.809871 -0.813111 0.957311 -0.397894 -0.632602 -0.024018 -0.362154 0.285308 0.060023 0.974979 0.102809 -0.693954 0.599272 0.986539 -0.960657 -0.235156 0.799124 0.702841 -0.304635 0.912864 -0.816023 -0.279411 -0.295868
than -0.593835 -0.746854 -0.994732 -0.700114 0.983452 0.063089 -0.185628 0.195267 -0.574224 0.264090 0.936877 0.399245 0.776217 -0.435008 -0.984051 -0.042127 -0.940644 0.095412 -0.968616 0.880918 -0.979008 -0.266826 0.729805 0.617672 0.115798 0.021667 0.478903 0.939736 -0.658769 -0.530969 0.665315 0.323938 -0.213736 -0.903599 0.791792 -0.045748 0.645793 0.809747 -0.195205 -0.009581 0.289238 -0.022396 0.066210 -0.810752 0.649760 0.214710 0.941505 -0.271563 -0.909244 0.254648 0.437846 -0.858050 0.250386 -0.443576 -0.566789 0.649056 -0.572357 0.180320 -0.687707 0.330921 -0.378547 -0.707813 0.881788 -0.282569 -0.340929 0.964573 -0.448000 0.060743 0.833241 -0.285411 0.038764 0.719787 -0.681223 0.742525 -0.736929 0.346944 0.768157 -0.437400 0.315781 -0.960445 0.915858 0.158767 -0.985500 0.626673 -0.433073 -0.755829 -0.775097 -0.678705 0.161577 -0.435856 0.817719 0.956206 -0.481357 0.229769 -0.505959 0.338358 -0.711719 0.403291 0.064340 0.612546 -0.475390 0.688322 -0.062824 -0.660808 -0.442609 -0.788863 0.261830 0.950413 -0.967681 0.481826 -0.221459 0.228885 -0.975845 0.630290 -0.079970 -0.155802 -0.903710 -0.269887 -0.388321 -0.835009 0.564195 0.468612 0.734859 0.637308 -0.840934 0.541289 0.678690 -0.319089
other -0.508036 -0.855947 0.497459 0.519789 -0.262977 -0.887056 0.242917 0.317109 0.641674 -0.962511 -0.693052 -0.802796 0.807029 -0.403358 -0.554473 0.107007 0.452206 -0.422422 0.472649 -0.359113 0.416609 0.379316 -0.969605 -0.831806 -0.081248 0.126873 0.996200 0.544909 -0.173819 -0.862101 0.522240 0.052859 -0.417182 0.473018 -0.037419 -0.027354 -0.459100 0.733956 -0.316151 0.691386 -0.047740 0.935445 0.279811 -0.712985 0.673108 0.274973 0.962526 -0.500488 0.198586 0.779267 0.861609 -0.643646 0.765097 0.538621 0.742357 -0.391403 0.820082 0.293778 -0.057540 0.973309 0.684129 0.331305 -0.647067 0.119644 0.090604 0.448927 0.450703 -0.443680 0.553244 -0.169689 -0.178077 -0.727875 -0.077374 -0.227264 0.177100 0.053093 -0.916101 -0.144544 0.261423 -0.554476 0.322408 0.853217 -0.858144 -0.384712 -0.608587 -0.876388 -0.500363 0.623233 -0.159756 0.310320 -0.547124 0.502912 0.210336 -0.981912 0.947829 0.320608 -0.678626 -0.561272 -0.132156 -0.778719 0.914695 0.860420 -0.997364 -0.511614 0.283180 0.651913 0.129646 0.136969 0.844882 0.639995 0.764675 0.356398 0.085130 -0.153288 0.835619 -0.354472 -0.014480 -0.820689 -0.255619 -0.223120 -0.707443 0.043604 -0.554737 -0.465494 -0.880563 -0.793470 -0.337002 -0.476194
before 0.048136 0.778921 -0.674433 0.716937 0.256292 -0.815220 -0.992694 -0.989389 -0.581199 -0.446102 0.159874 -0.246181 0.242663 0.542803 -0.502042 0.661649 0.200014 -0.842232 0.740515 0.451879 -0.503589 -0.674422 0.239753 0.364120 -0.236969 0.136170 -0.591527 0.521781 -0.288365 0.853193 -0.444523 0.387618 -0.311692 -0.355278 0.147653 -0.602430 0.143683 0.404036 0.855196 0.040713 -0.906360 -0.175173 0.009826 0.325475 -0.887425 -0.810432 -0.456086 -0.804620 0.394788 -0.338801 -0.176849 -0.174774 -0.229403 -0.730146 -0.244986 0.675708 0.709736 -0.527583 0.208553 -0.156436 -0.878801 0.960124 0.934045 0.742691 0.774199 0.662525 0.193956 -0.452097 0.027411 -0.315594 0.936332 0.316998 0.148059 -0.276954 0.827559 -0.489238 0.360736 0.618299 0.704698 -0.024805 -0.576088 0.697906 -0.424113 0.281898 -0.315873 -0.861573 -0.564748 -0.675333 -0.010089 -0.572808 -0.825240 0.968838 -0.708266 -0.203220 0.146085 -0.349514 -0.336468 -0.658242 -0.613832 0.261546 0.950420 -0.901974 -0.614489 -0.115156 -0.115211 -0.185719 -0.650116 0.954630 0.965371 -0.418571 0.532785 -0.895640 0.548080 0.995904 -0.845241 -0.092841 -0.838241 -0.343593 0.078198 0.419824 0.185634 -0.986903 0.745788 -0.640380 0.298939 0.760319 0.744920 -0.330869
about -0.737045 0.428709 0.021713 -0.607911 0.482806 0.367574 -0.931811 0.963762 -0.751127 0.609833 -0.312692 0.771855 -0.604441 -0.729535 -0.299573 -0.327181 0.890205 -0.033949 -0.410486 0.307712 -0.813830 -0.162884 0.940009 0.327522 0.757541 -0.135982 -0.340020 -0.012889 -0.309995 0.095797 -0.533498 0.681671 0.399295 0.512477 0.730627 0.570543 -0.663075 0.866282 0.837836 -0.869296 -0.605396 -0.242635 0.332790 -0.855599 0.513302 -0.538630 0.124063 -0.790323 -0.478504 0.012853 0.431010 0.769676 0.702589 0.452705 -0.492687 0.863841 -0.891103 -0.752710 0.074447 -0.107773 0.870632 -0.993251 -0.899495 -0.288136 0.875711 -0.164390 0.627716 0.024294 0.117038 -0.970361 0.309252 0.318628 0.197445 0.805699 -0.276756 0.584704 0.187634 -0.126862 0.289848 0.104425 -0.655967 -0.768867 -0.606125 -0.133001 -0.418246 0.823471 -0.578106 0.710224 0.524782 -0.924301 0.210922 0.531502 0.650939 0.536709 -0.992892 -0.021701 -0.622703 -0.296954 0.764653 -0.204550 0.832961 -0.298308 0.999541 0.401283 -0.857135 -0.648843 -0.724427 -0.257764 -0.718192 0.656314 -0.202250 -0.704983 0.403573 -0.012604 -0.360788 -0.634343 0.581384 -0.189254 0.981248 0.260146 0.043482 0.964160 0.485606 -0.669705 0.824673 0.657315 0.989848 0.957838
