3000 64
<pad> 0.995347 0.642129 0.034311 0.616753 -0.842790 0.625040 -0.539929 0.005890 -0.345884 0.136280 0.634344 0.534391 0.720268 -0.213954 0.972798 0.919258 0.960835 -0.548264 0.294332 0.349013 0.672709 0.299033 0.836717 0.603272 0.380169 0.158041 0.155233 0.007215 0.812927 -0.153438 0.467014 0.321169 -0.677469 -0.802068 0.846876 -0.673766 -0.441362 0.813250 0.335736 0.841466 -0.026038 -0.248929 0.386042 0.169391 0.112252 -0.981537 0.070509 0.878571 -0.586005 -0.529534 0.709870 0.535069 0.311629 -0.408294 -0.154948 -0.782374 0.287331 -0.118434 -0.313488 -0.255002 0.525444 0.995356 0.558115 0.196195
<start> 0.437171 0.268041 -0.450013 0.925553 -0.011704 -0.632571 0.525958 -0.709457 0.751477 0.304069 0.461537 0.144136 0.157936 -0.113353 -0.094917 0.815292 0.531096 0.987074 -0.230521 0.164860 0.682278 0.529585 0.873171 -0.098724 0.426512 -0.307364 -0.655781 -0.060130 -0.345322 -0.946067 0.831984 0.129489 0.188614 -0.069622 0.313090 -0.935466 -0.829261 0.117247 0.199915 0.256271 0.504461 -0.340650 -0.031787 -0.496204 0.411146 0.133915 -0.208956 0.027431 -0.692990 -0.937363 0.092573 0.006147 0.999894 0.735647 0.683211 -0.750245 0.501116 -0.957084 0.720194 -0.492724 -0.624844 -0.605389 -0.699247 -0.784770
<end> 0.454642 0.186463 0.374667 0.421182 -0.182216 0.284766 0.857948 0.430083 -0.785445 0.190784 0.273686 0.595714 0.322463 0.974752 0.555682 0.261078 -0.294847 0.680583 -0.375023 -0.613051 -0.522937 -0.889091 -0.104266 -0.382570 0.781629 0.335054 0.252332 -0.999480 0.261610 0.234569 -0.940387 0.565499 -0.125860 0.840063 -0.848069 0.779844 0.123488 -0.248471 0.915946 0.136612 -0.246156 0.879716 0.198223 0.662529 0.082911 -0.400194 -0.722736 0.617655 -0.721250 -0.446884 0.385829 0.024337 -0.939183 0.433412 0.478237 -0.645602 -0.924756 0.805025 0.750947 -0.600838 -0.106981 -0.530338 0.548841 0.126428
<unk> 0.451954 0.599817 0.814470 0.396949 -0.720166 -0.647574 0.405521 0.377421 -0.324358 -0.773790 -0.864304 -0.320567 0.098321 0.446046 -0.638166 -0.163027 0.273423 0.118951 0.294399 0.840942 0.350214 -0.025281 -0.484142 0.143890 0.860533 -0.264125 0.596315 -0.238869 0.368470 0.237768 0.350723 -0.172334 -0.094841 -0.674004 -0.567609 -0.924543 -0.289540 -0.154591 -0.265629 -1.009399 -0.198310 -0.500349 0.611609 0.967359 0.452787 -0.321865 0.713291 -0.532323 -0.559634 0.962416 0.219154 0.351228 -0.906832 -0.001069 -0.974879 0.318954 0.263966 0.208385 0.525834 -0.904191 -0.353492 -0.739192 0.421128 0.984906
the -0.232100 -0.144723 -0.080920 -0.630316 -0.068611 -0.071163 0.422379 0.879028 -0.190816 -0.708123 0.385709 0.259617 -0.542563 0.624460 0.583177 -0.292358 0.850838 0.225895 -0.424690 0.114655 0.872893 -0.221701 0.894322 0.727118 0.190087 0.542972 0.950001 0.840371 -0.091257 0.312632 -0.901517 -0.735036 0.102104 0.875443 0.729598 0.112938 0.692863 0.691725 0.663375 0.965548 -0.263339 0.538360 -0.075892 -0.130326 -0.294780 -0.668429 0.519140 -0.233618 0.634955 -0.856690 -0.472062 0.631941 0.860290 -0.334693 -0.395700 -0.095345 0.115050 -0.596614 -0.673569 -0.082920 0.329452 0.562472 0.877716 0.556874
and 0.907670 0.142430 0.524271 0.133167 -0.245563 0.305537 0.854048 -0.469848 0.895609 -0.855926 0.571326 -0.777289 -0.736947 0.088039 -0.714579 -0.269280 -0.368709 -0.656826 0.226047 0.143567 0.099993 0.401661 -0.923146 0.567671 -0.067848 0.400345 -0.175882 0.083086 0.009937 -0.879808 0.767472 -0.980354 0.873858 0.598944 0.694660 -0.854541 0.183045 -0.581869 -0.281599 -0.905474 0.633416 0.382799 -0.482533 0.201321 -0.094376 0.169156 -0.559903 -0.272197 -0.384596 0.241743 0.514698 -0.675504 -0.307183 -0.145268 -0.286249 0.316276 0.687751 -0.929688 -0.374129 0.299840 -0.640976 0.427115 0.866448 0.266544
of -0.604203 -0.069314 0.217111 -0.264482 -0.863556 0.278740 -0.037323 0.938386 -0.424330 -0.991474 -0.906203 -0.210253 -0.668847 -0.538485 -0.800701 0.576621 -0.022169 0.671132 -0.756893 -0.421962 0.684127 -0.247088 0.340536 0.856523 -0.288098 0.606564 0.007130 0.283748 -0.171949 0.569569 0.891642 0.792242 -0.338364 0.729985 -0.616673 -0.517160 -0.407847 0.206287 0.947516 -0.747409 0.431109 0.976991 -0.788584 -0.080288 -0.345311 -0.047236 0.291661 -0.698975 0.035900 0.619450 1.000085 -0.974392 0.057303 -0.993104 -0.241482 -0.173142 0.274424 -0.304759 -0.408144 -0.773553 0.965519 0.544940 0.538701 0.939632
to -0.011252 0.172312 -0.911059 -0.831374 0.330714 0.560233 0.361487 0.848051 -0.870414 -0.194818 0.627363 -0.368540 0.853388 0.802581 -0.596384 -0.827123 -0.905015 0.968652 0.433841 -0.298020 -0.490033 0.784484 0.448640 0.038295 -0.773348 0.114790 -0.976167 -0.383207 -0.222758 0.189343 0.095785 -0.936768 -0.738156 0.743936 -0.870118 -0.512714 -0.913680 -0.666984 -0.098526 -0.443938 0.277636 0.794555 0.436637 -0.977530 0.224533 -0.717529 0.557164 0.880956 -0.585971 -0.744637 0.523455 0.381298 -0.620643 -0.803306 0.351995 -0.783543 -0.971582 0.594991 -0.404981 0.663068 -0.964721 0.067647 -0.192026 -0.905930
a -0.537831 0.311423 0.632717 0.932067 0.424900 -0.068045 -0.739208 -0.864560 0.968404 -0.150064 0.776033 0.203820 -0.707793 0.172619 -0.554198 -0.730939 -0.577148 0.877105 -0.346018 0.393427 -0.743900 -0.249907 0.365512 0.879313 -0.992264 0.367383 -0.358089 -0.568059 0.525989 0.528879 -0.646153 0.091217 0.817054 -0.898196 -0.387165 -0.518714 0.831953 -0.218996 -0.600966 -0.217229 -0.891306 -0.573934 0.884942 -0.264502 -0.885601 0.241491 -0.121246 -0.632083 -0.825577 0.228186 -0.937111 -0.121357 -0.039420 0.661327 0.447156 -0.299216 -0.424889 0.365283 0.269878 0.399024 -0.470619 0.588657 0.235479 0.419327
in -0.376836 -0.406099 0.399804 0.840989 0.337412 0.268920 -0.636906 -0.030616 0.539698 -0.149418 -0.723025 -0.737638 -0.959798 -0.989196 0.225242 -0.849670 0.530797 0.203361 0.546741 0.751555 -0.929598 0.274159 -0.820755 0.725901 0.250918 -0.678317 -0.899979 0.031824 -0.440212 -0.072355 0.842605 -0.146399 0.443627 0.269433 -0.887709 -0.693100 -0.936273 -0.572272 -0.058334 0.552396 -0.129772 0.781680 0.136625 0.867203 0.356838 0.663285 0.394602 0.389469 -0.171609 -0.974942 0.865443 -0.530218 -0.987335 0.258342 -0.714579 -0.354251 -0.714861 0.481811 0.868994 -0.949500 -0.635420 0.528048 -0.214952 0.096312
i 0.466072 0.717383 0.117087 -0.094071 -0.054431 -0.075221 0.227996 -0.909888 -0.009090 -0.609499 -0.917220 -0.893938 0.309556 -0.767856 -0.872086 -0.676248 -0.371012 -0.308675 0.326265 -0.622471 0.948716 -0.671203 -0.576038 -0.410641 0.896103 -0.505032 0.941723 -0.290329 -0.761074 -0.527175 0.662310 0.287049 0.382267 0.746502 -0.895487 -0.440336 -0.081240 -0.173433 -0.791076 0.956018 -0.947580 0.374743 -0.804243 0.250851 0.490393 0.316728 0.148667 0.759429 -0.695424 -0.165446 -0.802374 -0.913333 0.281662 -0.969273 0.167486 -0.010569 0.589976 0.691099 0.834102 0.783769 -0.021832 -0.588494 0.116879 -0.947598
he -0.275285 -0.473870 -0.217260 0.716948 -0.867361 0.506900 -0.662997 -0.676674 -0.315553 -0.438139 0.296021 -0.311549 -0.942078 0.451500 0.486188 -0.163477 0.955853 0.601682 0.024463 0.050163 0.465968 -0.005670 0.131443 0.423159 -0.825156 0.528008 -0.870374 0.683106 -0.899992 0.928402 0.972555 0.090697 -0.426892 -0.641734 0.295336 0.478915 -0.265573 -0.271085 0.020481 -0.041603 -0.901186 0.974527 0.022377 0.457226 0.732974 -0.414426 -0.562968 0.405586 0.805118 -0.879090 -0.772974 0.091852 0.638090 0.618047 0.192449 -0.561427 -0.189146 0.987725 0.592583 -0.248475 -0.387039 0.026188 -0.407644 -0.792140
that 0.749890 0.240752 -0.265617 -0.215368 -0.471573 0.103870 0.884431 0.049441 -0.189076 -0.293975 -0.548620 0.524684 0.163664 0.264325 -0.267955 -0.555361 0.845410 0.414748 0.173975 -0.300503 -0.625957 0.243767 -0.274522 0.539103 -0.109446 -0.710480 0.606825 0.559371 -0.198536 0.740235 0.637749 0.937245 -0.825481 0.348764 0.372652 0.785059 0.248158 0.486492 -0.408271 0.418433 0.398490 -0.890736 -0.777237 -0.079645 0.609034 0.624072 -0.668576 0.881529 -0.508164 0.742547 0.465594 -0.690308 0.161286 -0.615844 -0.050774 0.802699 -0.657663 0.319126 -0.798617 0.094896 -0.299932 0.051694 0.434636 0.908151
his -0.083644 0.657999 -0.347591 0.440448 0.663075 -0.091111 0.385014 0.425242 0.675193 -0.884301 -0.519332 0.659970 0.646174 0.555856 0.790205 -0.725019 -0.314491 0.601347 0.878871 0.199719 -0.432851 -0.556071 0.743663 0.950520 0.390793 -0.641644 0.773500 0.912080 0.209467 -0.292980 -0.166110 0.925379 -0.996540 -0.337102 0.333088 -0.383379 -0.480099 -0.088193 -0.749183 0.720716 0.604944 -0.321027 -0.993479 -0.502329 -0.960036 0.260755 -0.574580 0.549452 0.426661 0.867109 0.122676 0.936787 -0.310555 0.360205 -0.554373 0.821730 0.862732 -0.465557 -0.751209 -0.066957 -0.791626 0.934011 -0.207179 0.455762
was 0.414005 -0.010105 -0.702172 -0.647706 0.186743 0.675861 -0.488029 0.516815 -0.403364 -0.810565 0.067691 0.064270 -0.716721 -0.456144 0.434789 0.440409 -0.174311 -0.429073 0.774136 -0.963921 0.780114 -0.351465 0.669480 0.260283 -0.502922 -0.058469 -0.294371 -0.142375 -0.478381 -0.403859 0.216624 0.282853 -0.321480 0.526665 -0.335717 0.975598 -0.155474 -0.740051 -0.438900 -0.719857 0.385167 -0.703933 0.148680 -0.971530 -0.453892 0.805957 -0.250764 -0.681447 -0.183832 0.603827 -0.691486 -0.627056 -0.448285 -0.639286 -0.480381 0.315867 -0.241549 0.016882 0.038914 -0.671858 -0.309080 0.319455 0.764155 -0.116695
it -0.095078 -0.487561 -0.299674 -0.250837 0.807720 -0.817506 -0.163510 0.673766 0.739321 -0.391984 -0.436801 0.615087 -0.679498 0.386409 0.974510 0.692004 0.527457 0.827883 0.680882 -0.475190 0.848254 0.873627 -0.857661 0.746191 0.821393 0.667587 0.655205 0.331754 -0.549716 0.925312 0.946629 0.847041 0.496493 -0.175128 -0.914395 0.423601 -0.581455 -0.855123 -0.223357 0.417598 -0.018306 0.372030 -0.044129 0.426335 0.208691 0.222879 0.503260 -0.572330 -0.985227 -0.547974 0.704372 -0.630491 -0.044897 -0.343005 -0.593100 0.126748 0.403342 0.504140 -0.023886 -0.337867 -0.424266 -0.304794 -0.363795 -0.710008
you 0.612555 -0.624268 0.035754 -0.002888 -0.039126 0.773059 -0.537534 -0.602047 0.163143 0.287389 -0.379389 0.977011 -0.638939 -0.804924 -0.447338 0.165688 -0.256212 0.075785 0.985513 0.893355 0.794394 0.551301 -0.017099 0.097654 0.745092 0.619919 -0.298906 -0.197266 -0.944510 0.705953 0.792926 0.283490 -0.397518 0.276962 0.681331 0.107421 0.910766 0.449856 -0.648481 0.502564 0.469184 0.842023 0.798781 -0.211161 -0.113893 -0.555349 -0.874022 0.324956 0.416689 0.111226 0.008478 -0.327297 0.367940 -0.007350 0.546106 0.863024 -0.866106 -0.552443 0.173890 -0.787507 0.644643 -0.046872 -0.505560 -0.116793
with -0.159800 -0.531930 0.088548 -0.494684 0.478619 0.379729 0.530686 0.269874 0.991001 0.110247 0.901129 0.218038 0.080868 0.810872 0.954783 0.798634 0.156064 0.823887 0.918043 -0.927400 -0.003029 -0.315664 0.651701 0.373643 -0.532556 0.664285 0.607626 -0.290160 0.236951 -0.175128 0.858585 -0.359445 0.743358 0.387569 -0.002231 -0.302293 0.310402 -0.233413 0.460449 -0.921137 0.690466 0.870724 0.590486 0.148019 -0.535403 -0.573287 0.921521 0.935527 0.864406 0.636499 0.993474 -0.364629 0.019329 0.577408 -0.891701 -0.886870 0.947986 -0.834108 -0.693655 -0.600160 -0.193802 0.065970 -0.357973 0.736034
is -0.297364 0.183961 0.403267 -0.518675 0.410130 0.162834 -0.190106 0.181216 -0.721643 0.817062 -0.701049 0.121430 0.705996 0.816061 -0.234595 0.182003 0.265238 -0.779673 0.639716 -0.157529 0.556627 -0.501579 0.759879 -0.146350 0.117523 -0.964776 -0.531763 -0.351711 -0.906684 0.687276 -0.095490 -0.117731 0.417785 -0.019293 -0.692132 0.481825 0.234258 -0.996258 -0.609790 -0.922982 0.911868 -0.036067 -0.686495 -0.229880 -0.097809 0.548541 -0.932048 -0.020439 -0.897200 0.808300 -0.951959 0.930970 0.701408 -0.317739 -0.511638 -0.384160 -0.432675 -0.877725 0.598745 0.471082 0.733680 -0.347674 0.815246 -0.256144
as -0.910275 -0.131199 -0.812241 -0.604340 0.906094 0.881325 -0.026975 0.610211 -0.865417 -0.819941 -0.531533 -0.011040 -0.925647 0.811481 0.895160 0.784741 -0.673934 -0.333589 -0.535888 -0.243546 0.637499 0.990434 -0.770131 -0.387307 -0.038743 -0.481140 -0.838778 0.873099 -0.694239 0.374085 -0.711585 -0.326320 -0.942409 -0.471359 -0.254282 0.403797 0.246721 0.544018 0.351338 -0.985468 0.857635 -0.037031 -0.167308 -0.546623 -0.786286 0.223626 0.366814 -0.992667 -0.350528 0.880317 0.111485 -0.570862 -0.110507 -0.787266 0.430922 -0.865223 0.642889 0.759762 0.944219 -0.753807 -0.666560 0.873457 -0.395930 0.828161
not -0.730464 -0.103698 0.833396 -0.706394 0.116902 0.222632 -0.240827 -0.849257 0.615146 0.342700 -0.299189 0.615121 0.762947 -0.265713 -0.564392 0.554646 -0.698557 0.794500 0.977304 0.355446 0.108045 -0.100187 0.248996 -0.573513 -0.447322 0.414179 0.340351 -0.907034 -0.046563 0.453548 -0.866563 0.138658 -0.477521 0.817974 -0.604775 -0.201692 -0.029722 -0.612285 0.928531 0.694273 0.878172 -0.732378 -0.359311 0.907968 0.469469 -0.496906 -0.463071 -0.064612 0.716670 -0.219662 0.193086 -0.824984 0.929323 0.289595 -0.031844 -0.984441 0.792015 0.015888 -0.870739 -0.378326 -0.084622 -0.410540 -0.152946 0.090523
for -0.508822 0.677531 -0.464847 0.144110 -0.627018 -0.288482 0.713947 0.111821 0.885500 -0.714060 -0.104572 0.716198 -0.788205 0.685878 -0.750502 -0.747406 0.316949 -0.541719 -0.857625 0.969380 -0.423577 -0.328918 0.008697 -0.993000 -0.742782 -0.919640 -0.006240 -0.251900 0.491571 0.969843 -0.494390 -0.830642 0.664849 -0.803513 -0.745144 -0.481561 -0.268164 -0.439015 -0.378651 -0.111496 0.813445 0.214019 0.656838 0.468497 0.667760 -0.418056 -0.899723 0.190493 0.571540 -0.843197 0.098387 -0.064879 -0.328788 -0.728167 0.764761 -0.709542 -0.693364 0.991471 0.764744 0.554030 -0.740102 0.108465 -0.749117 0.660669
had 0.046292 -0.546014 -0.687570 0.716369 0.853664 0.271954 -0.980388 0.039463 0.350002 0.053532 0.492771 -0.311368 0.714581 -0.254136 0.887403 0.145537 0.853954 0.901024 -0.037902 0.667464 -0.955565 0.805989 -0.471550 -0.048679 -0.431105 0.770121 -0.111428 -0.995514 -0.977399 -0.222479 0.160384 -0.542056 0.349170 0.880588 -0.142063 -0.128161 -0.493432 0.586681 0.067041 -0.343725 -0.825940 0.808321 -0.025815 0.754177 -0.096704 0.445909 -0.734458 -0.290238 -0.511277 0.253533 -0.319068 -0.121054 0.702639 -0.689253 -0.930462 -0.905014 -0.148343 0.413390 -0.305423 -0.400183 0.491678 -0.782493 0.593844 -0.852607
but -0.582707 -0.055908 0.154401 -0.298608 0.783636 0.678333 0.106052 -0.688159 0.838370 0.732790 0.605648 -0.179609 -0.566752 0.006612 -0.754851 0.477161 0.418307 -0.984867 -0.348542 -0.221926 0.372804 -0.085172 -0.227493 -0.969324 -0.161801 0.344300 0.985932 0.694842 -0.601749 -0.661824 -0.374903 -0.105509 0.252898 0.521391 -0.312616 0.372342 -0.448131 -0.274916 -0.091027 -0.695607 -0.597297 -0.040414 0.982692 0.273101 -0.293868 0.422914 0.657292 -0.618313 0.477832 -0.501174 -0.804176 0.605648 -0.344364 0.050622 -0.137631 0.071567 0.937631 0.238681 -0.853029 0.482636 -0.584821 0.067985 -0.099427 0.700816
at 0.940889 -0.882028 -0.402372 -0.689605 0.212518 -0.061472 0.615501 0.080772 -0.220992 0.977859 0.606752 0.724214 -0.772777 0.926242 -0.951314 -0.157948 0.989477 0.520264 -0.584941 -0.002532 0.768266 0.623151 0.138967 0.855726 -0.055604 -0.414109 0.618937 -0.624755 0.782739 -0.781054 -0.731161 -0.629494 0.817719 0.478096 0.279748 0.375166 0.098953 0.286258 -0.914198 -0.522277 -0.000487 0.736161 -0.405851 0.677455 -0.510388 0.260508 -0.882538 -0.777219 0.764383 -0.941933 0.964323 0.282452 -0.237328 -0.842568 -0.033714 -0.549231 0.701005 -0.158273 -0.671210 0.743384 -0.356416 0.880218 -0.914971 -0.461590
be -0.202592 0.193783 -0.806801 0.063380 -0.968091 0.359080 0.211344 -0.691437 -0.943201 -0.659191 -0.133983 -0.729915 -0.566703 0.761582 0.356148 0.920928 0.195159 0.428391 0.865179 0.209866 0.125930 0.476084 0.885860 0.065659 -0.637934 0.356866 0.420242 0.221399 0.121044 0.055217 -0.594000 -0.408664 -0.957914 -0.511865 -0.468631 -0.298484 -0.249479 0.268857 0.911580 0.755629 0.407711 -0.711198 0.423900 -0.789212 0.911108 -0.199593 -0.975564 0.809612 -0.994841 -0.703813 -0.247813 0.420161 0.576571 0.542023 -0.664390 0.385504 -0.642523 -0.497805 -0.122480 -0.623782 -0.829147 0.357406 0.155261 -0.608174
on 0.089967 -0.818563 -0.285703 -0.363613 -0.788524 0.023107 0.079984 0.968576 0.481008 0.921680 -0.326018 -0.765193 0.121521 0.319959 0.655423 -0.809068 0.092290 -0.319351 0.246626 0.308559 0.462494 0.234848 -0.925505 -0.465212 -0.221004 0.029579 0.149457 0.453709 0.464847 0.920716 -0.039923 0.790945 -0.382168 -0.829559 0.676039 0.423790 -0.345172 -0.307532 -0.935384 0.216112 -0.836198 -0.123248 0.639758 0.389243 -0.965788 -0.608552 0.277975 0.138378 -0.306225 0.953275 0.812542 -0.299572 0.576733 0.676669 -0.173273 -0.937942 -0.173254 0.589417 -0.556830 -0.462332 0.514172 0.161711 0.344040 -0.190240
her -0.416591 -0.018545 -0.105827 0.927178 -0.696641 0.403374 0.866650 -0.123579 0.228889 -0.150420 -0.584980 -0.030873 0.894754 -0.972520 -0.660804 -0.066308 0.312745 -0.163656 -0.710366 0.259466 -0.028181 -0.579636 -0.613275 0.331666 -0.365958 -0.067855 -0.851693 0.141854 0.006942 0.431630 -0.161731 -0.227079 0.083101 -0.407569 0.936167 -0.424094 0.930185 0.013566 0.200377 0.718987 0.445841 0.514967 0.060751 -0.300153 0.957812 -0.677381 -0.666388 -0.955420 0.447546 0.717913 0.716276 0.817173 -0.755847 -0.934157 -0.270840 0.013093 -0.391919 -0.625232 -0.884589 0.406579 -0.921522 -0.308630 -0.558201 0.284858
my 0.996016 -0.746684 0.053629 -0.056824 -0.248362 0.639595 -0.182237 0.480087 0.765533 -0.458041 -0.211517 0.407360 -0.619521 -0.192124 0.619386 0.894991 0.906261 -0.219206 -0.883623 0.782618 0.683188 0.978494 -0.269032 0.795307 0.581586 0.356930 -0.461716 -0.588190 -0.163127 -0.454359 0.495888 -0.217941 0.373218 -0.220926 0.045991 -0.626324 -0.160763 -0.547592 0.568228 0.062366 -0.910170 0.964272 0.257517 0.523634 -0.644442 -0.973135 -0.627619 0.685432 0.750722 0.474127 -0.280615 0.521508 0.258108 -0.875634 -0.714276 -0.038209 -0.655723 -0.965192 0.252971 0.021310 -0.517756 -0.160926 -0.545922 0.009704
him 0.423702 0.653534 0.603013 0.143704 0.770009 0.861310 -0.603669 -0.170434 -0.304736 -0.769762 0.320230 0.122735 0.654832 0.682726 -0.300280 -0.176502 0.450202 -0.678139 -0.540544 -0.337013 0.325000 0.638997 -0.688441 -0.128043 -0.019760 0.345937 -0.022636 0.346690 0.290293 -0.998942 -0.527319 0.661873 0.493151 -0.348976 -0.152066 -0.680395 0.726719 0.663812 0.458213 -0.307612 0.410952 -0.586135 0.568474 0.275771 0.049933 0.174885 0.345192 -0.728860 0.697587 -0.019745 0.624175 -0.447369 -0.997634 -0.311973 -0.850713 -0.465217 -0.371007 0.124367 0.778855 -0.665527 0.950177 -0.795825 -0.131109 -0.800264
have -0.156115 0.017072 0.909774 0.829624 0.688264 0.510487 0.260760 -0.763849 0.898257 0.378045 0.904808 0.830789 0.767728 0.861334 -0.319991 0.949807 -0.932489 -0.151434 0.532115 0.031058 -0.427091 -0.017109 -0.881346 -0.930164 0.485843 0.617425 -0.708610 -0.623670 -0.283134 -0.911413 -0.230009 -0.795246 -0.307434 0.856955 0.896529 -0.779012 -0.338520 -0.866461 0.767874 0.143077 -0.712968 -0.883511 0.632015 0.868087 0.026771 -0.192523 -0.637962 -0.178685 -0.488174 -0.106012 0.053884 -0.463883 -0.535984 0.038853 -0.151521 -0.702932 -0.322296 0.247261 0.309188 0.509280 0.603469 -0.652254 0.640569 -0.680023
by 0.167701 0.373582 -0.516849 0.705829 0.407748 -0.776781 -0.716635 0.664760 -0.798602 -0.965637 -0.279197 0.189878 0.981635 0.189144 0.321252 -0.511806 -0.714844 0.784956 0.659569 0.151964 0.471882 0.240346 0.941906 -0.038065 -0.657770 -0.641833 -0.174220 0.775699 -0.059689 -0.155197 0.310358 0.731376 -0.520467 -0.201338 0.264606 0.971851 -0.239398 0.272954 0.261869 -0.816789 -0.470275 0.456543 0.587379 0.489136 0.183238 -0.062550 0.135888 -0.252472 0.332667 0.532335 -0.477943 -0.979576 0.834209 0.149459 0.730629 0.845914 0.349709 0.393382 0.194506 -0.296574 -0.238070 0.537346 -0.016949 0.323547
this -0.563262 0.013661 0.236862 -0.751097 -0.948272 -0.140470 0.482306 0.766682 -0.297787 0.429742 0.826936 -0.497620 -0.851938 -0.412859 -0.325826 -0.136441 0.270618 0.950924 -0.378424 -0.678178 -0.369994 -0.751398 -0.182056 0.811282 -0.375584 -0.807549 0.073863 0.871681 0.855346 0.529732 -0.871298 0.378250 0.149693 0.654347 0.703554 -0.671501 -0.743218 -0.879111 -0.854849 -0.998285 -0.262587 0.653757 -0.108502 0.220648 -0.595675 0.733344 -0.651580 -0.694578 0.254491 0.483394 0.176932 -0.945731 -0.557207 -0.744312 0.157413 0.254200 0.272925 -0.261082 0.465282 -0.809267 -0.354504 0.812337 0.861312 -0.860598
which 0.423989 0.513615 0.571586 -0.204440 -0.971663 -0.154675 0.633234 -0.034909 -0.291142 -0.241860 0.529037 0.388310 -0.971084 -0.722556 0.873325 -0.160280 -0.696791 0.721994 -0.274655 -0.418232 0.594720 0.706707 0.425649 0.540390 0.366750 0.318079 0.507655 0.668235 0.079692 0.592243 0.874840 -0.138508 -0.325806 0.024121 0.119458 0.586199 0.197976 -0.975240 0.467608 0.226471 0.297239 0.127496 -0.658871 -0.389338 -0.176727 0.671050 0.024716 0.799050 -0.053974 0.686915 -0.390914 -0.284596 -0.793960 -0.280457 -0.937697 0.847455 0.532651 0.801312 -0.686968 -0.937796 -0.395522 0.878111 0.622709 0.013596
me -0.023327 -0.387893 0.412703 0.470084 0.325198 -0.556404 0.588566 -0.494229 0.514322 -0.146866 0.659683 0.367574 0.050330 0.702213 -0.918346 -0.149498 -0.269944 0.048980 -0.669933 0.934402 -0.282036 0.795565 0.971635 0.774943 -0.636510 -0.972126 -0.363923 -0.955662 0.598346 -0.909509 -0.700326 -0.627689 -0.901569 -0.857204 -0.439881 -0.967308 0.175902 -0.015030 0.528861 0.684377 0.622628 0.329012 -0.877408 0.531096 0.090947 0.116454 -0.267062 -0.309138 -0.070858 -0.207905 -0.617917 -0.359764 -0.209131 -0.882952 0.359162 0.960240 0.445106 -0.119417 0.619088 0.430304 0.877147 0.798514 -0.564633 -0.607909
all -0.256419 -0.594605 -0.429755 0.698665 -0.268094 -0.393975 -0.082510 -0.044467 -0.282239 0.187542 -0.801840 -0.867423 0.396745 0.624573 0.564073 0.210482 0.398951 0.005237 -0.645105 -0.119196 0.929316 0.299646 -0.435582 0.093825 0.357534 0.047985 0.593479 -0.330551 0.772803 0.457499 0.175947 -0.748935 -0.642952 0.040073 -0.656088 0.031004 0.429218 0.528887 0.587074 -0.682473 0.035320 0.505580 0.890301 -0.734961 -0.137719 0.452174 0.862504 -0.089843 0.897312 -0.758926 0.441391 0.415650 -0.260337 -0.871099 -0.016682 -0.090255 -0.401340 -0.913393 -0.605348 -0.240094 0.205685 0.487468 -0.839807 0.538015
said -0.237148 0.121069 -0.817046 0.168277 -0.835957 -0.216353 0.984888 0.712133 0.446192 0.451951 0.441142 0.636242 0.423573 -0.911502 -0.143895 -0.652960 0.804668 -0.641731 -0.406846 0.309074 0.128031 0.544868 -0.785833 0.237342 0.147028 -0.796206 0.284824 -0.227844 0.010778 0.452084 -0.085513 0.914037 0.650442 0.893436 -0.848824 0.004409 0.808832 0.949568 0.701230 0.846162 0.641335 -0.218720 -0.631257 -0.362304 -0.732333 0.868728 0.772440 -0.904104 0.074125 -0.556760 -0.009093 0.635196 -0.342232 0.742192 -0.656157 -0.233123 -0.153600 -0.588392 0.794329 0.848236 0.641664 -0.359973 0.712561 0.660254
she 0.625804 -0.004140 0.944180 -0.458785 0.832930 0.830643 -0.488583 -0.375376 -0.146461 -0.153651 0.989870 -0.847805 -0.810398 0.267825 0.892014 -0.178476 -0.833644 -0.526109 0.790100 -0.229280 0.545436 -0.042353 -0.202660 0.243499 0.423088 -0.746204 -0.316962 -0.947783 -0.128977 0.584066 -0.515515 -0.380435 -0.183730 -0.503994 0.710061 -0.403486 0.039839 -0.657668 -0.277315 -0.357282 -0.088921 0.238755 -0.520254 0.776504 0.205214 -0.986931 0.583324 0.196852 -0.722396 -0.553507 0.646500 -0.205376 -0.404490 0.046232 0.057084 0.098129 0.778385 -0.562282 -0.108214 0.130285 -0.826492 0.124790 -0.344667 0.996175
from -0.286599 0.404852 -0.866342 -0.071116 0.463285 -0.822822 -0.010233 -0.121042 0.987267 0.709543 -0.930049 -0.711759 0.482167 -0.498579 0.568864 0.501274 0.532139 -0.519044 0.222599 -0.840809 -0.557802 0.087116 -0.273172 -0.471732 0.221082 -0.205460 -0.708659 -0.078644 -0.330129 0.905259 -0.181131 -0.435154 -0.871235 -0.323344 -0.119257 0.972215 -0.980151 -0.433064 -0.150910 0.572096 -0.711186 0.080260 0.184738 0.873183 0.263688 0.702525 0.677444 0.598785 -0.489607 -0.705212 0.872131 0.222238 0.086050 -0.064940 0.667755 0.906457 0.537113 -0.659646 -0.212721 -0.548078 0.357620 -0.425782 0.983020 0.187083
or 0.415416 -0.141684 0.970746 0.716019 0.470893 -0.775547 0.344253 0.148777 0.805173 -0.337046 -0.460009 -0.934538 -0.413660 -0.089523 0.951957 -0.119965 0.432632 -0.304002 0.101468 0.218792 0.171506 0.931278 0.902374 -0.770882 0.494118 -0.127938 -0.114834 0.490155 0.630533 0.652801 -0.983114 0.882971 -0.143869 0.754899 -0.293610 -0.927206 -0.313238 -0.501367 -0.829031 0.299657 -0.981461 0.581104 0.371278 0.781448 -0.994610 -0.893300 0.204999 -0.190229 -0.823387 0.398997 -0.142789 0.190492 -0.776110 -0.759420 0.753995 0.408790 0.481770 -0.816652 0.446229 0.716205 -0.518463 -0.129438 0.340047 0.105455
they -0.433698 0.662879 0.664031 -0.558013 0.592533 -0.959165 -0.535294 0.845305 -0.595649 0.366966 0.250638 -0.742690 0.543264 0.486342 0.064253 0.335233 0.567138 0.756385 -0.967630 0.274004 0.157401 0.953333 -0.750841 0.266843 -0.517850 -0.386178 0.222703 -0.687391 -0.145068 -0.418250 0.371398 -0.715448 0.120596 0.304708 -0.831422 -0.178782 0.493442 -0.184731 -0.688329 0.898618 0.809100 -0.622010 -0.915588 0.823718 -0.072374 0.280238 0.648466 0.562594 -0.412839 0.140360 0.648703 -0.492258 -0.217375 -0.198490 0.855744 -0.475783 -0.960330 -0.271835 0.141468 0.795181 -0.727645 0.185701 0.308198 -0.572917
so -0.444653 -0.521671 0.026148 0.830831 -0.661181 0.500234 -0.271211 -0.026106 -0.328068 0.818655 0.724066 0.716177 0.277149 -0.287477 -0.301314 -0.598233 0.592862 0.006159 0.962610 -0.120706 -0.313699 -0.781833 0.818100 0.579238 -0.776940 0.567027 -0.010116 0.436974 0.080149 -0.865520 -0.931276 0.185119 0.527992 0.933362 -0.533856 0.933270 -0.084092 -0.752173 0.321465 -0.629554 -0.294468 -0.005388 -0.384900 -0.348244 0.567227 0.599070 0.500638 0.116530 -0.664953 0.867545 -0.720792 0.749104 -0.998153 0.950817 -0.892654 0.410213 0.866934 -0.481139 0.692456 0.058836 0.773604 0.318764 -0.973540 0.302203
are 0.452307 0.177672 -0.100001 -0.695873 0.246980 -0.491661 -0.021931 -0.815042 0.940448 0.133691 -0.823632 0.976986 0.473233 -0.796961 -0.669953 0.932187 -0.528896 -0.410373 0.010059 -0.117462 0.152489 -0.644444 0.058376 0.159971 0.007254 -0.469354 -0.307363 -0.693224 -0.964785 -0.667441 0.966115 -0.907008 -0.969357 0.972051 -0.393368 -0.257198 0.780824 0.288415 -0.078947 -0.670431 -0.665991 0.380748 0.553675 0.835321 -0.467011 0.542800 0.907424 -0.367854 0.202105 -0.684241 -0.212551 0.910866 -0.390593 -0.751610 -0.893425 -0.143916 -0.548689 -0.809405 0.778367 -0.335784 0.053996 -0.168537 -0.213501 -0.630031
one -0.947566 0.587025 -0.082002 -0.662758 0.208401 0.266289 0.543937 -0.293843 0.055989 0.364498 -0.584907 0.254792 0.757180 -0.091823 -0.064804 0.112138 0.521844 -0.823835 -0.588969 0.565569 0.609897 0.780028 0.477447 -0.768413 -0.054903 0.862154 0.955674 0.068684 -0.681203 -0.014819 0.549407 0.023748 -0.887332 -0.569384 -0.378033 -0.551406 -0.098729 0.651439 -0.755212 -0.338414 0.266813 -0.596256 0.539845 0.599808 -0.537313 -0.572269 0.332694 0.218146 -0.781583 -0.170030 0.704881 -0.485247 -0.181378 0.926616 -0.388907 0.891763 -0.213952 -0.620177 0.209553 -0.571454 -0.558856 0.942699 0.334063 -0.976490
were -0.765834 -0.616980 0.091810 -0.140618 -0.499276 -0.917077 0.103214 -0.704165 0.227956 -0.062264 -0.357179 -0.208999 0.240511 -0.614534 -0.534998 0.335035 0.179824 -0.400371 0.792987 -0.434813 0.576877 -0.987970 0.659819 -0.651467 -0.073014 0.517887 0.529781 -0.954313 -0.912614 -0.521240 -0.638836 0.303106 -0.710261 0.553420 -0.838311 0.131167 -0.671014 -0.580891 0.015416 0.227320 -0.389938 0.647692 -0.925874 -0.702193 -0.122522 0.970973 0.065105 0.219788 0.055814 -0.603339 -0.161755 0.207154 0.616695 0.611871 0.170128 0.807426 0.358250 -0.703645 -0.613191 -0.645132 0.764146 -0.021471 -0.959307 -0.224889
what 0.926058 0.193070 -0.310790 0.400066 0.936123 -0.019231 0.010447 0.677140 0.668788 0.944636 -0.988699 -0.302839 0.189398 -0.745433 -0.614173 0.417984 -0.863494 0.846354 0.357878 0.677922 0.556156 0.075854 0.223934 0.306440 -0.432275 -0.663611 -0.204774 -0.397240 0.527789 0.737075 -0.360362 0.270757 0.653083 0.435240 0.771776 0.424335 0.602662 0.164522 0.850149 -0.093531 0.277215 0.149617 -0.220137 0.919838 -0.944249 -0.560969 0.984133 0.187029 0.900184 -0.817113 0.866726 0.348463 -0.029857 -0.864175 -0.544862 0.801821 -0.070329 0.029130 0.631456 0.453358 0.827218 0.573554 -0.367760 -0.678825
when -0.779628 -0.504725 -0.113533 0.763748 0.399872 -0.603401 0.431051 -0.909936 0.967526 0.695604 0.954126 -0.598881 0.248436 -0.549398 0.294268 0.804837 0.551893 0.263345 -0.307525 0.180696 -0.213585 0.419050 0.882953 -0.581328 0.107475 0.028940 0.403449 0.219596 -0.676488 -0.201360 -0.146582 0.327023 0.462348 -0.395826 -0.190829 0.029729 -0.856226 0.512112 -0.192370 0.132943 -0.232854 0.718941 -0.818465 -0.164255 -0.675442 -0.105679 0.965296 0.240509 0.230026 0.531373 0.659200 -0.497257 -0.485138 0.845278 0.521171 0.473473 -0.349441 -0.367208 0.303808 -0.345982 -0.730781 -0.060219 -0.220137 -0.946024
no 0.216056 -0.211549 0.469158 -0.810015 -0.245814 0.195149 -0.522983 0.943818 0.812485 0.230415 0.240684 -0.819877 0.677916 0.029612 0.965784 -0.454746 -0.508642 -0.503477 -0.587130 0.249984 0.833444 -0.583241 0.805183 0.563476 0.711464 0.549008 -0.848105 -0.303681 0.754638 0.284080 0.373956 -0.604091 -0.556008 0.940931 0.262295 -0.219325 0.820529 0.157862 0.901024 0.504886 -0.453130 -0.109214 0.172452 0.592933 0.002358 -0.515875 0.084246 -0.790839 0.136574 0.237861 0.614935 -0.315783 0.853511 -0.055998 0.098084 -0.964408 -0.526195 0.522688 0.791447 -0.778118 -0.118069 -0.765261 0.451701 -0.720147
if -0.525076 0.293979 -0.498272 0.140533 -0.020681 0.830466 0.354162 -0.715648 0.943527 0.427217 0.623849 -0.935330 -0.531527 -0.684030 -0.636901 -0.860747 0.983908 -0.179385 0.424766 0.488267 -0.299844 0.961407 -0.846972 0.971647 -0.469981 0.922610 -0.323701 0.330962 0.382667 -0.117434 -0.285605 -0.050855 -0.436679 0.418290 -0.350887 0.888342 0.214505 -0.491616 -0.588803 -0.013310 0.424637 -0.147927 -0.958138 -0.708282 0.840273 -0.714043 -0.153512 0.714719 -0.169785 -0.758795 -0.197939 -0.499340 0.018034 0.135637 0.832138 -0.843572 -0.830198 0.862575 0.791822 0.346569 0.707841 -0.378888 0.245713 -0.082355
there -0.246034 -0.599579 0.943541 -0.089309 -0.565576 0.896515 -0.791113 -0.990802 0.549105 -0.791964 0.317320 -0.199927 -0.410122 0.371951 -0.076246 -0.829142 -0.950303 -0.001005 -0.277936 0.750001 -0.405710 0.427491 0.611187 0.950010 0.025881 -0.451404 -0.712570 0.020433 -0.256970 -0.196897 0.953969 -0.589875 0.613890 0.779622 0.474230 0.392163 -0.005955 0.278418 0.768457 0.794917 -0.087359 0.984018 -0.280373 0.683252 -0.292958 0.249101 0.112900 -0.169817 -0.630616 -0.166579 -0.435407 -0.791222 -0.204094 0.189515 -0.060184 -0.458876 -0.070526 0.322136 -0.197687 0.742412 0.565232 0.730599 -0.736434 -0.290178
who -0.165817 -0.049713 -0.151996 -0.964521 0.243009 0.763171 0.788709 -0.636509 0.467726 0.686894 0.013280 -0.767600 -0.172929 -0.290073 -0.668282 0.994048 -0.157773 0.008588 -0.297574 0.993493 -0.363586 0.198255 -0.785451 -0.932623 -0.265339 -0.223752 0.631182 0.046498 -0.828153 -0.117974 -0.369716 0.824857 0.489575 0.355363 0.424427 -0.145138 0.122264 -0.133099 -0.092268 -0.494499 -0.875886 0.948423 -0.919829 0.374362 0.995155 -0.132194 0.252455 0.533571 0.018643 0.135165 0.735008 -0.106894 -0.123221 0.542144 0.734057 0.028821 0.284767 -0.093826 0.626736 0.471936 -0.483531 -0.268720 0.391224 -0.828125
we 0.887876 0.468346 -0.854284 -0.765035 -0.245310 0.471660 -0.335035 0.928842 0.290949 -0.204974 -0.095974 0.950730 -0.750057 -0.276345 -0.681478 0.933418 0.036864 0.623214 -0.346560 0.349742 0.213103 0.552862 -0.314487 0.750131 -0.879220 0.945722 -0.626694 -0.760066 -0.314908 -0.412748 0.439576 -0.434117 0.151753 -0.510805 0.910411 0.331638 0.544699 -0.183846 -0.376949 -0.150967 -0.889305 0.076196 0.730943 0.207986 0.148572 -0.899306 -0.883870 -0.538136 -0.356158 -0.581644 0.099338 0.752997 0.069565 -0.012893 -0.617636 0.268165 -0.459715 0.252406 -0.004399 0.094554 0.753340 -0.877685 -0.325046 -0.445213
will -0.553242 0.848980 -0.443251 0.881795 -0.440341 0.462140 -0.592629 -0.719398 -0.031493 -0.726960 0.279227 0.311303 -0.692666 0.241518 0.135913 0.662091 0.517102 0.550352 0.756060 -0.026078 0.614826 0.648354 0.490279 0.467333 -0.093348 0.557140 0.003339 -0.044620 -0.291354 -0.910319 -0.911134 0.034725 0.627722 -0.769519 -0.671994 -0.925792 0.133140 -0.198878 -0.405725 0.737381 -0.740650 -0.023601 -0.859024 -0.863426 0.202603 0.235278 -0.720179 -0.661967 -0.113020 -0.170968 -0.076669 -0.444432 -0.612159 -0.187547 0.106488 -0.689859 -0.215239 0.202557 0.233576 -0.306170 0.734948 -0.043564 -0.144815 -0.714432
an 0.117430 -0.951097 -0.555175 -0.523932 0.050675 -0.194616 -0.587169 0.080577 0.345202 0.639867 0.271626 -0.398426 0.849435 -0.369384 -0.834687 0.474654 -0.332020 0.201352 -0.804397 -0.131939 -0.877986 0.018072 0.917933 -0.155165 -0.694492 -0.296184 -0.863451 0.685920 -0.066495 0.409545 -0.935764 0.398559 0.669217 0.661350 0.850475 0.011444 0.942221 0.061493 -0.157397 -0.533240 -0.719708 0.943050 0.402001 -0.493617 -0.493215 0.148380 0.019946 0.480537 -0.352292 0.057858 0.470378 -0.771151 -0.891898 -0.328094 0.869179 -0.173715 -0.912840 -0.712020 -0.179664 -0.327898 0.085804 -0.788724 -0.951132 0.532259
then -0.336513 0.603170 0.087494 0.310056 0.259950 -0.880582 -0.158903 0.228179 -0.525886 0.070739 0.421348 0.197436 0.556038 0.307080 0.153840 0.817827 0.302728 0.690343 -0.224274 0.455104 0.422988 0.650115 -0.191497 0.687177 0.667264 0.412260 -0.490041 0.692394 -0.386014 -0.674178 0.793724 -0.801389 -0.540942 0.296614 0.582357 0.688467 -0.656259 0.637664 0.596396 0.154903 0.897908 -0.791979 -0.802166 -0.306111 0.749625 -0.682313 -0.122957 0.355427 -0.576927 -0.884128 0.162862 0.093614 -0.948091 -0.281111 -0.955274 0.350832 0.839436 -0.783329 -0.002338 0.432731 -0.791634 0.145675 -0.689419 0.709974
their -0.279643 0.622795 -0.519678 -0.714394 -0.819614 -0.144318 -0.792475 -0.836370 -0.026090 -0.172236 -0.287753 -0.061967 -0.517467 0.523978 -0.980863 -0.672383 -0.080032 0.868206 0.518954 -0.952708 0.320786 -0.115838 -0.785046 -0.747551 0.159486 -0.939657 0.227233 0.571697 -0.400046 -0.730823 0.927947 0.591041 0.017234 -0.497339 -0.739961 0.007998 -0.333505 -0.632312 -0.988656 -0.377443 0.642783 -0.582802 -0.769682 0.358107 0.169904 -0.190328 -0.316452 -0.056179 0.288375 0.699454 0.098271 0.292830 -0.701064 -0.248782 -0.878629 -0.765156 -0.031959 0.757450 -0.476899 0.443688 -0.000953 -0.767469 0.192510 -0.149223
would 0.535578 0.194286 -0.840757 0.682493 -0.004397 0.560477 -0.562356 0.718324 0.112098 0.872103 -0.741997 -0.565235 0.246409 -0.896399 -0.191631 0.072743 0.781188 0.984223 0.966621 0.208976 -0.451939 -0.232334 0.122982 -0.876176 -0.608109 -0.508716 0.609172 0.725260 -0.358506 -0.761046 -0.967298 -0.707585 0.603190 0.857525 -0.800023 -0.815904 -0.463749 -0.135889 -0.109921 -0.171833 0.068027 -0.551575 0.401947 0.117080 0.851851 0.324635 0.117208 0.476465 -0.806454 -0.162850 -0.637642 -0.409518 -0.411874 0.515509 0.091925 0.219257 0.710446 -0.544375 0.736579 -0.218449 0.766163 0.266442 0.164835 0.232042
them -0.782984 0.866603 0.618483 0.584002 0.020191 0.372021 -0.006006 -0.854854 0.696115 -0.849943 -0.205050 0.813632 0.824968 0.892370 0.693940 -0.373277 -0.502881 0.827477 0.913012 -0.184206 -0.519994 0.966344 -0.010090 0.997105 -0.958329 0.344466 0.986197 0.877049 0.300709 -0.459338 0.071338 0.774714 0.503504 -0.399853 0.078868 0.792901 -0.949418 -0.348184 -0.052134 -0.906110 0.549710 0.369547 -0.923629 -0.011441 -0.811067 -0.508529 -0.130512 0.233438 0.840678 -0.829041 0.740183 -0.573398 0.802876 -0.372883 -0.717893 0.944498 -0.060812 0.766853 0.139466 -0.239891 0.452771 -0.703466 0.003713 -0.281627
been 0.530261 0.222511 0.257750 0.026263 -0.276145 0.904578 0.050661 0.305234 0.105195 -0.579393 0.039144 -0.150994 -0.128255 0.886716 0.268234 0.920089 0.639264 0.996166 0.872909 -0.882162 -0.849736 0.008845 -0.414921 0.469691 0.087992 0.142383 -0.492404 -0.195374 -0.770883 0.013549 0.196360 0.345077 -0.924988 -0.694095 0.059096 0.851354 -0.087653 -0.593987 0.202313 -0.839206 -0.061178 -0.529318 -0.609723 -0.539394 -0.031972 0.497889 -0.956946 -0.180730 0.497734 0.269630 -0.155481 -0.402317 -0.654753 0.773974 0.448897 0.618602 0.239452 0.308628 -0.969977 -0.389986 -0.840083 0.135482 -0.419246 0.176176
do 0.726455 -0.635993 -0.861195 -0.433916 0.291318 -0.357011 -0.733120 -0.461517 0.707208 0.047928 -0.618693 0.578080 -0.942778 0.488986 0.374575 -0.876369 -0.179174 -0.322816 0.973682 0.874152 -0.667246 0.525266 0.528887 -0.230968 -0.462414 -0.513205 -0.357613 0.606694 -0.798012 -0.026783 -0.796977 0.318151 -0.043122 0.748077 -0.648686 0.170988 -0.753022 -0.906808 0.952981 -0.586503 -0.521392 -0.246430 0.251737 0.337445 -0.092397 0.521260 0.476869 -0.520214 0.690385 -0.501767 -0.094024 0.205342 0.800524 0.120463 0.442009 -0.864098 0.873868 -0.773382 0.861306 0.731714 -0.925371 -0.140638 0.581348 -0.216216
your 0.401750 0.114715 0.103438 0.687248 0.265703 -0.077891 0.566652 -0.313074 -0.940080 0.743717 -0.239495 -0.847876 -0.691383 0.722123 -0.264907 -0.579779 -0.994874 -0.552796 0.525477 -0.848206 -0.379465 0.371704 0.082307 -0.329367 0.240896 0.393264 0.586520 0.702796 0.199218 -0.832322 0.015859 -0.936838 -0.346843 0.719337 -0.975455 0.897233 -0.137102 0.296500 0.813681 -0.771389 -0.062781 -0.997934 -0.377449 -0.319451 0.020483 0.104633 0.460526 -0.361160 0.254086 0.772925 0.432151 0.403500 0.480795 0.374647 -0.306579 0.599989 -0.467375 -0.895277 -0.596023 0.126031 -0.406828 0.511482 0.650920 0.265386
now -0.804551 0.390998 0.244708 -0.093088 -0.119932 0.784657 -0.151945 -0.247856 0.946071 0.736310 0.328659 -0.679530 -0.534669 -0.780262 -0.953053 -0.651743 0.383406 -0.605052 0.361889 0.619252 0.957629 -0.936055 -0.152096 0.767349 -0.594617 -0.314960 0.080083 0.642088 0.627638 0.876944 0.668090 -0.089084 -0.377295 0.048042 0.732061 -0.974780 0.553331 -0.372370 0.999138 -0.668598 0.550371 0.202782 -0.150096 -0.666852 0.714615 -0.416412 -0.866422 0.029418 -0.682311 -0.710430 -0.083816 -0.950948 0.076529 0.500884 -0.182484 -0.389778 -0.524830 0.624764 0.391050 0.184428 -0.006466 -0.764491 0.067018 -0.932716
out -0.245803 -0.875332 -0.482294 -0.243328 -0.902047 -0.673413 -0.531343 0.706131 0.687265 -0.823315 -0.615493 -0.727413 0.796736 -0.114386 -0.945892 0.971598 -0.740339 0.298793 -0.742790 0.104762 0.359330 0.372750 0.357230 0.030229 0.547317 0.343306 -0.199374 0.218701 -0.362432 0.278807 -0.737100 -0.288926 0.721696 -0.437431 -0.038810 -0.019775 -0.589055 -0.743218 0.446889 0.392596 0.508031 -0.747248 0.741675 -0.201155 -0.414721 0.689238 -0.183357 0.395497 -0.338505 0.476626 0.008132 0.467336 0.927080 -0.680282 -0.518197 0.393605 0.591318 -0.198645 0.365797 0.785880 -0.683167 -0.074574 0.394387 -0.590388
more -0.027256 0.294468 -0.102250 0.435905 0.566011 -0.314305 0.247369 0.493972 0.959753 -0.406456 0.554252 -0.847433 -0.282243 0.752471 -0.236230 -0.664732 -0.498306 0.037903 0.272608 0.889916 -0.978568 -0.813655 -0.130596 0.461797 -0.504569 0.807107 0.856686 0.876084 -0.928223 0.310369 0.082224 0.580357 0.784954 -0.010168 0.119394 -0.070624 -0.477901 0.691220 -0.493565 0.029481 -0.388098 -0.088115 0.408169 -0.393505 -0.910460 0.645610 -0.117828 0.189853 -0.755717 0.860017 0.517129 0.520499 0.278642 0.892732 -0.634670 -0.725203 0.106455 -0.957299 0.910954 0.082279 0.842356 0.769916 -0.970620 0.188740
up -0.332732 -0.477334 0.463595 -0.924151 -0.551706 0.061729 0.267873 0.653512 0.649419 -0.568784 -0.248039 -0.174003 -0.577743 0.846227 -0.645828 -0.079830 -0.081527 -0.774217 -0.631879 0.616875 -0.644776 0.058564 0.819370 -0.032051 0.466305 0.670908 -0.981210 0.520017 -0.454854 0.478625 -0.420679 0.888497 -0.241844 0.953867 -0.046978 -0.632475 -0.469482 0.172974 0.059819 -0.971413 -0.130583 0.587145 -0.195577 -0.931566 -0.794778 -0.504337 -0.913540 -0.279986 -0.488791 0.939528 0.948741 -0.311022 0.812836 0.303463 -0.288037 -0.434538 0.144488 0.928828 -0.464810 -0.042652 0.417158 -0.998271 0.547185 0.144367
man 0.135182 -0.619279 0.849822 0.901674 0.614808 0.338460 0.550671 0.590362 -0.345745 -0.986393 -0.124874 -0.015285 -0.586326 -0.180460 -0.964543 -0.358075 0.694251 -0.104738 -0.540271 0.934678 0.824851 -0.059261 -0.866323 0.478200 0.029980 0.054315 -0.834225 -0.351112 -0.550110 0.899469 -0.968830 0.267699 -0.688591 0.558473 0.421636 -0.522201 -0.567842 0.741905 0.347521 -0.097337 0.771234 -0.352138 -0.298613 -0.086352 -0.979732 0.469590 0.093586 0.263980 0.889175 -0.839340 0.048780 0.526486 -0.576855 0.731861 -0.592151 -0.735220 0.274762 0.445081 0.087896 0.087426 -0.749342 -0.319696 0.679053 0.897306
into 0.934283 0.929664 0.650972 0.877553 0.844158 0.960702 -0.742028 0.078229 0.249807 0.707958 0.837370 -0.171005 -0.661783 0.980803 -0.863532 0.246767 -0.957728 -0.231277 0.859947 -0.433898 -0.396920 -0.343131 0.727569 -0.584710 -0.678363 -0.984153 -0.926490 0.042865 -0.545914 -0.145117 0.945173 0.352188 -0.040057 -0.038596 0.477916 0.231277 0.660579 0.127775 -0.147428 -0.044514 0.075366 0.614663 0.048189 0.938244 0.947802 -0.885172 -0.953252 -0.645896 -0.647171 -0.998830 -0.357394 0.485442 -0.126219 -0.928815 -0.321937 -0.647144 0.067993 0.690450 0.435796 0.599932 0.936036 -0.725785 -0.957396 0.337971
some 0.093152 -0.722725 0.232214 -0.929343 0.559625 -0.326488 -0.899431 0.226547 -0.891221 0.160020 -0.733624 -0.652660 0.099586 -0.739291 0.925660 -0.791435 0.672960 -0.935550 0.546102 -0.382943 -0.556104 -0.744337 -0.853212 0.827085 0.354453 0.133283 -0.165978 -0.139367 0.796758 -0.580148 0.697240 -0.731834 0.467412 0.345455 0.079450 0.274161 0.423882 -0.019521 0.105191 0.048076 -0.836984 0.839755 0.274164 0.773736 -0.327492 -0.733958 -0.046159 -0.257605 -0.243461 -0.435798 0.095783 -0.586167 -0.470619 0.678093 0.415898 0.182369 0.144970 -0.985804 0.402106 0.654012 -0.399076 -0.842293 0.543749 0.558661
could -0.398150 -0.881451 0.480419 -0.921956 -0.270834 -0.350223 -0.060955 0.550786 -0.815126 -0.396162 0.008335 -0.657124 -0.687279 0.659696 0.190983 -0.622644 0.035131 -0.349446 -0.251843 -0.037864 0.062300 0.136854 0.809395 -0.428142 0.616700 0.355602 -0.875848 -0.763839 -0.382276 -0.145038 0.780182 0.097469 -0.564538 -0.066284 -0.654680 -0.706038 0.656657 -0.563871 0.224244 -0.745940 -0.773604 -0.389310 0.345457 0.513217 -0.853470 -0.049717 -0.137408 -0.847178 -0.772907 0.665521 -0.674878 -0.895503 -0.605110 -0.156121 0.250271 -0.749549 0.892625 0.046612 -0.877430 -0.701174 -0.189950 -0.304424 0.126734 0.273747
has -0.905817 0.026700 0.039639 0.337447 0.118898 0.930957 0.674766 0.270205 0.781749 0.847678 0.410292 0.194599 -0.106202 -0.936930 0.955532 0.651225 0.739019 0.517969 -0.405273 -0.017869 0.071143 0.557337 -0.434143 -0.478101 0.870383 0.315774 0.980184 -0.506659 0.152223 0.919458 0.155789 -0.300714 0.796215 -0.503837 -0.044617 -0.495077 0.575121 -0.760924 0.179449 0.225880 -0.731978 -0.141317 0.228450 0.397170 0.260282 -0.181278 0.968102 0.623627 -0.833128 0.228546 -0.485652 0.459805 0.603006 -0.957710 -0.119733 0.742986 -0.802268 0.428461 -0.389903 -0.095246 0.672508 0.949583 -0.587841 -0.727912
only -0.515040 0.125975 -0.876039 -0.680787 0.968568 0.069270 0.474093 0.212533 0.396265 -0.332302 0.076908 -0.957820 0.286443 -0.140905 0.506374 -0.390183 -0.248981 -0.396621 -0.163047 0.054686 0.760293 0.811602 0.228771 -0.123447 0.884505 0.565427 0.191472 0.013066 0.391422 -0.596589 0.136827 -0.856671 -0.788896 -0.826475 -0.440427 -0.559255 0.201647 -0.458832 -0.097290 -0.228419 0.414274 0.578068 0.711848 0.033391 0.153498 0.582495 -0.474389 -0.153141 -0.222983 0.712590 0.863352 0.483397 0.510226 -0.550330 0.071133 0.689266 0.560479 -0.043424 -0.846015 0.963496 0.033112 -0.150395 0.524207 0.207963
any -0.958964 -0.339199 0.884938 0.687639 0.042280 -0.747468 0.754364 0.368063 -0.251520 0.070650 -0.657292 0.173010 -0.211947 0.528267 0.418604 0.605887 -0.254565 0.029732 -0.860062 0.096429 -0.995593 0.504480 0.834024 -0.702099 -0.778338 0.479837 0.024646 -0.997366 -0.022039 0.073076 -0.592715 0.637110 -0.819669 -0.063625 -0.755567 0.145069 0.602694 0.900141 0.478031 0.277939 -0.355964 -0.775719 0.480139 -0.103242 0.152895 -0.227221 0.367102 0.555904 -0.468232 0.575593 0.321857 -0.024549 0.320023 0.542502 -0.398198 0.449946 0.781261 0.050966 0.777620 0.597139 0.407533 0.732265 -0.117349 -0.531657
very 0.346606 -0.958925 -0.547101 0.081241 0.282424 0.646641 0.188479 0.575165 -0.680389 -0.946647 0.512225 -0.856710 0.369914 -0.011765 -0.003762 0.039314 -0.529933 0.113821 -0.393397 -0.149926 0.308326 0.760650 -0.757190 -0.734717 0.834500 0.066441 -0.887149 0.124372 -0.072318 0.684644 -0.747018 -0.903198 0.858625 -0.012243 0.734861 0.023413 -0.443887 -0.723707 -0.554613 -0.000865 -0.199370 0.689726 -0.023167 -0.924420 -0.234217 -0.349652 0.497092 -0.469198 -0.890300 0.113136 -0.042651 -0.411052 0.467326 -0.826288 0.573784 -0.314262 0.147917 0.404427 0.628581 -0.089373 0.098685 0.107011 -0.575449 -0.765296
like -0.016358 -0.541297 -0.545530 -0.898590 0.629798 -0.234567 0.154016 0.287798 0.853022 -0.213611 0.896271 -0.110038 -0.184842 -0.156220 0.437004 0.059896 -0.190080 0.041002 -0.617518 0.738661 -0.131345 0.586471 -0.752524 -0.034158 0.544166 0.912002 0.036388 -0.624319 -0.495416 -0.875840 0.899696 0.569252 -0.485584 -0.335393 0.382958 0.628662 0.270704 -0.074075 0.766266 -0.639188 -0.625423 0.988905 0.815349 0.187388 -0.382858 -0.966347 -0.356198 -0.091501 0.448189 -0.658140 0.059954 0.477866 0.159838 0.697736 -0.805586 0.812706 -0.669048 0.557494 0.239511 -0.226880 0.522381 -0.030015 0.726358 0.149317
did 0.427793 0.354377 0.517077 -0.925922 -0.714438 -0.292523 0.329134 0.503800 0.925646 -0.576762 -0.171731 0.359103 0.447759 0.089420 0.096312 -0.829001 -0.327225 -0.179750 0.653112 0.565420 0.739272 0.622779 0.133307 0.153379 -0.990587 0.391902 -0.899951 0.064643 0.482624 0.010050 -0.579840 -0.310296 -0.178225 0.336721 0.733996 -0.947366 -0.365992 0.857312 -0.565048 0.110042 -0.437357 0.256015 0.136558 0.535963 0.072747 -0.407725 -0.365413 0.249461 -0.421765 -0.318860 0.398447 0.064270 0.471789 -0.124326 0.289645 0.948847 0.066939 0.692986 0.091317 -0.805766 0.980575 -0.575848 0.567650 -0.342333
time -0.158735 -0.518334 -0.578807 0.293876 0.669968 -0.652302 0.534511 -0.264472 -0.657056 -0.644161 -0.965795 0.374388 -0.983278 0.007808 0.466497 0.098914 -0.948569 -0.385454 -0.825822 -0.797453 0.312326 -0.082243 -0.484350 -0.092900 -0.035553 0.052482 -0.990554 -0.508655 -0.098260 0.923294 0.964591 0.266849 -0.712930 0.457680 0.203109 0.182517 0.930670 0.072101 0.232369 -0.877317 0.153835 0.867460 0.004797 0.193089 -0.250308 -0.620375 0.112263 -0.624550 -0.917569 0.785028 -0.452768 -0.106962 -0.539248 -0.201661 0.968609 0.233693 -0.371615 -0.131603 -0.064677 0.714662 0.685802 -0.540065 0.232478 0.933510
its 0.500752 -0.150788 -0.707119 0.981874 0.822823 -0.808842 -0.476809 -0.486283 0.088327 0.940635 -0.587255 -0.403986 0.650640 0.138192 0.039139 0.083872 -0.393798 0.087798 -0.504081 0.378116 -0.382884 0.527491 -0.330505 -0.177964 -0.128656 0.260824 0.018873 0.147241 0.984124 0.233620 -0.707940 -0.336181 -0.402144 -0.770160 0.097023 0.720165 -0.330041 -0.888013 -0.689618 -0.627263 0.497349 -0.985615 0.949466 0.402735 0.098050 -0.691240 -0.046777 -0.628269 0.109475 -0.893264 -0.062847 0.715559 0.451425 -0.188228 0.348931 0.851420 -0.320245 -0.110934 -0.538566 0.005104 0.195680 -0.264340 0.058031 -0.173912
than -0.324812 -0.998683 0.040488 0.774479 0.713599 -0.317860 0.871492 -0.433247 -0.619192 -0.462636 -0.741143 0.976945 0.115558 0.770433 -0.421519 0.927217 0.168874 0.810143 -0.771822 0.846102 0.899918 -0.637692 -0.308071 -0.616235 -0.282188 -0.749123 -0.783060 0.807994 0.279736 0.628607 0.400441 0.574816 0.980743 0.762881 0.754339 -0.170118 0.228166 -0.312769 -0.617116 0.753764 -0.320911 -0.094875 0.404361 -0.699276 0.435990 -0.418248 -0.683083 0.444166 -0.585142 0.079236 0.735426 0.332362 0.978751 -0.863593 0.292683 -0.137651 -0.080337 0.621285 -0.184245 -0.273748 -0.453068 0.287189 0.304081 0.441271
other -0.990008 0.298178 -0.927186 0.797341 -0.701300 -0.191132 0.003600 -0.376609 0.487678 -0.566857 0.770342 -0.238134 0.277280 0.275061 -0.438446 -0.332621 0.942716 -0.453918 0.693211 0.678882 -0.306197 0.811261 -0.391590 -0.009723 -0.090449 0.670168 -0.436502 0.768943 0.274884 0.593255 -0.008692 -0.217297 0.111910 0.782718 -0.217151 0.706591 -0.520217 0.869019 -0.915909 0.706314 0.130787 -0.128296 -0.570402 0.065539 0.395260 0.454741 0.311310 -0.261229 -0.510051 -0.742792 0.506279 0.705585 -0.319951 0.427152 -0.821373 -0.161730 -0.959421 -0.981553 0.673983 -0.604941 0.288422 -0.674873 0.431493 0.893170
before -0.263730 0.534421 0.654504 -0.838805 0.836422 0.064923 -0.727408 -0.424114 0.844897 -0.982311 -0.130659 -0.465959 -0.509558 -0.085218 0.083449 -0.837183 -0.062837 0.835292 0.695133 -0.549369 0.049000 -0.648836 0.539652 -0.243246 -0.239124 -0.008349 -0.947998 -0.756911 0.202008 0.654054 -0.171049 0.986233 -0.967255 0.782934 0.631545 0.425704 0.021423 0.952626 0.066131 0.008783 -0.906520 0.783044 0.384298 0.515734 -0.307361 -0.288060 -0.984334 0.731016 0.167973 -0.783332 0.650945 0.555462 0.954573 0.604356 0.507399 0.342798 0.405343 -0.159115 0.820190 0.784157 -0.444420 -0.591553 -0.558593 0.703202
about -0.771858 -0.900283 0.301443 0.738412 0.801483 -0.846853 0.612111 -0.029750 0.488303 -0.770997 0.617913 -0.957242 -0.616469 0.809133 -0.575506 -0.721003 0.229542 0.687058 0.561753 0.685981 0.477734 0.582542 0.736062 -0.231627 0.426022 -0.453158 0.380576 -0.422656 -0.874613 -0.106889 -0.029512 0.178556 0.180928 -0.145705 0.620374 0.248186 0.372105 -0.692716 -0.942256 0.295811 -0.881818 0.657687 -0.578494 0.476565 0.292647 0.180539 0.160298 -0.007278 -0.264691 0.227455 -0.524785 -0.131817 0.123775 0.086973 0.597579 -0.948127 -0.287029 0.318594 -0.877566 -0.670198 -0.716117 0.150138 0.753758 -0.330443
see -0.635958 0.140922 0.219741 0.538402 -0.697791 0.115607 -0.474486 -0.364836 0.977473 0.552828 0.173710 0.747758 -0.200357 0.108981 -0.029461 -0.781403 0.847308 0.525995 0.418326 -0.112664 0.811587 0.938804 -0.440400 -0.589961 -0.229531 0.385826 0.203047 -0.592843 -0.130376 0.367291 0.202703 0.645846 0.057875 0.168130 -0.171894 -0.636619 -0.891688 0.499549 -0.169607 0.390864 0.762878 -0.114223 0.141292 -0.966243 0.414956 -0.372021 0.711635 -0.259963 0.456519 -0.552106 0.243167 -0.608285 -0.893508 -0.160145 0.357295 0.412934 -0.904192 0.350792 -0.716275 -0.039731 -0.827486 0.183097 -0.063031 0.504023
such -0.759349 -0.349546 0.843542 -0.622929 0.551694 -0.940266 0.570363 0.203316 0.362810 0.531941 0.273206 -0.589889 -0.783219 -0.845483 -0.687072 0.985755 -0.144820 0.671332 0.890851 -0.361226 0.033996 -0.672558 -0.985495 -0.856039 -0.257801 0.676116 -0.362794 -0.959533 0.723380 -0.963550 0.901220 0.648514 -0.042095 -0.985626 0.490901 0.862536 -0.379524 0.795442 -0.369716 0.277975 -0.816364 0.234179 -0.816533 0.543850 -0.638801 -0.848840 0.896097 0.205862 -0.048099 -0.211952 0.488419 -0.720284 0.463914 0.366943 0.573997 0.436478 0.744546 0.682724 -0.487467 0.587475 0.369718 -0.576669 -0.773349 0.843969
must -0.833112 -0.585330 -0.467750 -0.077331 -0.514761 0.942211 -0.795572 0.997697 0.523533 0.216964 0.359536 0.287424 0.698292 -0.407841 0.685734 0.927644 -0.353865 -0.314022 0.757527 0.477633 -0.946953 0.141298 0.720840 -0.178392 -0.509038 -0.846158 0.275768 -0.106174 -0.839734 -0.780989 0.340439 -0.325987 -0.836393 -0.791242 -0.865106 -0.942005 0.432860 0.255823 -0.601722 -0.145779 -0.943379 -0.980163 0.564733 -0.222684 0.390108 -0.877420 0.350404 0.206175 0.561330 -0.812448 0.562014 -0.169059 0.381676 -0.452500 0.489647 -0.042542 0.461256 0.900478 -0.733005 -0.079289 0.699168 -0.970983 0.673927 -0.812971
know -0.280622 -0.484413 0.210662 0.419480 0.828095 -0.948835 -0.915264 0.538241 -0.545441 -0.492791 0.382018 -0.565077 -0.535109 -0.491190 0.361100 0.768208 -0.108907 -0.584385 -0.637426 0.280259 0.386830 0.266696 0.244834 0.220723 -0.783756 0.306821 -0.895841 0.162404 -0.512739 0.640508 0.231942 -0.442328 -0.789806 0.160189 0.826818 0.978744 0.892001 0.129721 -0.858078 0.417441 0.517305 0.912023 -0.056106 0.046024 -0.668723 0.035315 0.230241 -0.516179 -0.489748 -0.095117 0.631490 0.055951 0.837086 -0.851674 -0.819327 0.756011 0.433217 0.993182 -0.104655 -0.255532 0.420838 -0.871085 0.344048 0.887263
should -0.182555 0.299918 -0.452825 -0.494419 -0.030354 0.520157 -0.052681 0.218342 -0.808079 -0.308166 0.618192 -0.591258 -0.526878 -0.959706 0.557812 -0.753178 0.803736 0.149042 -0.537468 -0.716867 -0.249287 -0.689301 0.380655 -0.018579 0.003652 0.196220 -0.538442 -0.316788 0.193216 0.923571 -0.125334 -0.690650 -0.664322 -0.170705 -0.613229 -0.092180 0.545905 -0.674805 -0.228910 -0.656569 0.871522 0.354012 -0.077378 0.837810 -0.588635 0.705507 -0.753284 0.411199 -0.708432 -0.464849 0.880036 0.259402 0.128025 -0.255601 0.139867 -0.707896 -0.869462 0.509691 0.047300 -0.796775 -0.828735 0.450461 0.621589 -0.411200
may 0.732296 0.041894 -0.479076 0.211470 -0.712160 0.714635 0.170257 0.167709 -0.293876 -0.114026 0.362758 0.769830 -0.236313 -0.837911 -0.241432 0.105688 0.828404 0.858792 -0.407931 0.923097 -0.342542 0.113165 -0.172876 0.471248 -0.994699 -0.466899 0.978925 0.524981 0.357058 0.884422 -0.177374 0.282525 0.149565 -0.974610 0.783430 0.963221 0.001796 0.873454 0.051151 -0.554732 -0.535986 0.982337 0.566970 -0.870232 0.667316 0.614689 0.335706 0.803527 0.566053 -0.910865 0.595834 0.096353 0.157600 0.785529 -0.245173 -0.285281 -0.833971 0.665790 0.387648 0.426060 0.870752 0.011764 -0.062570 0.321931
how 0.788306 -0.862275 -0.075976 0.581126 -0.878024 0.994327 0.049428 0.004971 -0.267036 -0.988565 0.276755 0.092594 -0.153662 0.928940 0.926433 0.574197 -0.974032 -0.674058 -0.806483 0.172350 0.117797 0.011470 0.146013 -0.621143 -0.995097 -0.100154 0.564237 0.324070 -0.235301 0.286575 0.193602 -0.927815 -0.196438 -0.108634 0.910044 -0.836256 0.514826 0.730657 -0.625305 -0.425315 0.644533 -0.235155 -0.727030 0.758046 0.701121 -0.138289 -0.940937 -0.754605 -0.428107 -0.321890 0.203086 -0.436390 0.766526 -0.514401 0.715202 0.824326 -0.425333 -0.127047 0.391129 -0.874454 0.728471 -0.545613 0.129906 0.369450
well -0.004335 0.111422 0.323797 -0.624006 -0.571022 -0.511684 -0.980712 0.956701 -0.467269 0.866756 0.295450 -0.252787 -0.630472 0.674192 -0.465285 -0.354263 0.411743 0.340181 0.159160 -0.198127 0.623253 0.369774 0.920089 -0.336089 0.688954 0.598206 0.419261 -0.394391 -0.579873 0.469083 0.313213 0.531819 -0.335472 0.061487 -0.338416 -0.698305 0.857871 0.677171 -0.542345 -0.601769 -0.340434 0.613980 0.789323 0.146967 0.585598 -0.434545 0.430682 0.669858 0.659367 0.963652 0.882150 0.587837 0.937810 -0.036908 0.442702 0.505957 -0.596852 0.958103 0.569175 0.874896 -0.260609 -0.228702 0.323664 -0.430265
our -0.737064 -0.246313 -0.654129 0.696817 -0.190020 -0.737115 0.691419 0.857968 0.005868 -0.271660 -0.179457 0.060803 0.344955 -0.189095 0.611844 -0.242199 -0.226528 0.844986 0.019938 -0.841724 -0.788522 -0.365137 -0.641899 -0.976207 -0.890141 -0.331147 0.166269 0.906341 -0.775534 -0.083285 -0.001920 0.815254 -0.342773 0.110821 -0.007601 -0.329794 0.343256 0.400868 -0.554462 -0.077083 0.679243 0.907454 -0.572109 -0.335656 0.232908 -0.101946 0.402977 -0.482147 0.366279 0.802052 0.267877 -0.466446 0.680171 0.377420 -0.847551 -0.230784 -0.210604 -0.262202 -0.210000 0.612298 -0.885432 -0.794360 0.756437 0.343912
can -0.808675 -0.627649 0.949694 -0.313477 -0.569859 0.094020 -0.942028 -0.099247 0.823437 -0.282690 0.878944 -0.755339 -0.353604 0.985380 -0.447467 0.227986 -0.500470 0.955244 0.749074 0.677243 0.795211 0.357009 -0.611373 -0.532754 -0.191830 0.377990 -0.239475 -0.102140 0.146414 -0.439077 0.499434 0.427463 -0.107238 0.189977 0.648865 -0.715178 -0.232860 -0.550738 0.643939 -0.792448 0.779847 0.326174 0.250895 0.360470 0.626420 0.693007 -0.399551 -0.761944 -0.051329 0.712522 -0.389333 0.097551 -0.494892 0.175285 0.052644 -0.233872 -0.745450 -0.546482 0.543385 0.228393 -0.591651 -0.787010 -0.331421 0.394533
little -0.935776 -0.251584 -0.431690 -0.673712 0.104352 0.375728 0.153918 0.653920 -0.631873 0.213831 -0.366223 0.584419 -0.037744 -0.100915 0.444480 0.436577 0.111100 -0.083425 -0.607136 -0.008568 -0.310878 0.970015 -0.867071 -0.706995 -0.816442 0.939658 0.627710 0.280869 0.243508 -0.789010 -0.596614 0.407687 0.086075 -0.862710 0.390260 -0.632845 -0.646784 -0.197177 0.980615 0.286348 -0.829314 0.932605 0.257539 -0.520520 0.433247 0.365247 -0.305401 0.369892 0.439630 0.624781 -0.149232 -0.829337 -0.636341 0.807210 -0.774717 -0.508807 0.435508 -0.768343 -0.782061 -0.546927 0.925573 -0.853038 0.225296 0.396928
am -0.952922 -0.402394 0.532697 -0.571268 0.676923 -0.740096 0.647308 0.925732 0.742105 0.970388 0.299785 0.568595 0.904414 0.951330 -0.131487 0.772918 0.432653 -0.309559 -0.216088 0.608297 0.437059 -0.955247 0.869192 -0.461805 -0.809720 -0.062491 -0.136109 0.948058 -0.085232 0.117710 0.572286 -0.972857 -0.777147 -0.082171 -0.827248 0.341281 -0.032553 -0.012376 -0.463772 -0.824774 -0.366570 -0.395370 -0.990256 0.886529 0.220498 0.461587 0.685510 -0.260663 0.075005 -0.412270 0.211748 0.013412 0.277932 0.289547 0.255485 -0.707425 0.968391 -0.226520 -0.612752 0.352659 -0.593366 -0.844321 0.071537 -0.551785
these 0.822467 0.921329 0.088725 0.224956 0.646005 -0.090728 0.678710 0.134306 -0.204103 -0.111759 -0.955841 0.020533 -0.230430 -0.572972 0.813191 0.392217 -0.002052 0.118917 0.863638 0.000484 0.802820 0.644890 0.627231 0.278382 0.367385 0.395446 -0.148753 0.076919 0.882067 0.909909 -0.153237 -0.627266 -0.715119 0.512332 0.217420 0.547987 -0.107297 0.612305 -0.631241 -0.360246 -0.360107 -0.569697 0.825034 -0.082639 0.311594 0.325082 -0.421193 -0.170605 -0.390421 0.304925 0.521318 0.769214 -0.761215 0.552298 -0.329224 -0.787684 0.957895 -0.098709 0.372397 0.908695 -0.430100 -0.674425 0.321023 0.536344
upon 0.867639 0.258134 0.983671 -0.550565 0.841359 -0.642954 -0.242026 -0.946672 0.206389 -0.170976 -0.944856 -0.011498 0.034224 0.973823 0.706682 0.527572 0.247974 -0.441668 -0.622261 -0.242155 -0.179059 0.135637 0.136852 -0.427786 0.876408 -0.975727 -0.807227 -0.304011 -0.270968 0.984939 -0.865749 0.452184 -0.862415 0.542612 -0.928052 0.317376 0.062495 -0.924412 -0.575428 -0.440456 -0.052402 -0.333135 0.378166 0.166933 -0.392107 -0.912178 0.135916 0.738185 0.939891 -0.884725 0.008941 -0.467236 -0.440908 -0.752279 -0.661846 0.316070 0.082867 -0.109018 -0.643973 -0.208136 0.575116 0.249883 -0.219731 0.372671
down 0.574568 -0.842872 0.416170 -0.846147 -0.032870 -0.649406 -0.383062 -0.010926 0.581189 0.613577 -0.130365 0.246399 0.057240 0.419092 -0.687854 0.191759 -0.415985 0.002672 -0.588325 -0.863842 0.031829 0.515181 -0.943519 0.541969 0.383379 0.329815 0.082925 -0.420493 0.732112 0.062670 -0.188148 -0.970276 -0.067353 -0.049981 0.352246 -0.739003 -0.107315 -0.221807 -0.270231 -0.374226 0.593655 0.743664 0.116159 -0.860950 -0.613567 -0.135423 0.963319 0.563275 -0.334289 0.802905 0.799778 0.285667 0.949732 0.329189 0.104876 0.849338 0.298817 0.382188 -0.881407 0.506065 0.833431 -0.090995 0.696762 0.436046
two 0.169525 0.261311 0.912891 0.631536 -0.542668 0.573612 0.634542 0.940751 -0.839335 0.253113 -0.330703 -0.377124 0.016116 0.432691 -0.888466 0.232418 0.738522 -0.950115 0.120670 -0.369640 0.371602 0.273641 -0.863924 -0.283401 0.689203 0.510870 -0.902513 -0.366121 -0.328224 0.592764 0.532278 -0.804339 -0.400595 0.088162 -0.502768 -0.814660 0.785361 0.255424 -0.719172 -0.532512 0.882332 0.025925 -0.753584 -0.376525 -0.109235 0.372909 0.993842 -0.007277 -0.825423 -0.086808 -0.956970 -0.141236 0.669819 0.485183 -0.868612 0.834770 0.415326 0.201939 0.534935 -0.095495 -0.494847 -0.118580 -0.404556 -0.336817
over -0.410331 0.261143 -0.095222 0.242669 -0.363851 0.024075 0.800126 -0.144838 0.253400 -0.764935 -0.702234 -0.108365 -0.838923 0.758378 0.752080 -0.498239 0.885244 0.888128 -0.160703 0.585076 0.671997 0.495055 0.153709 -0.831779 -0.902208 0.777808 0.327226 -0.933486 -0.013807 0.817051 0.874733 -0.273674 -0.940240 0.231852 -0.471907 -0.311261 -0.586652 -0.989612 -0.984979 0.924952 -0.529070 0.516520 -0.328989 0.167482 0.353668 -0.475763 -0.121437 -0.140902 0.042750 0.292317 0.158876 -0.805746 -0.714385 -0.177678 0.679704 -0.548550 -0.390530 0.530057 -0.886979 -0.486877 -0.165928 -0.704647 0.320913 -0.757826
us 0.323815 -0.949218 0.876530 -0.367895 0.495361 -0.802917 -0.226974 0.851440 -0.084699 0.902448 -0.096345 -0.207111 -0.706198 -0.945568 -0.235738 -0.384159 -0.111324 -0.581615 -0.409335 0.310100 -0.356077 0.133433 -0.958977 -0.865564 -0.893380 -0.162788 0.474632 -0.466054 0.420141 0.931754 -0.453195 -0.058791 -0.084268 0.329984 -0.568495 -0.059388 0.856919 0.881349 -0.873322 0.708778 -0.932367 -0.848537 -0.202889 -0.381826 -0.524366 0.705036 -0.398242 0.884826 -0.560708 -0.399758 -0.695860 0.121105 -0.999244 0.112139 -0.436471 -0.911025 -0.508791 0.604787 -0.061315 -0.631124 -0.157896 -0.640310 -0.989838 0.027286
after -0.683271 -0.238356 0.652926 0.119824 -0.241118 0.822145 0.376385 -0.777206 -0.003053 -0.877098 -0.086877 0.687120 0.293953 -0.903004 0.939051 -0.630132 -0.616565 0.944450 -0.241658 -0.036536 0.747188 0.099241 -0.246579 -0.365146 -0.416896 -0.675009 0.871592 -0.839284 0.867747 -0.039160 0.978524 -0.528355 -0.220664 0.284222 0.530341 0.990009 -0.395738 -0.482010 0.837530 0.409086 0.195891 0.862591 0.472776 0.185659 0.189133 -0.637067 0.132885 0.704824 0.728691 -0.356670 0.780056 0.870524 -0.945750 -0.479265 -0.370192 0.581536 0.432742 -0.954209 0.382612 0.595976 -0.163872 0.842719 0.749332 -0.869672
himself -0.034421 0.593059 0.799458 0.455303 -0.767395 0.306284 0.321145 -0.727812 0.980190 0.278907 0.483089 -0.315031 -0.840160 -0.283884 -0.540633 -0.509503 0.766644 -0.707793 -0.284327 -0.717913 0.723889 -0.300336 -0.802782 -0.288211 -0.194863 -0.924808 -0.819035 -0.133010 -0.069136 -0.148499 0.579620 -0.834901 -0.438445 0.399737 -0.040012 0.981150 -0.146016 -0.558929 0.821813 0.851766 0.894338 -0.875975 -0.379837 0.548317 0.204467 0.880096 -0.765525 0.352443 0.059948 0.287258 -0.311552 -0.512506 0.188493 -0.325177 -0.851412 0.817379 -0.695974 0.499125 0.223695 -0.623018 -0.951805 0.848475 -0.363678 0.583111
old -0.147404 0.862140 -0.534375 -0.094027 -0.353501 -0.193959 0.433910 -0.693622 0.298664 -0.822943 0.579851 0.425748 -0.049060 -0.146035 -0.680556 -0.951339 0.116667 0.582900 0.532104 0.667395 -0.184445 0.108227 -0.112006 -0.507557 -0.673528 0.565914 0.637151 -0.621518 0.652605 -0.597054 0.652971 0.402032 -0.003363 0.789078 0.442557 0.953530 0.244641 0.929613 -0.231046 0.018355 0.330641 0.791411 0.956712 -0.142120 -0.795225 0.120345 0.048862 0.702432 -0.502774 0.516737 0.545982 0.313181 -0.184183 -0.179535 0.234377 0.804782 0.755809 0.299398 0.653064 0.627330 0.686207 -0.294976 0.917895 0.411126
again 0.701438 0.989935 0.881291 -0.744854 0.936526 -0.743987 0.812427 -0.620606 0.213092 0.038814 -0.750579 0.655378 -0.607822 0.910757 -0.724368 -0.235147 -0.345075 0.802133 0.749815 -0.593626 0.678944 0.974175 0.839834 -0.447676 -0.974575 0.300245 0.080579 -0.557474 -0.191063 -0.397416 0.548901 -0.703720 -0.692768 -0.097319 0.206787 -0.890065 0.471238 -0.576498 0.654310 -0.216419 -0.694654 -0.071688 0.492586 0.960110 0.823025 -0.252454 0.192318 -0.820466 -0.000199 0.215899 -0.002098 -0.348681 0.284085 -0.624286 0.504913 -0.057039 -0.557292 -0.043879 0.788554 -0.547204 -0.890957 -0.597945 -0.624546 0.063443
shall 0.478513 -0.330819 -0.980663 0.570781 -0.206531 0.010575 -0.028686 0.308364 -0.459095 0.330885 -0.199543 -0.437423 0.850782 0.603492 0.809344 0.461316 0.006264 -0.512124 0.930183 0.638875 -0.061314 0.117505 0.477959 0.969945 0.795117 -0.529639 0.316462 -0.025883 -0.502242 0.458208 -0.838876 -0.413286 0.167610 -0.719623 0.996222 -0.762516 0.734082 -0.674508 -0.733271 -0.089551 0.513772 0.787896 0.773378 -0.390350 -0.537432 -0.635034 -0.949524 0.690323 0.273573 -0.667950 0.305862 0.898003 0.767536 0.346825 0.666378 0.081125 -0.979048 -0.212060 -0.614036 0.748500 0.302372 0.218072 -0.358386 -0.315800
come 0.370802 -0.673859 0.283964 -0.632162 -0.507152 0.942151 0.302323 0.003658 0.314392 -0.598168 -0.786430 0.985351 0.307460 -0.440684 -0.787662 0.775809 -0.819548 -0.423668 -0.872447 -0.111828 -0.906461 -0.328109 0.512140 0.598625 0.454454 -0.438929 -0.383258 0.399497 -0.579242 0.853181 -0.848412 0.315617 -0.638360 0.736049 0.210845 -0.425697 -0.933063 -0.133412 -0.721929 0.933389 -0.930433 0.453914 -0.829349 -0.451652 -0.997214 0.395664 -0.537968 -0.299548 0.960130 -0.040721 0.410820 0.888361 0.678100 0.317951 0.374472 -0.133977 0.945751 -0.492951 0.661802 0.052660 -0.648478 -0.159355 0.160254 -0.321735
first -0.319341 -0.509018 0.138914 -0.325915 -0.454121 -0.221215 -0.101422 0.952033 0.132266 0.255444 -0.433646 0.272824 0.412996 0.799725 0.569118 0.935537 0.553959 0.071831 0.684202 0.321828 -0.274890 -0.735152 0.657856 0.997029 0.080326 0.352306 -0.924413 0.802734 -0.764267 -0.617111 0.732463 0.092494 -0.684282 0.088332 -0.516481 0.100246 0.632716 -0.065379 0.895992 -0.820524 0.617256 -0.875093 -0.557932 -0.469468 0.028726 -0.789878 -0.279739 -0.586694 -0.062876 0.997319 0.549394 0.073179 0.326785 -0.950299 0.682140 0.250322 -0.361268 -0.500281 0.124720 0.764325 0.696145 0.490273 -0.891674 -0.023615
where -0.715509 -0.378497 0.693771 0.140558 -0.482415 -0.305735 -0.474198 0.530140 -0.062501 0.754276 -0.847875 -0.382400 -0.856304 -0.959731 -0.895793 0.593938 -0.010946 -0.772601 0.339164 0.820932 0.752228 0.431742 -0.182565 -0.732570 0.087820 0.300125 0.584899 0.901294 -0.960324 0.043370 0.521888 0.128135 -0.940833 0.564757 -0.028535 0.313030 -0.376495 0.137289 0.331535 -0.402965 -0.427628 -0.046476 -0.063666 -0.442941 -0.568735 0.023170 -0.031337 -0.625993 -0.944949 -0.458451 -0.536163 0.662687 0.382988 0.983880 0.438117 0.965504 0.205669 -0.993724 0.992018 -0.435418 0.116959 -0.585963 -0.724115 0.407158
mr 0.778616 0.040348 0.446954 0.715736 0.834725 -0.197751 0.813871 -0.709378 -0.184285 -0.489187 0.355062 0.140691 0.729406 0.218740 0.321350 0.648914 -0.895329 0.627041 -0.156646 0.930711 0.042062 0.897965 0.200886 0.202016 -0.725655 0.535356 0.590997 -0.535766 -0.889761 0.271835 -0.769058 0.718527 -0.212978 0.631594 -0.945635 0.435022 -0.374977 -0.802885 0.372483 -0.965928 -0.522689 -0.996159 0.192887 -0.059171 -0.989082 -0.397142 -0.003738 -0.264252 -0.980448 -0.897384 0.505256 -0.098516 -0.135761 0.925139 -0.498013 0.840280 -0.302882 -0.014971 0.488336 0.086350 0.290068 0.535014 -0.791881 -0.216256
good 0.980687 -0.626739 -0.482515 -0.171764 0.404903 0.771847 -0.646621 -0.621160 -0.484212 -0.777605 -0.688081 -0.902136 -0.943611 0.034596 -0.944669 0.462536 0.290093 0.362536 -0.692705 0.207848 -0.597892 -0.925409 0.224670 -0.675556 0.556766 0.383725 0.436098 0.054433 -0.637171 0.408173 0.773185 -0.796338 -0.952136 -0.839510 0.797072 -0.849002 -0.011044 0.264397 -0.460626 -0.997175 0.442734 -0.217829 -0.051159 0.103099 -0.840851 -0.225969 -0.207747 -0.272348 -0.232883 -0.995105 0.852226 -0.733960 -0.392654 -0.326452 0.922059 -0.825464 0.825263 0.788067 0.784680 0.744818 0.138954 0.105038 -0.167316 -0.347653
say -0.195229 0.016096 0.503100 0.351519 -0.110260 0.618375 -0.617558 0.721342 -0.732681 -0.671564 -0.776835 0.945135 0.766128 -0.063301 -0.008333 -0.104541 0.191458 -0.318710 0.520076 0.159828 0.397717 -0.754994 0.055921 0.030787 -0.313471 -0.544122 0.118251 0.084214 0.668509 -0.102469 -0.836523 -0.669541 -0.183429 -0.699242 -0.856446 -0.618183 -0.893633 -0.924512 -0.604652 0.608534 0.709597 0.179514 -0.102968 -0.549083 0.764716 0.201839 -0.421197 0.885482 -0.559417 -0.755033 0.380533 0.422945 0.641342 0.079166 0.258194 -0.933375 -0.382543 -0.065790 0.644484 0.295587 0.798322 -0.038455 -0.736668 -0.147538
made 0.196871 0.873436 0.862471 0.213140 -0.538305 0.171769 0.231385 -0.653938 -0.340156 -0.346935 -0.547242 -0.548371 0.674814 0.201654 -0.585860 -0.050309 0.488569 -0.276462 -0.006432 0.913038 0.402078 0.869662 0.735173 0.150238 -0.312690 -0.994930 0.578516 -0.025987 -0.072544 0.432524 0.447771 0.893502 0.613156 -0.656655 -0.074668 -0.800012 -0.054687 0.034705 -0.163145 0.897049 -0.666965 0.657797 -0.100282 0.696621 -0.380975 -0.130464 0.433984 -0.321089 0.337621 0.845241 -0.960098 0.417800 0.264634 -0.243441 -0.615923 0.400288 -0.098599 -0.059215 -0.274007 -0.405774 -0.756219 -0.119477 0.317402 0.577904
own 0.831838 -0.378451 -0.495347 0.976429 -0.643226 0.471411 0.852083 0.891901 -0.292072 -0.601175 0.224086 0.075456 0.290165 0.542411 -0.285692 0.346184 -0.683793 -0.424742 0.420527 0.715711 -0.490100 -0.487964 0.926878 0.289996 0.696078 0.857938 0.036658 0.816903 -0.150604 0.701451 -0.945262 0.447979 -0.925641 0.507352 0.058012 -0.278646 -0.808681 -0.434513 -0.487228 -0.245320 0.727338 -0.406193 -0.391839 0.378853 -0.550136 -0.672564 0.777104 -0.118778 0.405293 0.649859 0.397419 -0.320696 0.146903 -0.557034 -0.076869 -0.079875 0.640276 0.348543 0.149063 -0.479217 -0.187755 -0.185735 0.182027 -0.176317
never -0.075157 0.961303 0.258397 0.874903 0.687267 0.020022 -0.100613 0.995409 -0.883464 0.023477 -0.281071 -0.397214 0.154253 -0.721566 -0.188328 -0.010862 0.172912 0.166193 0.503861 -0.625405 0.238943 0.655514 0.107097 0.815644 -0.607109 -0.472779 0.976958 0.134088 -0.108798 -0.275164 -0.248233 0.720509 0.358421 -0.831806 -0.082425 0.850343 -0.338015 0.326190 -0.213198 0.086953 -0.228410 0.138636 0.643339 -0.654023 0.852979 -0.592123 0.197845 0.919573 0.500975 0.974272 -0.429865 -0.718233 -0.721982 0.030863 -0.681639 -0.299606 -0.773806 -0.520439 0.356494 0.861207 0.537144 -0.845659 0.033740 0.707904
much 0.461996 -0.470873 0.649115 -0.116127 0.524807 -0.150266 -0.345297 0.650659 0.992124 0.841830 -0.867588 0.040712 0.449760 0.342143 -0.709183 0.354318 -0.961167 -0.569715 0.517683 0.606689 0.475459 0.119238 -0.422105 -0.323382 0.273940 -0.950136 -0.123685 0.589282 -0.976180 0.200672 -0.412974 0.754891 0.019429 0.551580 -0.171501 0.883053 -0.334956 -0.451446 0.038951 0.592279 -0.046282 -0.101893 0.596960 0.164579 0.567993 0.056695 0.330099 0.225106 -0.684477 -0.350774 -0.538453 0.130064 0.778063 -0.959504 0.396404 -0.983637 -0.207937 0.528701 -0.142619 0.228911 -0.688408 -0.988694 -0.588085 -0.921748
go 0.315696 0.841795 -0.034253 0.875638 0.642767 0.731132 0.584549 -0.979550 -0.015681 -0.219712 -0.335626 -0.940126 0.300531 -0.965552 -0.743465 -0.851173 0.635450 -0.934406 -0.984260 0.360859 -0.098584 -0.249819 0.963663 -0.537980 0.343087 0.943245 0.381175 0.348278 -0.328767 0.759994 -0.488620 0.239634 -0.800808 -0.735441 0.657864 -0.747600 -0.534092 0.819678 -0.377776 -0.146228 0.665725 0.744899 -0.356631 -0.045497 0.884024 -0.305636 0.864006 0.886436 0.187420 0.571123 -0.851783 -0.869622 0.726511 0.179009 -0.854923 0.763263 0.008783 -0.058836 -0.425894 -0.367390 -0.339993 -0.224060 -0.757415 -0.696697
came -0.585443 0.714850 -0.094745 -0.099330 -0.633266 -0.181859 -0.534088 0.213226 -0.279036 -0.524956 -0.162424 0.780813 -0.606208 -0.981762 -0.533045 0.955772 -0.420356 -0.713594 -0.676743 -0.374147 0.922306 0.990159 -0.260062 -0.358200 0.691308 -0.863454 0.863256 -0.388525 0.052576 -0.166965 0.513796 0.739553 -0.969612 0.619687 -0.262848 -0.890056 0.983659 0.061068 -0.314109 0.428027 -0.472613 -0.681038 0.424391 -0.327439 -0.294950 -0.796051 0.034417 -0.490535 -0.919724 0.455165 -0.675043 -0.041751 -0.844295 -0.679908 -0.379976 0.687271 0.145912 0.153480 -0.841708 -0.527513 0.178206 -0.599185 0.338518 0.416863
life 0.252466 0.239044 -0.627111 -0.503981 -0.405170 -0.007914 0.101916 0.025207 -0.683744 0.689009 0.684328 0.021067 -0.331719 -0.045492 0.350300 -0.024083 -0.986405 0.606592 0.746504 -0.715573 0.370499 -0.334677 0.806169 0.936537 -0.375066 -0.936354 0.277397 0.037722 0.380515 0.017145 0.851405 0.325267 0.339102 0.971379 0.312648 -0.287068 -0.851742 -0.003122 0.010806 0.116512 0.372815 -0.820397 -0.217483 0.829007 -0.137425 0.862264 0.623169 -0.503261 -0.937678 -0.557346 0.899359 -0.914631 0.782047 0.728805 -0.997530 0.195792 -0.511800 0.827388 -0.570936 0.098099 0.544476 -0.245126 0.153697 0.486338
day -0.831601 -0.053781 -0.334380 -0.156790 0.666404 0.672476 0.317603 -0.564762 0.080471 0.997881 -0.487408 0.535591 0.624896 -0.906884 0.588285 0.355173 -0.694136 -0.073288 -0.888458 -0.008249 -0.963157 -0.512212 -0.927401 -0.632640 0.087346 -0.273244 0.480588 -0.714846 0.448064 0.584349 -0.637724 -0.775836 0.758262 0.827718 0.664740 -0.777861 0.214257 0.618313 0.714473 -0.176557 -0.502618 0.542174 0.869760 -0.283080 -0.528647 -0.495376 -0.013843 -0.060314 0.401583 -0.855623 0.380426 0.103358 -0.202321 -0.229545 -0.880148 -0.713163 -0.634854 -0.274947 -0.164052 0.802758 0.464561 -0.406197 -0.553619 0.249600
here -0.432839 -0.922591 0.606229 0.783267 -0.454683 -0.323129 -0.005343 -0.311005 -0.144148 0.559530 0.452409 -0.968536 0.161081 -0.572233 0.374399 0.104048 0.720119 0.157429 -0.843921 0.002970 0.579614 -0.043854 0.619688 -0.854457 0.803914 0.777157 0.998000 -0.796557 -0.176246 0.969585 0.058220 0.978598 0.619579 -0.858426 -0.604828 -0.966778 0.828864 0.760372 -0.466244 -0.725522 -0.476204 -0.473234 -0.658722 0.254597 -0.495560 -0.591953 -0.411458 0.944557 0.089073 0.080681 -0.900147 0.349916 -0.471561 0.737932 0.243145 0.157072 -0.876955 -0.440878 0.099992 0.356934 0.630550 0.404836 0.575849 -0.044164
great 0.914105 -0.077012 -0.334152 -0.375972 0.064732 0.949316 -0.702084 -0.928616 0.393984 0.215560 0.623598 -0.668857 0.760058 0.114965 -0.043236 0.475619 0.799403 0.276683 -0.729463 0.746320 -0.084836 -0.908629 0.836955 0.176422 0.147125 -0.948909 0.415326 -0.753219 -0.723787 -0.897456 0.369166 0.076559 -0.924331 -0.518288 0.367427 -0.487308 0.683605 -0.549730 -0.489167 -0.291943 0.515568 -0.817298 0.356458 0.025879 0.789608 0.566749 -0.867760 -0.503136 -0.844023 0.351501 0.742985 -0.252490 0.301750 0.557484 -0.402634 0.564986 0.219259 -0.378562 0.510128 0.726299 -0.776004 -0.931662 -0.316623 0.272470
eyes 0.268067 0.794706 -0.432495 0.737500 0.097363 0.851908 0.557448 -0.871915 -0.130103 -0.993897 -0.809209 -0.392978 0.026347 -0.924227 0.002025 -0.222096 -0.403153 0.412454 -0.287040 -0.630942 0.752503 0.370088 0.769117 -0.803887 0.611225 0.507389 -0.250713 -0.742413 -0.015019 0.211227 0.141407 -0.778204 0.400241 0.098366 0.710321 0.339132 0.410450 -0.962226 0.908481 -0.085286 -0.232989 0.401864 -0.418688 0.755341 0.329893 0.821108 0.650292 -0.038151 -0.073558 -0.471354 0.400833 -0.446594 -0.057501 0.934392 0.275593 -0.026845 -0.356367 -0.502894 0.591227 0.494133 -0.508466 -0.282881 0.757154 0.884310
hand 0.085840 -0.770482 -0.685313 -0.347898 0.205746 -0.831204 -0.795389 0.712403 -0.426916 -0.105151 0.624545 0.039546 0.696322 -0.873370 -0.497280 -0.147640 0.740364 0.264914 0.565919 0.903985 -0.188549 0.116035 0.864898 -0.338552 0.843930 0.185095 0.349070 0.073122 -0.650936 0.746886 0.929516 0.407445 0.925036 0.254587 0.054005 0.096547 -0.210163 0.387835 -0.461254 -0.077630 0.796236 0.248322 -0.970164 -0.275145 0.192227 -0.701373 -0.970613 0.951223 -0.437887 -0.187482 0.519320 -0.137680 0.043485 -0.600837 -0.388985 -0.603920 -0.699610 -0.930947 0.059865 0.010214 -0.813814 -0.976651 -0.393803 -0.062683
still 0.544729 0.263108 0.708047 0.790824 -0.301973 0.850524 -0.115676 0.024370 0.610195 0.129210 -0.612958 0.738612 0.483133 -0.489130 -0.327777 0.589754 0.254502 0.593969 -0.317743 0.218481 0.402339 -0.548311 0.670911 0.013202 0.454343 0.231088 -0.766701 -0.408290 0.204873 0.619008 -0.847321 -0.572104 -0.308128 -0.529665 -0.478420 -0.009721 -0.556229 0.665390 -0.437933 -0.544464 -0.049164 0.453703 0.310659 0.612574 -0.004587 -0.016892 0.052946 0.039131 -0.499893 -0.929020 -0.258299 -0.616993 -0.984481 -0.639503 -0.318537 0.015240 -0.968866 0.662835 0.200809 -0.951144 0.867868 -0.514607 0.177827 -0.889498
went -0.494975 0.351147 -0.977771 0.315373 -0.087996 -0.119016 -0.391524 0.507406 0.502899 0.443183 -0.935274 0.692072 0.788188 0.190820 0.966681 -0.976230 -0.386757 0.501092 -0.576257 -0.209394 0.054931 -0.849042 0.585691 -0.936423 0.223904 -0.002478 -0.299338 0.901120 -0.560021 0.112354 0.044236 0.143240 0.208823 -0.395875 -0.940485 -0.858165 -0.613716 -0.890833 -0.738682 -0.954169 -0.970925 0.429401 0.169944 0.075985 0.219268 -0.773024 0.786535 0.089284 0.368813 0.717331 -0.297261 0.932620 0.718366 0.231540 0.970856 0.646694 -0.002474 -0.126767 -0.062231 0.483117 -0.292431 0.689124 0.957014 0.707336
way -0.481403 -0.885149 0.348460 -0.634146 0.599819 0.959184 -0.841285 0.118323 0.507440 0.498009 0.359594 0.184629 0.581983 -0.959337 0.223797 0.439660 0.795320 0.446103 0.509475 -0.956527 -0.853473 -0.054109 -0.888430 0.415797 -0.639855 -0.388328 -0.045578 -0.138452 -0.483945 0.227821 -0.807512 0.574629 -0.681177 0.986390 0.007297 -0.093392 -0.251906 0.846493 -0.426014 0.120347 -0.093289 -0.652325 -0.188123 0.957317 -0.694378 -0.786518 -0.423915 -0.728155 -0.010223 -0.768960 0.843729 0.553655 -0.711832 0.974366 0.686219 0.696873 -0.900854 0.747399 0.584530 -0.715499 0.918217 -0.319116 0.676970 -0.207947
without -0.344162 0.802114 0.640199 0.215205 -0.398046 -0.287022 0.851117 0.494859 -0.868796 -0.731527 -0.582209 0.252460 0.324293 -0.310327 0.671296 0.503356 0.707026 -0.981757 -0.354587 -0.789450 0.655819 0.765430 -0.305871 -0.963448 -0.806034 -0.519296 0.928923 0.304313 0.222575 0.132215 -0.294545 -0.287666 -0.685054 0.265020 0.296334 0.935258 -0.651537 0.070173 0.050694 0.916802 -0.839107 -0.151339 0.283115 -0.333558 0.676776 -0.682875 0.118863 0.430140 -0.595937 -0.900083 -0.142950 -0.603288 0.792269 -0.894666 -0.469507 0.300736 0.543345 -0.061743 -0.481470 -0.474806 -0.600175 -0.593603 -0.197270 0.795250
long 0.873968 0.094123 -0.611445 -0.015731 0.042038 -0.081052 0.808673 0.772358 0.347926 -0.679055 0.815742 -0.872776 0.494323 -0.326447 -0.121372 0.634126 -0.239412 -0.072360 0.666901 -0.780573 0.605255 0.869301 -0.551439 0.473489 0.351053 0.957019 -0.474761 -0.165622 -0.295612 0.813546 0.931209 0.192204 -0.224243 -0.793542 0.925199 0.552772 0.728538 -0.976436 -0.593031 0.933388 -0.625594 -0.776514 -0.830826 0.869271 0.726377 0.457188 -0.721165 -0.030790 -0.721246 0.502200 -0.225737 0.263645 0.315091 0.516544 -0.028001 -0.273496 -0.510918 0.072084 -0.153074 0.307028 0.677634 0.738414 0.032330 0.310013
men 0.311747 0.603427 0.733081 0.889272 0.328738 -0.370077 -0.352862 0.393897 -0.687364 -0.892350 0.309351 -0.214227 0.739195 0.730122 0.984216 -0.991398 0.253689 -0.349832 0.337243 -0.572900 0.093402 -0.694091 -0.707370 0.301561 -0.979506 -0.499134 0.233755 0.203151 -0.913005 0.085879 0.848323 0.638271 0.651848 0.377347 -0.275166 0.960685 -0.754066 0.486079 0.630638 -0.486125 0.084246 0.245268 0.537704 0.233923 -0.287063 -0.723940 -0.017747 -0.704273 -0.515702 0.762423 -0.843736 -0.834069 0.990457 0.819239 0.813545 0.467855 -0.362622 -0.904981 0.494532 -0.159173 0.179367 0.650481 0.443199 -0.681576
those 0.952417 0.132016 -0.220328 -0.210430 0.707602 0.026525 -0.160947 0.147184 0.281542 -0.607344 -0.823878 -0.022222 -0.254919 -0.095258 0.033199 0.176692 0.503377 0.882129 -0.152961 0.575141 0.418746 0.896863 -0.831657 0.338537 -0.893492 -0.280393 0.301971 -0.154508 -0.309650 -0.204173 -0.865875 0.866265 0.568056 0.312938 -0.399518 0.239882 -0.464655 0.042707 0.451500 -0.166068 -0.083924 0.805036 -0.540076 -0.482461 -0.515351 -0.083106 0.688920 -0.090497 -0.611093 0.253992 -0.296021 0.558830 -0.134571 0.739102 -0.043643 -0.641437 0.344606 -0.188772 0.654407 0.123949 -0.975458 0.649326 -0.533651 -0.539910
yet -0.863998 0.355863 0.498938 0.890738 -0.656718 0.663946 -0.721699 -0.719569 0.161809 0.800520 0.446103 -0.712034 0.685120 0.745581 -0.932251 -0.357074 0.122783 -0.774783 -0.654110 -0.013765 -0.769507 -0.241915 -0.358828 0.514078 -0.272875 0.306738 0.735805 0.524497 0.638363 0.180365 0.792128 0.083144 0.912508 -0.672942 0.401433 -0.066523 0.114658 -0.672582 0.071383 -0.648649 0.166999 0.926643 0.869438 0.853521 0.453451 -0.537289 -0.832781 0.461754 -0.153356 -0.255076 -0.726535 0.994953 -0.662064 -0.321360 -0.793611 0.598301 -0.219776 0.001971 -0.735318 -0.115222 -0.877276 0.701605 -0.353228 0.024543
thought 0.241707 0.168086 0.908029 -0.513396 0.042525 0.746479 0.428679 0.839080 -0.530598 -0.251451 0.146419 0.470625 0.015931 -0.207950 -0.714243 -0.479978 0.302008 0.596918 0.461880 -0.075533 0.342116 -0.303336 0.167529 0.030568 -0.577109 0.586529 -0.287106 0.084255 -0.401499 -0.216841 -0.240752 0.234754 -0.492716 -0.064848 -0.443207 -0.611795 0.245878 -0.639158 0.805807 -0.214762 -0.174301 -0.028662 0.601780 0.906498 -0.107563 0.286362 0.424715 0.801814 0.425275 -0.358253 -0.784089 0.772526 0.473248 -0.132576 0.523927 0.568184 -0.590229 0.891886 -0.055894 -0.348004 0.251236 -0.793101 0.573472 0.039179
most 0.249307 0.948568 0.330706 -0.453532 0.158683 0.691017 0.613308 0.230047 -0.458208 0.522218 0.776348 -0.860112 -0.852167 0.263206 -0.876604 -0.208806 0.421083 0.316589 -0.502487 -0.468392 -0.302945 -0.226869 0.253424 -0.871013 -0.319111 0.527373 0.894391 -0.555626 -0.037900 0.707776 0.041903 -0.730977 -0.020399 0.224660 0.117580 0.552010 -0.378699 0.280651 0.664556 0.923501 0.723724 -0.760929 -0.121265 -0.072617 0.796118 0.982099 0.706277 -0.085579 0.299138 -0.400716 0.645313 -0.399043 -0.496434 -0.214301 -0.246630 -0.306491 -0.771281 -0.319067 -0.632537 -0.322720 0.279374 0.789705 0.099894 -0.917581
yes 0.144692 0.762759 -0.756737 -0.118186 0.037574 0.403996 -0.106220 0.431920 -0.153822 0.827300 -0.896990 -0.913228 0.168033 0.149568 0.704850 0.106127 0.546988 -0.212013 0.600688 0.200532 -0.665739 0.151148 0.261635 0.489077 -0.074595 -0.415153 0.723631 0.538866 0.445534 -0.332343 0.454734 0.433349 -0.821801 0.137578 0.403396 -0.603888 -0.951857 -0.385437 0.539219 -0.578383 -0.531401 -0.180254 -0.267214 -0.208424 0.992772 0.284152 0.745349 0.061283 -0.400481 0.455897 -0.699056 -0.066130 -0.724280 -0.088402 0.706836 -0.614872 0.332735 0.612475 0.310874 0.294887 -0.316532 0.961822 -0.019283 -0.887390
through -0.604658 -0.856742 0.257839 -0.351095 0.239728 0.802363 -0.517904 0.748164 -0.503141 0.648869 -0.235306 -0.444094 -0.411320 0.428433 -0.901774 -0.337393 0.085241 0.307407 0.778310 0.068603 -0.311762 0.164868 0.697091 -0.490536 0.232763 -0.653442 0.789269 -0.669001 -0.076248 0.873411 -0.902039 0.549505 0.581375 -0.110000 0.334189 0.713043 -0.676557 -0.354267 0.955774 -0.678518 0.638683 -0.814340 -0.809064 0.843941 0.985369 0.699269 -0.147409 -0.648810 -0.332256 0.286070 0.221858 0.178684 -0.533781 0.736642 -0.965249 0.212698 -0.040900 -0.622597 -0.628230 0.368004 0.868462 -0.853921 0.814171 0.492921
away 0.737016 -0.157747 0.122818 -0.753397 -0.107978 -0.962519 0.434258 -0.762272 0.097387 0.859272 0.819051 0.842757 0.537594 -0.819429 0.468522 0.090302 0.119236 -0.001538 0.928355 -0.499725 -0.489242 0.995958 0.467484 -0.454862 0.127313 -0.710553 -0.204048 0.022370 0.035025 0.726450 -0.968510 -0.731911 0.260027 -0.969990 -0.093169 0.398302 0.293368 -0.204290 0.694132 0.889428 0.292073 -0.515841 0.464591 0.973080 0.106312 -0.758847 0.903277 -0.435730 -0.785166 -0.699711 -0.901673 0.262482 0.683726 -0.670259 0.759081 -0.697226 0.393107 -0.653030 0.443364 -0.633815 -0.637486 -0.024501 -0.730161 0.098472
might 0.965902 0.166170 0.345687 0.492968 0.279481 0.377628 0.927648 -0.963833 -0.963451 0.610858 0.081160 -0.426787 -0.689920 -0.116776 -0.889782 -0.851708 0.394332 0.596784 -0.134434 -0.343905 0.041363 -0.251039 0.531992 0.307182 -0.105804 0.242322 0.640217 0.619252 -0.464602 0.977589 0.530953 0.893518 -0.496021 -0.085661 -0.625208 -0.187064 -0.469002 0.409926 0.822785 -0.070121 0.239167 0.347125 0.073853 -0.350742 -0.780883 0.215244 0.168761 0.799298 0.706847 0.486288 -0.317281 -0.545213 0.324848 0.761389 0.937569 0.492541 -0.763580 -0.952371 -0.330877 0.682180 -0.991145 -0.804189 0.688571 -0.953287
same -0.857167 0.211351 -0.028868 0.338879 0.269294 -0.286011 -0.881510 0.913607 -0.057437 -0.575911 -0.672494 -0.897478 -0.753611 -0.897535 -0.915613 -0.507106 0.004668 0.278812 -0.880423 -0.932251 -0.500926 -0.136471 0.578120 0.437141 -0.510421 0.584113 0.473330 0.548349 -0.479637 -0.512953 0.320711 0.347199 -0.504324 -0.420631 -0.428523 0.517932 0.328154 -0.196996 -0.053359 0.359227 0.514428 0.675609 0.230249 0.395890 -0.976965 -0.917323 -0.467097 0.188258 0.757662 -0.759423 0.791460 -0.365585 0.291377 -0.012674 0.856362 0.054193 -0.787373 -0.960121 -0.723635 0.476174 -0.608895 0.767216 -0.618871 -0.734335
even 0.303418 0.525171 -0.379128 -0.387721 -0.681228 0.452320 0.841493 0.582402 -0.967476 -0.245118 0.500801 0.147537 -0.358886 -0.754056 -0.746902 0.906665 0.234926 -0.900551 -0.118744 0.450159 0.722375 -0.785432 0.736720 0.942168 0.153030 0.004626 0.830561 0.754278 0.699856 0.841493 -0.540016 0.967442 -0.144918 -0.157920 -0.568654 -0.611472 -0.200498 0.590795 0.413593 0.194520 -0.793686 0.089294 -0.811833 -0.408234 -0.198657 0.090013 -0.784312 -0.694465 0.409966 0.465274 -0.706831 0.009159 0.458168 -0.205650 -0.183018 0.841478 -0.035875 0.730527 -0.893572 -0.000448 -0.276953 -0.169767 -0.211038 0.382795
being 0.417084 -0.826418 0.646771 0.019435 0.126640 0.187443 0.757004 -0.148526 -0.291203 0.952294 -0.020821 -0.646313 0.916863 -0.032371 0.269361 -0.156106 0.072969 0.144137 0.336996 -0.903577 0.584455 -0.100166 -0.947219 0.353653 -0.950204 0.784331 -0.532138 0.750319 -0.279607 0.794189 -0.152673 -0.658937 0.848041 0.626594 0.129444 0.550343 -0.918133 -0.835531 -0.466918 -0.774712 0.984441 -0.618708 -0.829174 -0.626278 0.256739 -0.374698 0.302997 -0.375310 0.815853 -0.040885 -0.148325 0.271563 0.220277 0.702785 0.038763 -0.880895 0.840379 -0.153539 -0.317901 0.197352 -0.867603 -0.829436 -0.163701 0.249320
think -0.311138 -0.996332 0.197251 0.458409 0.494677 0.221349 -0.539838 0.794307 0.818251 -0.688491 -0.883350 0.885779 -0.005069 0.720669 0.431922 -0.344561 -0.105845 -0.332612 -0.382718 0.744400 -0.023285 0.086558 -0.540242 0.703255 -0.428871 -0.327707 -0.523345 -0.673154 0.417198 0.368450 0.455428 0.021497 0.416945 0.666409 0.650294 -0.502739 0.998204 0.150358 -0.893147 -0.705325 -0.509158 0.629802 -0.377929 -0.934268 -0.413023 -0.573541 -0.613836 0.038481 0.272198 0.108018 -0.973226 0.341565 -0.931225 -0.183874 0.304613 -0.168513 -0.997899 -0.773065 -0.659123 0.959939 -0.291657 -0.404673 -0.374747 -0.317467
too 0.145205 -0.617209 0.810889 0.519240 0.728559 -0.714421 0.996706 0.546915 0.733129 -0.173060 0.116371 -0.137772 0.117379 -0.903772 0.123610 -0.516735 0.280307 0.129471 -0.809827 0.448343 0.855741 -0.908363 -0.316537 0.877326 0.236727 0.891198 0.868721 -0.738490 -0.937765 0.473316 -0.291047 0.217514 0.311734 0.617286 0.278169 0.851817 0.077055 -0.982401 -0.173917 0.880412 0.367138 0.754076 -0.462213 0.156707 -0.654850 0.324929 -0.400045 -0.637843 -0.959896 -0.167581 -0.224407 0.070524 -0.617030 0.162417 0.261914 -0.595088 0.316033 -0.472125 0.031861 0.363990 -0.642834 -0.188965 -0.697368 -0.677918
while 0.173661 -0.580928 -0.572389 0.852593 -0.811957 0.674242 -0.469041 0.421643 -0.774790 0.360392 0.097053 -0.924859 -0.851222 -0.471273 -0.775959 -0.732390 -0.589338 -0.081903 0.749403 0.139878 -0.619808 0.256231 0.422227 0.894768 -0.133673 0.142410 0.664243 -0.400002 0.627419 -0.226165 0.719112 -0.945060 -0.950886 -0.439673 -0.162680 -0.344287 0.011640 0.531706 -0.072266 0.667995 0.919099 0.042095 -0.933277 0.835049 -0.785623 0.607141 0.737179 0.397967 0.071654 -0.625890 -0.230320 0.351852 -0.574928 0.042182 0.020114 0.736263 -0.370228 -0.897123 -0.957007 0.855568 0.156316 -0.768884 -0.360181 -0.751421
looked -0.170321 -0.400143 -0.138559 0.708161 -0.801410 0.331216 -0.425484 0.518070 -0.292505 -0.036689 -0.137938 -0.404141 0.279054 -0.059388 -0.241894 -0.309776 -0.515868 -0.855802 0.586998 0.940486 -0.821829 0.464785 -0.535479 0.672384 0.819351 0.092686 0.942169 -0.856804 -0.161454 0.379864 -0.056653 -0.075786 0.064851 -0.810940 0.255438 -0.361635 -0.281473 0.004847 -0.197944 0.350086 -0.357472 -0.010988 0.743841 0.581873 0.035253 0.730401 0.327364 0.548874 0.571230 -0.514521 0.972179 0.246046 -0.152795 0.078424 0.260803 0.007688 -0.759201 -0.042431 -0.302773 0.876271 0.035701 0.364735 -0.191145 -0.767392
last -0.941330 -0.401273 -0.082607 0.343536 0.729280 -0.075213 0.356215 -0.292848 -0.777550 -0.462041 -0.874106 -0.492229 -0.310636 -0.449242 -0.955120 0.046267 0.338347 0.362591 -0.654591 0.738864 0.380253 0.412028 0.835182 -0.960313 -0.888665 0.890415 0.060599 -0.673543 0.939042 -0.339527 -0.295345 -0.583227 0.933332 -0.795908 -0.156577 -0.845612 0.555423 -0.628432 0.878413 -0.406683 0.436226 -0.999536 -0.117901 -0.870118 -0.213892 0.987646 0.881910 -0.154862 0.400579 -0.086880 0.175937 0.790129 0.022023 0.091234 -0.704622 -0.642678 -0.061475 -0.020514 0.154224 -0.508499 -0.927568 0.671933 0.928801 0.645480
let -0.042389 -0.888312 -0.445843 0.375096 0.803529 0.775546 0.175622 0.623474 0.000725 -0.883339 -0.845316 0.492059 0.924506 -0.003261 0.013179 -0.733259 -0.243643 0.521942 0.230462 -0.040802 -0.411390 -0.573568 -0.589575 0.808048 -0.884681 0.304079 0.531480 0.693476 -0.337903 -0.051665 -0.174897 0.857524 -0.874102 0.800438 -0.937126 -0.243840 -0.730506 -0.147406 0.756392 -0.680821 -0.954683 0.891510 -0.522375 0.326666 0.576003 -0.882087 0.071861 -0.944113 0.965387 0.830119 0.253537 -0.671835 0.628651 -0.862461 0.546499 -0.332663 0.039563 -0.413022 -0.036310 -0.663610 0.710841 -0.926512 -0.106183 -0.362480
face 0.973653 -0.130459 -0.600341 -0.968489 0.452432 -0.259481 0.186205 -0.434975 0.502427 0.809629 -0.799664 -0.690114 -0.660087 0.602977 0.579791 0.841506 -0.316212 0.272963 -0.671011 0.969287 0.086238 -0.131004 0.150030 -0.391679 0.336934 -0.537444 -0.762763 -0.994406 0.926027 0.607749 0.107823 0.680944 -0.153005 -0.849565 -0.435935 0.004650 0.333358 0.965098 -0.793191 0.427929 0.040269 -0.497513 0.147802 0.973411 0.014560 -0.709944 -0.601480 -0.516684 -0.861204 0.380666 -0.726533 0.863788 0.997731 0.517787 -0.284190 0.490016 0.941148 -0.474232 0.475917 0.209495 0.823628 0.070379 0.066726 -0.364870
nothing 0.534837 0.790816 -0.276323 -0.158572 -0.081645 0.809072 0.511628 -0.744848 0.080097 -0.324996 0.940300 -0.034392 0.943391 0.334647 0.814440 -0.149021 -0.704489 -0.180926 -0.002605 0.516977 0.699594 -0.019371 -0.311329 -0.174199 0.463451 0.100855 -0.681959 0.476499 -0.071591 -0.614048 0.749990 -0.526011 -0.055350 -0.888259 -0.518552 -0.984849 0.439872 0.035713 0.243392 -0.398125 -0.611238 -0.684814 -0.150148 -0.077735 0.368221 -0.835008 -0.846296 0.364311 0.119602 0.936451 -0.625628 -0.365116 0.137917 -0.704049 -0.685258 -0.454262 0.590693 -0.269890 0.966086 0.171135 -0.105304 -0.125793 0.072153 -0.646086
every 0.055145 0.990989 -0.464465 -0.492576 0.643458 0.517764 0.547532 -0.937097 -0.492129 0.954258 -0.972300 0.907696 -0.211563 0.789842 0.901484 0.413941 -0.046748 -0.380027 -0.538572 0.071781 -0.535587 0.376447 0.575716 -0.482553 0.973990 0.145227 0.543299 0.052873 -0.679303 -0.504396 0.138116 -0.451825 -0.327303 0.786478 0.758242 -0.763582 -0.269927 -0.991411 -0.821806 0.565080 0.922301 0.388733 0.909987 -0.762615 -0.251353 0.839143 0.695179 0.784633 0.782345 0.946227 0.051236 0.106848 -0.356284 0.205317 -0.233428 -0.819969 -0.053586 -0.823380 -0.152259 -0.430978 0.527738 0.979864 -0.051865 -0.580831
just -0.788107 0.927058 -0.400188 0.275010 -0.307905 -0.226631 0.117505 0.228671 -0.579101 0.954518 -0.113561 0.217002 0.201788 0.829686 -0.010748 -0.316898 0.613605 -0.618990 0.630934 0.243237 0.904539 0.992822 0.057383 0.594595 -0.858570 -0.435438 -0.139068 0.982911 -0.273830 -0.332596 0.397829 -0.348426 0.014690 0.380903 0.820923 -0.425493 0.639932 0.308828 -0.198990 0.937681 -0.335879 0.429288 0.284371 0.472362 0.012708 -0.245220 0.903744 -0.519532 0.652279 0.855702 -0.390215 -0.341234 -0.326812 0.480099 -0.898524 -0.392307 -0.853168 0.131223 0.904248 0.052957 -0.579401 0.929773 0.820665 0.493717
though -0.530450 0.668263 0.802971 -0.395592 -0.138034 -0.386046 -0.617643 -0.978255 -0.675291 -0.290262 0.988078 -0.655763 -0.731407 0.249184 -0.683398 -0.701122 -0.049494 -0.497165 -0.891455 -0.149892 0.353346 -0.006347 -0.421759 0.270401 -0.433814 -0.576632 0.981332 0.339201 -0.744828 -0.072958 0.004746 0.071485 0.553099 -0.034022 -0.298468 0.470577 -0.281240 0.326084 -0.995703 -0.113945 -0.227507 0.199592 0.594315 -0.793731 -0.325533 0.407943 -0.742307 0.808775 -0.645694 -0.841771 -0.692485 -0.961151 0.877482 -0.485083 -0.871398 0.333982 -0.691293 -0.671671 -0.962799 0.863977 -0.433338 0.070754 0.865765 -0.326055
saw -0.121091 -0.307310 -0.673462 0.737517 -0.266261 0.020669 0.224321 -0.918382 -0.564919 0.392888 -0.632719 0.247531 0.443768 -0.126663 0.141703 -0.508287 0.952544 0.856404 0.925779 0.016061 0.639458 -0.534040 0.951914 -0.995422 -0.346300 0.113109 -0.359596 0.388331 0.255612 -0.960682 0.155439 0.145431 -0.948621 -0.213514 0.185360 -0.233650 0.635550 -0.123268 0.704175 0.604745 -0.975927 0.171342 -0.107455 0.523643 -0.528405 0.808581 -0.473462 -0.554842 -0.951176 0.494879 0.809020 0.320744 -0.218085 0.828050 -0.367650 0.752004 -0.987095 -0.962336 0.034960 -0.531272 0.897872 -0.710012 -0.188246 0.951329
make 0.794415 0.731268 -0.833757 -0.142883 -0.182490 0.950990 -0.166002 0.208987 0.571398 -0.699198 -0.942151 0.448996 0.428243 -0.392229 0.955512 -0.623786 -0.688494 0.946114 0.830227 -0.889461 0.906729 -0.660073 -0.775088 0.931345 -0.705869 -0.671469 0.156231 -0.085764 -0.731149 -0.786272 -0.431898 0.909272 -0.372841 -0.296532 0.806465 -0.873359 0.199962 0.636610 0.738104 -0.865000 0.704664 0.927855 -0.593340 -0.399564 -0.653836 -0.647168 0.542029 -0.857207 0.803955 0.754492 0.408599 0.456138 0.464126 -0.558589 0.844821 -0.767812 -0.295538 0.965429 -0.104053 -0.378467 -0.616028 -0.721624 -0.210387 -0.850817
back -0.317324 -0.214266 0.154752 -0.002647 0.904843 0.742044 0.762796 -0.803600 0.010546 0.444236 0.639321 -0.592475 -0.247445 -0.883219 0.434105 -0.496857 -0.521152 0.699521 -0.789804 0.881948 -0.961955 -0.415707 -0.996202 0.325238 -0.569606 0.736393 0.697227 0.508564 -0.085749 0.527369 -0.430284 -0.525807 -0.249096 0.986200 -0.326975 -0.414000 0.880694 -0.245007 -0.661048 0.866951 -0.605900 0.441763 -0.937572 0.453606 0.885844 -0.634537 -0.316087 -0.599506 0.058238 -0.513419 0.736842 -0.145213 -0.156023 0.003546 0.439776 0.340497 -0.881979 0.448739 -0.934496 0.877705 0.741457 0.923826 0.301927 -0.087964
head 0.781600 0.317787 -0.720547 -0.980891 0.045620 -0.104577 0.249226 -0.359627 -0.725079 0.090916 -0.861530 0.231721 0.783174 -0.590470 -0.498233 0.860866 -0.009394 0.775862 -0.426593 0.383744 0.040179 0.854526 -0.368722 -0.420107 -0.592244 0.832419 -0.069209 0.798227 -0.573439 -0.157819 -0.311628 -0.996417 -0.862856 -0.189588 -0.297732 0.449366 0.018522 -0.042740 -0.823198 0.752891 0.339139 -0.526381 0.372642 -0.899966 -0.055459 -0.571607 -0.850173 0.841149 0.594198 0.828482 0.961996 -0.545310 0.597669 -0.804819 0.429357 -0.178426 -0.890124 0.071835 -0.824640 0.740371 -0.455893 0.147226 -0.770938 -0.219770
another 0.481421 -0.897634 -0.598543 -0.847579 -0.913770 -0.809713 -0.517548 0.704256 -0.710593 -0.580001 -0.044511 -0.224477 0.713709 0.217701 0.132157 0.099168 -0.904890 -0.480991 -0.174931 -0.922861 -0.579490 0.828540 0.854066 0.107096 -0.259339 -0.310041 0.819085 -0.888956 0.219433 0.633285 0.598891 0.236194 0.517323 0.560012 0.690236 0.134990 0.326308 -0.090987 0.557158 0.349741 -0.797714 0.071457 -0.082609 -0.926779 0.284633 0.820168 0.528118 0.614723 0.417975 -0.795793 -0.617739 -0.820851 0.636805 0.250602 -0.493097 -0.335400 -0.023198 -0.333632 -0.508150 -0.066222 -0.836539 0.065529 0.638608 -0.995970
young -0.513176 0.802889 0.096177 -0.048898 0.565340 0.050728 0.518614 0.891829 0.696688 0.669542 0.677217 -0.952713 -0.809018 -0.402203 -0.619415 -0.608750 -0.794396 -0.091436 0.981548 -0.200677 -0.626032 0.891150 -0.401932 0.066129 0.390578 -0.278604 -0.494150 -0.960731 -0.447917 0.580260 -0.575573 -0.261016 0.375237 0.365873 -0.993164 0.151357 -0.238243 -0.572189 -0.333057 -0.504899 -0.709766 -0.460245 0.501860 -0.797065 0.294780 -0.077569 -0.317073 -0.033179 0.552426 0.856904 0.935749 -0.879605 0.742209 -0.707715 0.569715 -0.398217 0.457193 0.856375 -0.555175 0.067594 0.803944 0.782961 0.591992 0.355669
seemed 0.159833 0.189851 0.038594 -0.435640 -0.126738 0.186005 -0.067189 0.678935 -0.583840 0.642913 -0.370517 0.224348 -0.962009 0.152331 -0.556786 -0.324427 -0.969946 0.842219 -0.581239 0.763713 -0.639259 0.130213 0.265974 0.446888 0.668928 -0.590798 -0.271210 -0.221147 -0.671330 -0.660829 -0.852832 -0.648257 0.287360 -0.690965 -0.270777 0.470751 -0.925325 -0.144718 -0.052282 -0.953201 0.359637 0.804223 0.937424 -0.691843 0.523617 0.827910 0.482923 0.980554 0.707049 -0.276300 -0.584049 0.818979 0.099074 -0.847672 -0.697872 -0.316763 -0.249581 0.465424 -0.729271 0.105385 -0.796429 0.975347 -0.543289 -0.301901
work 0.777517 0.765087 0.337277 0.330023 0.658605 0.061471 -0.892942 -0.870693 0.044215 -0.786222 0.070608 0.246032 0.128948 0.176155 0.793167 -0.426292 -0.176847 0.517499 0.040387 0.954817 0.053670 -0.550208 -0.969673 -0.035640 -0.540487 0.097853 0.183603 -0.736062 -0.490390 -0.740666 0.055671 0.141675 -0.273982 0.734640 -0.513792 -0.588039 -0.449521 0.735663 -0.283817 0.203974 0.994232 -0.245649 0.341701 0.009753 0.967849 0.163759 -0.807633 0.605963 0.852271 0.741124 0.997818 -0.008030 -0.370148 -0.913041 -0.064093 0.924068 0.184622 0.173448 -0.533100 0.287548 0.606075 -0.404342 -0.573665 -0.163758
take -0.285890 -0.623305 0.840534 0.719593 0.130630 0.995565 0.327346 -0.094402 -0.801911 0.167762 0.114755 -0.461818 -0.513876 -0.131959 -0.745497 -0.330451 0.432044 0.966753 0.104247 -0.530650 0.317589 -0.476048 -0.650342 0.547269 -0.853410 0.172339 0.592883 0.974506 0.999940 -0.766180 -0.309423 0.781549 -0.300474 -0.152903 0.044498 -0.767950 -0.917818 0.366058 0.974571 -0.163660 0.429570 -0.618689 0.072778 0.014826 -0.125078 -0.276827 -0.990672 -0.161060 -0.192749 -0.004225 -0.989433 0.919297 -0.082537 -0.928338 -0.314550 -0.044019 -0.764611 0.298402 -0.218902 -0.657853 -0.296528 -0.786829 0.667111 0.960466
room -0.714530 0.634771 -0.442020 -0.550126 0.002910 0.735401 0.941190 0.275184 0.007321 0.470670 0.128796 0.190721 -0.124593 0.418782 0.959158 -0.295879 0.960477 0.557853 0.503140 -0.849069 0.330851 -0.482583 0.577227 0.004430 0.947661 -0.631435 -0.632628 -0.262410 -0.856532 0.880063 0.220318 -0.577539 -0.515179 -0.514921 -0.023182 0.752949 0.616687 -0.749751 0.811813 0.359171 0.116574 -0.110960 0.531021 -0.970817 0.687775 -0.697052 0.924647 -0.023622 -0.730802 -0.821876 -0.865173 -0.536254 0.790811 -0.603903 -0.727220 0.673227 0.279140 -0.877985 0.155036 0.062098 0.182322 0.600464 -0.251551 0.248639
house -0.062543 -0.464272 -0.305780 0.452031 0.726506 0.905612 0.307430 0.165381 -0.350884 0.380272 0.086652 0.834733 0.449252 0.025453 0.036149 0.201270 -0.147278 0.574244 -0.926955 -0.679410 -0.210570 -0.320003 -0.840600 0.501310 0.513157 0.542243 0.181996 -0.890805 -0.194552 0.057548 -0.424327 -0.699899 0.000897 0.743175 0.326603 0.945349 0.689690 -0.813390 -0.747006 -0.386124 -0.448249 0.188409 0.100230 -0.457563 -0.630495 -0.694410 -0.704828 -0.154216 -0.926963 -0.979000 -0.263702 0.929952 0.485638 -0.288955 0.571901 -0.368318 -0.934638 -0.987200 0.943916 0.984355 0.708370 -0.865875 0.790542 0.028636
once 0.108812 0.613829 -0.062254 -0.030507 0.016819 -0.635669 0.953131 0.292367 0.147374 0.978411 0.253539 -0.850790 -0.171423 0.489523 -0.491490 -0.644021 -0.311600 0.112679 -0.351698 0.215957 -0.765634 0.172141 0.109421 -0.923255 0.217192 0.807152 0.749297 -0.408669 -0.872675 0.550778 -0.083454 -0.844615 0.954978 0.622094 -0.792722 0.588350 -0.069095 0.288923 0.679264 0.970022 0.998756 0.240728 0.242406 0.189152 0.495441 0.115396 -0.048752 -0.273439 0.175628 -0.671676 -0.655635 -0.698495 -0.326075 0.957919 0.235509 0.658966 0.569889 -0.207220 -0.571232 -0.697389 0.923987 0.395443 -0.586662 0.828993
many -0.548365 0.431463 0.793572 -0.607341 0.585130 -0.818740 -0.667554 -0.103321 -0.782721 0.449873 0.306928 -0.792695 0.473426 -0.384274 0.989974 -0.850573 -0.553233 0.430976 0.566569 0.730930 0.072901 -0.041196 -0.441367 -0.180018 0.927240 -0.728186 -0.030410 -0.086838 -0.433673 -0.432597 -0.333634 0.405808 -0.492371 -0.184213 -0.125722 -0.696689 0.091993 -0.753181 0.985038 -0.816458 0.296033 0.541122 -0.718714 0.640800 0.091784 0.857926 0.321715 -0.588700 0.504228 0.823458 0.274208 -0.971548 -0.130502 0.118074 0.436850 0.246055 0.534101 0.444312 0.633450 0.377675 -0.110341 -0.869622 -0.421668 0.273230
